<?xml version="1.0"?>
<MethodSetup Method="MLP::MLP">
  <GeneralInfo>
    <Info name="TMVA Release" value="4.2.0 [262656]"/>
    <Info name="ROOT Release" value="5.34/36 [336420]"/>
    <Info name="Creator" value="lajoie"/>
    <Info name="Date" value="Mon Jun  3 20:49:31 2019"/>
    <Info name="Host" value="Linux rplay53.rcf.bnl.gov 3.10.0-693.11.6.el7.x86_64 #1 SMP Wed Jan 3 18:09:42 CST 2018 x86_64 x86_64 x86_64 GNU/Linux"/>
    <Info name="Dir" value="/gpfs/mnt/gpfs02/phenix/mpcex/lajoie/ISU/ML/TMVA-v4.2.0/test"/>
    <Info name="Training events" value="40000"/>
    <Info name="TrainingTime" value="1.71508774e+03"/>
    <Info name="AnalysisType" value="Regression"/>
  </GeneralInfo>
  <Options>
    <Option name="NCycles" modified="Yes">20000</Option>
    <Option name="HiddenLayers" modified="Yes">N+20</Option>
    <Option name="NeuronType" modified="Yes">tanh</Option>
    <Option name="RandomSeed" modified="No">1</Option>
    <Option name="EstimatorType" modified="No">MSE</Option>
    <Option name="NeuronInputType" modified="No">sum</Option>
    <Option name="V" modified="Yes">False</Option>
    <Option name="VerbosityLevel" modified="No">Default</Option>
    <Option name="VarTransform" modified="Yes">Norm</Option>
    <Option name="H" modified="Yes">False</Option>
    <Option name="CreateMVAPdfs" modified="No">False</Option>
    <Option name="IgnoreNegWeightsInTraining" modified="No">False</Option>
    <Option name="TrainingMethod" modified="Yes">BFGS</Option>
    <Option name="LearningRate" modified="No">2.000000e-02</Option>
    <Option name="DecayRate" modified="No">1.000000e-02</Option>
    <Option name="TestRate" modified="Yes">6</Option>
    <Option name="EpochMonitoring" modified="No">False</Option>
    <Option name="Sampling" modified="Yes">3.000000e-01</Option>
    <Option name="SamplingEpoch" modified="Yes">8.000000e-01</Option>
    <Option name="SamplingImportance" modified="No">1.000000e+00</Option>
    <Option name="SamplingTraining" modified="No">True</Option>
    <Option name="SamplingTesting" modified="No">False</Option>
    <Option name="ResetStep" modified="No">50</Option>
    <Option name="Tau" modified="No">3.000000e+00</Option>
    <Option name="BPMode" modified="No">sequential</Option>
    <Option name="BatchSize" modified="No">-1</Option>
    <Option name="ConvergenceImprove" modified="Yes">1.000000e-06</Option>
    <Option name="ConvergenceTests" modified="Yes">15</Option>
    <Option name="UseRegulator" modified="Yes">False</Option>
    <Option name="UpdateLimit" modified="No">10000</Option>
    <Option name="CalculateErrors" modified="No">False</Option>
    <Option name="WeightRange" modified="No">1.000000e+00</Option>
  </Options>
  <Variables NVar="7">
    <Variable VarIndex="0" Expression="r_pT" Label="r_pT" Title="reco pT" Unit="GeV" Internal="r_pT" Type="F" Min="5.00011301e+00" Max="1.39995605e+02"/>
    <Variable VarIndex="1" Expression="r_cf" Label="r_cf" Title="charge fraction" Unit=" " Internal="r_cf" Type="F" Min="3.00018728e-01" Max="6.99986517e-01"/>
    <Variable VarIndex="2" Expression="r_phi" Label="r_phi" Title="phi" Unit="radians" Internal="r_phi" Type="F" Min="-6.62037194e-01" Max="3.72544193e+00"/>
    <Variable VarIndex="3" Expression="det_eta" Label="det_eta" Title="detector eta" Unit=" " Internal="det_eta" Type="F" Min="-1.52925417e-01" Max="1.53382212e-01"/>
    <Variable VarIndex="4" Expression="r_nc" Label="r_nc" Title="no. of constituents" Unit=" " Internal="r_nc" Type="I" Min="3.00000000e+00" Max="3.10000000e+01"/>
    <Variable VarIndex="5" Expression="r_tndphi" Label="r_tndphi" Title="track-neutral dphi" Unit=" " Internal="r_tndphi" Type="F" Min="-2.95526028e-01" Max="2.88864851e-01"/>
    <Variable VarIndex="6" Expression="r_tndeta" Label="r_tndeta" Title="track-neutral deta" Unit=" " Internal="r_tndeta" Type="F" Min="-2.95803934e-01" Max="3.00156474e-01"/>
  </Variables>
  <Spectators NSpec="0"/>
  <Classes NClass="1">
    <Class Name="Regression" Index="0"/>
  </Classes>
  <Targets NTrgt="1">
    <Target TargetIndex="0" Expression="r_pT/p_pT" Label="r_pT/p_pT" Title="r_pT/p_pT" Unit="" Internal="r_pT_D_p_pT" Type="F" Min="4.19545695e-02" Max="8.93965244e+00"/>
  </Targets>
  <Transformations NTransformations="1">
    <Transform Name="Normalize">
      <Selection>
        <Input NInputs="8">
          <Input Type="Variable" Label="r_pT" Expression="r_pT"/>
          <Input Type="Variable" Label="r_cf" Expression="r_cf"/>
          <Input Type="Variable" Label="r_phi" Expression="r_phi"/>
          <Input Type="Variable" Label="det_eta" Expression="det_eta"/>
          <Input Type="Variable" Label="r_nc" Expression="r_nc"/>
          <Input Type="Variable" Label="r_tndphi" Expression="r_tndphi"/>
          <Input Type="Variable" Label="r_tndeta" Expression="r_tndeta"/>
          <Input Type="Target" Label="r_pT/p_pT" Expression="r_pT/p_pT"/>
        </Input>
        <Output NOutputs="8">
          <Output Type="Variable" Label="r_pT" Expression="r_pT"/>
          <Output Type="Variable" Label="r_cf" Expression="r_cf"/>
          <Output Type="Variable" Label="r_phi" Expression="r_phi"/>
          <Output Type="Variable" Label="det_eta" Expression="det_eta"/>
          <Output Type="Variable" Label="r_nc" Expression="r_nc"/>
          <Output Type="Variable" Label="r_tndphi" Expression="r_tndphi"/>
          <Output Type="Variable" Label="r_tndeta" Expression="r_tndeta"/>
          <Output Type="Target" Label="r_pT/p_pT" Expression="r_pT/p_pT"/>
        </Output>
      </Selection>
      <Class ClassIndex="0">
        <Ranges>
          <Range Index="0" Min="5.0001130104064941e+00" Max="1.3999560546875000e+02"/>
          <Range Index="1" Min="3.0001872777938843e-01" Max="6.9998651742935181e-01"/>
          <Range Index="2" Min="-6.6203719377517700e-01" Max="3.7254419326782227e+00"/>
          <Range Index="3" Min="-1.5292541682720184e-01" Max="1.5338221192359924e-01"/>
          <Range Index="4" Min="3.0000000000000000e+00" Max="3.1000000000000000e+01"/>
          <Range Index="5" Min="-2.9552602767944336e-01" Max="2.8886485099792480e-01"/>
          <Range Index="6" Min="-2.9580393433570862e-01" Max="3.0015647411346436e-01"/>
          <Range Index="7" Min="4.1954569518566132e-02" Max="8.9396524429321289e+00"/>
        </Ranges>
      </Class>
    </Transform>
  </Transformations>
  <MVAPdfs/>
  <Weights>
    <Layout NLayers="3">
      <Layer Index="0" NNeurons="8">
        <Neuron NSynapses="27">
          -1.0112391794354341e+00 2.0974962373039543e+00 7.7307335380369291e-01 1.2554701166268141e+00 -1.8188227168031528e+00 -1.1017231582077864e+00 -2.5295108547952883e-01 1.4444017377154841e+00 -1.4086761086570598e-01 -1.3741910704032553e-01 -1.9231962544270598e+00 -3.4461106848351875e-01 -2.5932387047051693e+00 -9.5458751945179154e-01 -7.7276480205405440e-01 7.0220099475594289e-01 5.1601720883363689e-01 1.6754838093341275e+00 3.1514559284934651e-01 8.9944870038840707e-01 -4.3566633512891112e-01 -1.2814040234364859e+00 5.3778302698388869e-01 5.5080159618110403e-01 -5.6053921386359595e-01 4.9628474879764223e-01 7.8146562950754539e-01 
        </Neuron>
        <Neuron NSynapses="27">
          -5.5194667287639276e-01 -1.8519102262760725e+00 -4.4807528079807957e-01 -1.4605204508449583e-02 1.2831517654502953e+00 -3.8157229089507930e-02 -6.4637501163214817e-01 -2.0728464557963616e-01 2.4989064741642081e-01 -4.1318144124089501e-01 1.3981589985891267e+00 -9.3657842156420323e-01 -6.0479998418057290e-01 1.1188647186546963e+00 9.5877558584992006e-01 1.7496717227975345e+00 1.6380753607905907e+00 -4.6804542593186138e-01 -9.8803687943723917e-01 6.3939231252149387e-01 1.7656349709553004e-01 1.4531524684871147e+00 8.3273675767642286e-01 1.1224416664973658e+00 8.2425570324467357e-01 -1.3855858009799820e+00 5.6636569787246283e-01 
        </Neuron>
        <Neuron NSynapses="27">
          -2.1008559306209103e+00 -8.3945454098124828e-01 -6.0463246316342145e-01 -1.6533828785426641e+00 1.3437045890254855e+00 3.3745642132969234e-01 -1.5823289270739251e+00 -1.7330376957563767e-01 -1.0112850876681774e-01 1.1372891058676651e+00 1.5901821720525877e+00 -1.0253730639879215e+00 2.4632376888540325e-01 -9.8175999800725866e-01 7.3208384837281737e-01 -9.0302483009479062e-01 -6.9668406475849465e-01 -1.6464611581186506e+00 4.1795773074863563e-01 2.8290779621581541e-01 1.7264549564748057e+00 -4.0990315469629718e-01 -1.8618446189980415e+00 -1.2231309654881124e+00 1.3710496386719935e+00 2.7540333534672273e-01 2.7510247963392107e+00 
        </Neuron>
        <Neuron NSynapses="27">
          -3.0008713312218377e-01 1.4719538372124394e+00 -8.6454938128749548e-01 -1.0253279771696275e+00 2.0839950065822052e-01 6.6380755197660601e-01 -3.6456311731345470e-01 -1.4440921599749292e+00 -2.5646164934258170e-01 -1.2371780296848984e+00 9.6096167612737912e-02 1.3153746111027302e+00 -2.1265639107607130e+00 -9.6930913045847744e-01 1.5093139419213195e+00 -4.4221607694062259e-01 -9.6899018122677461e-01 -9.7876691970508900e-01 5.3784653197498267e-01 -1.6732546879924073e+00 -6.6414348347683838e-01 1.0047050250799172e+00 1.6450738952060411e+00 -9.8773477149692013e-01 1.2532498522749429e+00 -1.0441290202972047e+00 8.2934313639418089e-01 
        </Neuron>
        <Neuron NSynapses="27">
          5.0005799812276908e-01 4.1616423077213164e-03 -1.1289271996148762e+00 -2.8195451762175305e-01 3.0893803699649913e-01 1.0209434685982426e+00 -9.4096768724232749e-01 1.8452462575035629e+00 1.3340983688905009e-01 -2.9215811566739680e-01 8.7499393962343819e-01 -1.2732516002404741e+00 -8.4139023951114367e-01 6.2307574358743223e-01 -1.1754314696527760e-01 1.6682980324060435e+00 4.4983796274489801e-01 1.9018085313605110e-01 -1.1381626316843660e+00 -1.1441693902785981e-01 -1.6257450408299814e+00 3.3662929752396126e-01 5.3096072512130520e-02 -1.6803740913731837e+00 2.4416075748353364e-01 -1.4753900565302533e+00 -3.6585478815625810e-01 
        </Neuron>
        <Neuron NSynapses="27">
          9.8024677439877628e-01 1.6150786058157067e+00 -1.3945498453759257e+00 4.9375616472994055e-01 1.2615861847392875e+00 1.9996814564622083e+00 2.6004885733733696e-01 -1.6568169013940957e+00 3.6224983168659447e-01 -1.3344400461169443e+00 1.3696799201358154e+00 1.0463918388840441e+00 -9.0624219779977166e-01 -2.4561606323035776e-01 -4.9790310669629484e-01 -1.2114276524570893e+00 5.8021909126489879e-01 1.3043779955542878e+00 -1.2347483816633848e-03 -6.6324719935325294e-01 3.0622292050707517e-01 9.0879258948913544e-01 7.4759168125560593e-01 9.8627728141944593e-01 -3.7857877323693390e-01 1.5907542266659873e+00 7.5895931921734450e-01 
        </Neuron>
        <Neuron NSynapses="27">
          3.2054112036751642e-01 6.0462613439993262e-01 4.0434394599326678e-01 -5.2374110467522550e-01 -8.4156552056034339e-01 1.0442094168974350e+00 -4.7199161408086071e-01 -4.9819233423031783e-01 7.0499763368099311e-01 7.1828833177380669e-01 -3.4355739700203425e-01 1.2168414022018674e+00 3.0876540867064155e+00 -1.7274095271302357e+00 5.6740715284602650e-01 5.8796817592774372e-02 4.9374690461909582e-01 -1.7917543576945054e+00 -1.1012307962725318e+00 1.1506990180723224e+00 1.6864934845330894e+00 -1.5457579564668358e+00 -5.2016141292486640e-01 -5.7050277944359307e-01 3.2394803885507367e-01 1.4401505612163996e+00 -2.3494996987999323e-01 
        </Neuron>
        <Neuron NSynapses="27">
          -1.9219424157786064e-01 -6.0465024581905402e-01 1.5374108107846653e+00 1.4081531545819761e+00 1.3162658190709204e+00 4.1983447879036129e-01 -1.2872371959031605e+00 -2.3776626822339235e+00 4.4582252022459540e-01 3.6403186870521931e-01 -1.3782887637515155e+00 -9.9696344477505361e-01 1.1755888580215272e+00 -1.6044864167969655e-02 -1.6978579643040943e+00 1.8970061613645219e+00 2.9122787907467740e-01 -4.1968600531005334e-01 -1.5549882826265851e+00 1.9953911582569306e+00 1.6596958525559635e+00 9.2796179802660539e-01 -2.0074113471097682e-01 -2.5020060070053454e+00 -9.4834537426256449e-01 2.0859435124929755e+00 5.7789890940487043e-01 
        </Neuron>
      </Layer>
      <Layer Index="1" NNeurons="28">
        <Neuron NSynapses="1">
          -2.0846680279817099e-02 
        </Neuron>
        <Neuron NSynapses="1">
          -9.4113800212327400e-03 
        </Neuron>
        <Neuron NSynapses="1">
          -2.7430781028326415e-04 
        </Neuron>
        <Neuron NSynapses="1">
          -6.9801831774539439e-03 
        </Neuron>
        <Neuron NSynapses="1">
          -1.3585736580362230e-02 
        </Neuron>
        <Neuron NSynapses="1">
          -2.2795837055078965e-02 
        </Neuron>
        <Neuron NSynapses="1">
          1.6411872222514085e-02 
        </Neuron>
        <Neuron NSynapses="1">
          1.4699610962177171e-03 
        </Neuron>
        <Neuron NSynapses="1">
          9.4725368917095515e-02 
        </Neuron>
        <Neuron NSynapses="1">
          -2.2648359802047997e-02 
        </Neuron>
        <Neuron NSynapses="1">
          -1.1996847757792273e-02 
        </Neuron>
        <Neuron NSynapses="1">
          5.5504077485444966e-03 
        </Neuron>
        <Neuron NSynapses="1">
          -1.2561533350815545e-02 
        </Neuron>
        <Neuron NSynapses="1">
          -1.0173455291366786e-02 
        </Neuron>
        <Neuron NSynapses="1">
          7.8137700747712025e-03 
        </Neuron>
        <Neuron NSynapses="1">
          1.1794487275591178e-02 
        </Neuron>
        <Neuron NSynapses="1">
          2.4649851696553629e-03 
        </Neuron>
        <Neuron NSynapses="1">
          2.6828972841528628e-03 
        </Neuron>
        <Neuron NSynapses="1">
          4.3683120547348089e-02 
        </Neuron>
        <Neuron NSynapses="1">
          -4.3477372408430598e-04 
        </Neuron>
        <Neuron NSynapses="1">
          1.1055182665342051e-02 
        </Neuron>
        <Neuron NSynapses="1">
          1.5608125083685417e-02 
        </Neuron>
        <Neuron NSynapses="1">
          -4.6803463411584185e-03 
        </Neuron>
        <Neuron NSynapses="1">
          1.6147695202151568e-03 
        </Neuron>
        <Neuron NSynapses="1">
          -1.6143164144704569e-02 
        </Neuron>
        <Neuron NSynapses="1">
          -1.5521899501260338e-02 
        </Neuron>
        <Neuron NSynapses="1">
          1.1527329471044481e-02 
        </Neuron>
        <Neuron NSynapses="1">
          -8.1045300748613935e-01 
        </Neuron>
      </Layer>
      <Layer Index="2" NNeurons="1">
        <Neuron NSynapses="0"/>
      </Layer>
    </Layout>
  </Weights>
</MethodSetup>
