<?xml version="1.0"?>
<MethodSetup Method="BDT::BDTG">
  <GeneralInfo>
    <Info name="TMVA Release" value="4.2.1 [262657]"/>
    <Info name="ROOT Release" value="6.18/00 [397824]"/>
    <Info name="Creator" value="zhai"/>
    <Info name="Date" value="Fri Apr 23 15:37:00 2021"/>
    <Info name="Host" value="Linux centos7 4.15.0-48-generic #51-Ubuntu SMP Wed Apr 3 08:28:49 UTC 2019 x86_64 x86_64 x86_64 GNU/Linux"/>
    <Info name="Dir" value="/gpfs/home/belle2/zhai/B0_phi_KS0/Full_reco/train_BDTG"/>
    <Info name="Training events" value="45438"/>
    <Info name="TrainingTime" value="3.34552500e+01"/>
    <Info name="AnalysisType" value="Classification"/>
  </GeneralInfo>
  <Options>
    <Option name="V" modified="Yes">False</Option>
    <Option name="VerbosityLevel" modified="No">Default</Option>
    <Option name="VarTransform" modified="No">None</Option>
    <Option name="H" modified="Yes">False</Option>
    <Option name="CreateMVAPdfs" modified="No">False</Option>
    <Option name="IgnoreNegWeightsInTraining" modified="No">False</Option>
    <Option name="NTrees" modified="Yes">1000</Option>
    <Option name="MaxDepth" modified="Yes">2</Option>
    <Option name="MinNodeSize" modified="Yes">2.5%</Option>
    <Option name="nCuts" modified="Yes">20</Option>
    <Option name="BoostType" modified="Yes">Grad</Option>
    <Option name="AdaBoostR2Loss" modified="No">quadratic</Option>
    <Option name="UseBaggedBoost" modified="Yes">True</Option>
    <Option name="Shrinkage" modified="Yes">1.000000e-01</Option>
    <Option name="AdaBoostBeta" modified="No">5.000000e-01</Option>
    <Option name="UseRandomisedTrees" modified="No">False</Option>
    <Option name="UseNvars" modified="No">6</Option>
    <Option name="UsePoissonNvars" modified="No">True</Option>
    <Option name="BaggedSampleFraction" modified="Yes">5.000000e-01</Option>
    <Option name="UseYesNoLeaf" modified="No">True</Option>
    <Option name="NegWeightTreatment" modified="No">pray</Option>
    <Option name="Css" modified="No">1.000000e+00</Option>
    <Option name="Cts_sb" modified="No">1.000000e+00</Option>
    <Option name="Ctb_ss" modified="No">1.000000e+00</Option>
    <Option name="Cbb" modified="No">1.000000e+00</Option>
    <Option name="NodePurityLimit" modified="No">5.000000e-01</Option>
    <Option name="SeparationType" modified="No">giniindex</Option>
    <Option name="RegressionLossFunctionBDTG" modified="No">huber</Option>
    <Option name="HuberQuantile" modified="No">7.000000e-01</Option>
    <Option name="DoBoostMonitor" modified="No">False</Option>
    <Option name="UseFisherCuts" modified="No">False</Option>
    <Option name="MinLinCorrForFisher" modified="No">8.000000e-01</Option>
    <Option name="UseExclusiveVars" modified="No">False</Option>
    <Option name="DoPreselection" modified="No">False</Option>
    <Option name="SigToBkgFraction" modified="No">1.000000e+00</Option>
    <Option name="PruneMethod" modified="No">nopruning</Option>
    <Option name="PruneStrength" modified="No">0.000000e+00</Option>
    <Option name="PruningValFraction" modified="No">5.000000e-01</Option>
    <Option name="SkipNormalization" modified="No">False</Option>
    <Option name="nEventsMin" modified="No">0</Option>
    <Option name="UseBaggedGrad" modified="No">False</Option>
    <Option name="GradBaggingFraction" modified="No">5.000000e-01</Option>
    <Option name="UseNTrainEvents" modified="No">0</Option>
    <Option name="NNodesMax" modified="No">0</Option>
  </Options>
  <Variables NVar="35">
    <Variable VarIndex="0" Expression="foxWolframR1" Label="foxWolframR1" Title="R1" Unit="" Internal="foxWolframR1" Type="F" Min="2.94423467e-06" Max="9.91955876e-01"/>
    <Variable VarIndex="1" Expression="foxWolframR2" Label="foxWolframR2" Title="R2" Unit="" Internal="foxWolframR2" Type="F" Min="1.55557208e-02" Max="9.76938188e-01"/>
    <Variable VarIndex="2" Expression="foxWolframR3" Label="foxWolframR3" Title="R3" Unit="" Internal="foxWolframR3" Type="F" Min="9.55223222e-04" Max="9.71457541e-01"/>
    <Variable VarIndex="3" Expression="foxWolframR4" Label="foxWolframR4" Title="R4" Unit="" Internal="foxWolframR4" Type="F" Min="3.62147503e-02" Max="9.67088878e-01"/>
    <Variable VarIndex="4" Expression="harmonicMomentThrust1" Label="harmonicMomentThrust1" Title="h1" Unit="" Internal="harmonicMomentThrust1" Type="F" Min="-4.23208504e+01" Max="1.03780470e+01"/>
    <Variable VarIndex="5" Expression="harmonicMomentThrust2" Label="harmonicMomentThrust2" Title="h2" Unit="" Internal="harmonicMomentThrust2" Type="F" Min="4.33511846e-02" Max="4.26113625e+01"/>
    <Variable VarIndex="6" Expression="harmonicMomentThrust3" Label="harmonicMomentThrust3" Title="h3" Unit="" Internal="harmonicMomentThrust3" Type="F" Min="-4.24847870e+01" Max="1.04666014e+01"/>
    <Variable VarIndex="7" Expression="harmonicMomentThrust4" Label="harmonicMomentThrust4" Title="h4" Unit="" Internal="harmonicMomentThrust4" Type="F" Min="-3.26438010e-01" Max="4.23884201e+01"/>
    <Variable VarIndex="8" Expression="cleoConeThrust0" Label="cleoConeThrust0" Title="cc0" Unit="" Internal="cleoConeThrust0" Type="F" Min="0.00000000e+00" Max="4.49370880e+02"/>
    <Variable VarIndex="9" Expression="cleoConeThrust1" Label="cleoConeThrust1" Title="cc1" Unit="" Internal="cleoConeThrust1" Type="F" Min="0.00000000e+00" Max="1.29103775e+01"/>
    <Variable VarIndex="10" Expression="cleoConeThrust2" Label="cleoConeThrust2" Title="cc2" Unit="" Internal="cleoConeThrust2" Type="F" Min="0.00000000e+00" Max="8.60832882e+00"/>
    <Variable VarIndex="11" Expression="cleoConeThrust3" Label="cleoConeThrust3" Title="cc3" Unit="" Internal="cleoConeThrust3" Type="F" Min="0.00000000e+00" Max="7.68208599e+00"/>
    <Variable VarIndex="12" Expression="cleoConeThrust4" Label="cleoConeThrust4" Title="cc4" Unit="" Internal="cleoConeThrust4" Type="F" Min="0.00000000e+00" Max="9.22666836e+00"/>
    <Variable VarIndex="13" Expression="cleoConeThrust5" Label="cleoConeThrust5" Title="cc5" Unit="" Internal="cleoConeThrust5" Type="F" Min="0.00000000e+00" Max="4.90576315e+00"/>
    <Variable VarIndex="14" Expression="cleoConeThrust6" Label="cleoConeThrust6" Title="cc6" Unit="" Internal="cleoConeThrust6" Type="F" Min="0.00000000e+00" Max="3.68672204e+00"/>
    <Variable VarIndex="15" Expression="cleoConeThrust7" Label="cleoConeThrust7" Title="cc7" Unit="" Internal="cleoConeThrust7" Type="F" Min="0.00000000e+00" Max="3.37061834e+00"/>
    <Variable VarIndex="16" Expression="cleoConeThrust8" Label="cleoConeThrust8" Title="cc8" Unit="" Internal="cleoConeThrust8" Type="F" Min="0.00000000e+00" Max="2.04982710e+00"/>
    <Variable VarIndex="17" Expression="thrustAxisCosTheta" Label="thrustAxisCosTheta" Title="thAxCosTh" Unit="" Internal="thrustAxisCosTheta" Type="F" Min="-9.62641835e-01" Max="9.98568118e-01"/>
    <Variable VarIndex="18" Expression="CS_hso00" Label="CS_hso00" Title="hso00" Unit="" Internal="CS_hso00" Type="F" Min="0.00000000e+00" Max="2.06188178e+00"/>
    <Variable VarIndex="19" Expression="CS_hso02" Label="CS_hso02" Title="hso02" Unit="" Internal="CS_hso02" Type="F" Min="-4.67715114e-01" Max="1.33793890e+00"/>
    <Variable VarIndex="20" Expression="CS_hso04" Label="CS_hso04" Title="hso04" Unit="" Internal="CS_hso04" Type="F" Min="-3.73664439e-01" Max="9.10111487e-01"/>
    <Variable VarIndex="21" Expression="CS_hso10" Label="CS_hso10" Title="hso10" Unit="" Internal="CS_hso10" Type="F" Min="0.00000000e+00" Max="1.35604632e+00"/>
    <Variable VarIndex="22" Expression="CS_hso12" Label="CS_hso12" Title="hso12" Unit="" Internal="CS_hso12" Type="F" Min="-3.52546185e-01" Max="9.16547596e-01"/>
    <Variable VarIndex="23" Expression="CS_hso14" Label="CS_hso14" Title="hso14" Unit="" Internal="CS_hso14" Type="F" Min="-3.92311603e-01" Max="7.48872697e-01"/>
    <Variable VarIndex="24" Expression="CS_hso20" Label="CS_hso20" Title="hso20" Unit="" Internal="CS_hso20" Type="F" Min="1.88980217e-03" Max="1.95837736e+00"/>
    <Variable VarIndex="25" Expression="CS_hso22" Label="CS_hso22" Title="hso22" Unit="" Internal="CS_hso22" Type="F" Min="-3.65012348e-01" Max="1.62778163e+00"/>
    <Variable VarIndex="26" Expression="CS_hso24" Label="CS_hso24" Title="hso24" Unit="" Internal="CS_hso24" Type="F" Min="-3.73292983e-01" Max="9.67512190e-01"/>
    <Variable VarIndex="27" Expression="CS_hoo1" Label="CS_hoo1" Title="hoo1" Unit="" Internal="CS_hoo1" Type="F" Min="-6.08776025e-02" Max="6.81429356e-02"/>
    <Variable VarIndex="28" Expression="CS_hoo2" Label="CS_hoo2" Title="hoo2" Unit="" Internal="CS_hoo2" Type="F" Min="-2.44704448e-02" Max="9.06451285e-01"/>
    <Variable VarIndex="29" Expression="CS_hoo3" Label="CS_hoo3" Title="hoo3" Unit="" Internal="CS_hoo3" Type="F" Min="-4.60474119e-02" Max="7.06290007e-02"/>
    <Variable VarIndex="30" Expression="CS_hoo4" Label="CS_hoo4" Title="hoo4" Unit="" Internal="CS_hoo4" Type="F" Min="-2.89669484e-02" Max="9.08398986e-01"/>
    <Variable VarIndex="31" Expression="CS_et" Label="CS_et" Title="et" Unit="" Internal="CS_et" Type="F" Min="2.73900676e+00" Max="1.49602699e+01"/>
    <Variable VarIndex="32" Expression="CS_mm2" Label="CS_mm2" Title="mm2" Unit="" Internal="CS_mm2" Type="F" Min="-1.62237411e+02" Max="2.79570904e+01"/>
    <Variable VarIndex="33" Expression="phi_M" Label="phi_M" Title="mKK" Unit="" Internal="phi_M" Type="F" Min="1.00400162e+00" Max="1.03399956e+00"/>
    <Variable VarIndex="34" Expression="phi_cosHel" Label="phi_cosHel" Title="cosHel" Unit="" Internal="phi_cosHel" Type="F" Min="-9.99991417e-01" Max="9.99958515e-01"/>
  </Variables>
  <Spectators NSpec="0"/>
  <Classes NClass="2">
    <Class Name="Signal" Index="0"/>
    <Class Name="Background" Index="1"/>
  </Classes>
  <Transformations NTransformations="0"/>
  <MVAPdfs/>
  <Weights NTrees="1000" AnalysisType="1">
    <BinaryTree type="DecisionTree" boostWeight="1.0000000000000000e+00" itree="0">
      <Node pos="s" depth="0" NCoef="0" IVar="1" Cut="4.2361992597579956e-01" cType="1" res="1.5581793850287795e-03" rms="4.9999758601188660e-01" purity="5.0155818462371826e-01" nType="0">
        <Node pos="l" depth="1" NCoef="0" IVar="19" Cut="6.7247763276100159e-02" cType="1" res="2.3772524297237396e-01" rms="4.3987125158309937e-01" purity="7.3772525787353516e-01" nType="0">
          <Node pos="l" depth="2" NCoef="0" IVar="-1" Cut="0.0000000000000000e+00" cType="1" res="6.6236078739166260e-02" rms="3.7459251284599304e-01" purity="8.3118039369583130e-01" nType="-99"/>
          <Node pos="r" depth="2" NCoef="0" IVar="-1" Cut="0.0000000000000000e+00" cType="1" res="-6.2860809266567230e-03" rms="4.9901115894317627e-01" purity="4.6856960654258728e-01" nType="-99"/>
        </Node>
        <Node pos="r" depth="1" NCoef="0" IVar="22" Cut="1.4060860872268677e-01" cType="1" res="-2.6583996415138245e-01" rms="4.2347267270088196e-01" purity="2.3416003584861755e-01" nType="0">
          <Node pos="l" depth="2" NCoef="0" IVar="-1" Cut="0.0000000000000000e+00" cType="1" res="-2.7455141767859459e-02" rms="4.8078620433807373e-01" purity="3.6272430419921875e-01" nType="-99"/>
          <Node pos="r" depth="2" NCoef="0" IVar="-1" Cut="0.0000000000000000e+00" cType="1" res="-7.7390037477016449e-02" rms="3.1665366888046265e-01" purity="1.1304979771375656e-01" nType="-99"/>
        </Node>
      </Node>
    </BinaryTree>
    <BinaryTree type="DecisionTree" boostWeight="1.0000000000000000e+00" itree="1">
      <Node pos="s" depth="0" NCoef="0" IVar="1" Cut="3.8476791977882385e-01" cType="1" res="5.8039855211973190e-03" rms="4.8398676514625549e-01" purity="5.0594508647918701e-01" nType="0">
        <Node pos="l" depth="1" NCoef="0" IVar="19" Cut="2.1710956469178200e-02" cType="1" res="2.5302720069885254e-01" rms="4.1059914231300354e-01" purity="7.7829146385192871e-01" nType="0">
          <Node pos="l" depth="2" NCoef="0" IVar="-1" Cut="0.0000000000000000e+00" cType="1" res="6.9727674126625061e-02" rms="3.2474744319915771e-01" purity="8.8018298149108887e-01" nType="-99"/>
          <Node pos="r" depth="2" NCoef="0" IVar="-1" Cut="0.0000000000000000e+00" cType="1" res="1.5266682021319866e-02" rms="4.8921865224838257e-01" purity="5.8679980039596558e-01" nType="-99"/>
        </Node>
        <Node pos="r" depth="1" NCoef="0" IVar="22" Cut="1.0036277770996094e-01" cType="1" res="-1.9966456294059753e-01" rms="4.4248461723327637e-01" purity="2.7959656715393066e-01" nType="0">
          <Node pos="l" depth="2" NCoef="0" IVar="-1" Cut="0.0000000000000000e+00" cType="1" res="-7.2388532571494579e-03" rms="4.9498921632766724e-01" purity="4.5561137795448303e-01" nType="-99"/>
          <Node pos="r" depth="2" NCoef="0" IVar="-1" Cut="0.0000000000000000e+00" cType="1" res="-6.0451764613389969e-02" rms="3.7221458554267883e-01" purity="1.7066217958927155e-01" nType="-99"/>
        </Node>
      </Node>
    </BinaryTree>
    <BinaryTree type="DecisionTree" boostWeight="1.0000000000000000e+00" itree="2">
      <Node pos="s" depth="0" NCoef="0" IVar="1" Cut="4.3093821406364441e-01" cType="1" res="4.2526851757429540e-04" rms="4.7061735391616821e-01" purity="5.0039255619049072e-01" nType="0">
        <Node pos="l" depth="1" NCoef="0" IVar="22" Cut="9.1317445039749146e-02" cType="1" res="1.9298456609249115e-01" rms="4.2953160405158997e-01" purity="7.3356598615646362e-01" nType="0">
          <Node pos="l" depth="2" NCoef="0" IVar="-1" Cut="0.0000000000000000e+00" cType="1" res="5.6552600115537643e-02" rms="3.7040442228317261e-01" purity="8.2487517595291138e-01" nType="-99"/>
          <Node pos="r" depth="2" NCoef="0" IVar="-1" Cut="0.0000000000000000e+00" cType="1" res="-1.5583643689751625e-03" rms="4.8642423748970032e-01" purity="5.2169227600097656e-01" nType="-99"/>
        </Node>
        <Node pos="r" depth="1" NCoef="0" IVar="21" Cut="2.4896609783172607e-01" cType="1" res="-2.2328919172286987e-01" rms="4.1390970349311829e-01" purity="2.2949273884296417e-01" nType="0">
          <Node pos="l" depth="2" NCoef="0" IVar="-1" Cut="0.0000000000000000e+00" cType="1" res="-1.0095548816025257e-02" rms="4.9349915981292725e-01" purity="4.2589253187179565e-01" nType="-99"/>
          <Node pos="r" depth="2" NCoef="0" IVar="-1" Cut="0.0000000000000000e+00" cType="1" res="-5.7710792869329453e-02" rms="3.6251023411750793e-01" purity="1.5996424853801727e-01" nType="-99"/>
        </Node>
      </Node>
    </BinaryTree>
    <BinaryTree type="DecisionTree" boostWeight="1.0000000000000000e+00" itree="3">
      <Node pos="s" depth="0" NCoef="0" IVar="19" Cut="1.1857318878173828e-01" cType="1" res="-4.5995498076081276e-03" rms="4.5868879556655884e-01" purity="4.9560025334358215e-01" nType="0">
        <Node pos="l" depth="1" NCoef="0" IVar="22" Cut="1.5524128079414368e-01" cType="1" res="1.4846689999103546e-01" rms="4.3198174238204956e-01" purity="6.8143922090530396e-01" nType="0">
          <Node pos="l" depth="2" NCoef="0" IVar="-1" Cut="0.0000000000000000e+00" cType="1" res="5.1464181393384933e-02" rms="3.7867593765258789e-01" purity="8.0740457773208618e-01" nType="-99"/>
          <Node pos="r" depth="2" NCoef="0" IVar="-1" Cut="0.0000000000000000e+00" cType="1" res="-3.7323411554098129e-02" rms="4.2692899703979492e-01" purity="2.7709358930587769e-01" nType="-99"/>
        </Node>
        <Node pos="r" depth="1" NCoef="0" IVar="28" Cut="7.2984108701348305e-03" cType="1" res="-2.3869311809539795e-01" rms="3.9514917135238647e-01" purity="2.1138575673103333e-01" nType="0">
          <Node pos="l" depth="2" NCoef="0" IVar="-1" Cut="0.0000000000000000e+00" cType="1" res="-4.3801083229482174e-03" rms="4.9441000819206238e-01" purity="4.6923553943634033e-01" nType="-99"/>
          <Node pos="r" depth="2" NCoef="0" IVar="-1" Cut="0.0000000000000000e+00" cType="1" res="-5.8455802500247955e-02" rms="3.5238036513328552e-01" purity="1.5480087697505951e-01" nType="-99"/>
        </Node>
      </Node>
    </BinaryTree>
    <BinaryTree type="DecisionTree" boostWeight="1.0000000000000000e+00" itree="4">
      <Node pos="s" depth="0" NCoef="0" IVar="19" Cut="6.5036654472351074e-02" cType="1" res="2.1720398217439651e-03" rms="4.4769948720932007e-01" purity="5.0342661142349243e-01" nType="0">
        <Node pos="l" depth="1" NCoef="0" IVar="22" Cut="1.6223098337650299e-01" cType="1" res="1.7021651566028595e-01" rms="4.0590715408325195e-01" purity="7.3209875822067261e-01" nType="0">
          <Node pos="l" depth="2" NCoef="0" IVar="-1" Cut="0.0000000000000000e+00" cType="1" res="5.1494840532541275e-02" rms="3.5712876915931702e-01" purity="8.3644759654998779e-01" nType="-99"/>
          <Node pos="r" depth="2" NCoef="0" IVar="-1" Cut="0.0000000000000000e+00" cType="1" res="-2.9005408287048340e-02" rms="4.4214320182800293e-01" purity="3.0865299701690674e-01" nType="-99"/>
        </Node>
        <Node pos="r" depth="1" NCoef="0" IVar="22" Cut="5.0965096801519394e-02" cType="1" res="-1.6681122779846191e-01" rms="4.2350479960441589e-01" purity="2.7347698807716370e-01" nType="0">
          <Node pos="l" depth="2" NCoef="0" IVar="-1" Cut="0.0000000000000000e+00" cType="1" res="2.2272977512329817e-03" rms="4.8789748549461365e-01" purity="5.0696468353271484e-01" nType="-99"/>
          <Node pos="r" depth="2" NCoef="0" IVar="-1" Cut="0.0000000000000000e+00" cType="1" res="-4.8524595797061920e-02" rms="3.7525841593742371e-01" purity="1.8547008931636810e-01" nType="-99"/>
        </Node>
      </Node>
    </BinaryTree>
    <BinaryTree type="DecisionTree" boostWeight="1.0000000000000000e+00" itree="5">
      <Node pos="s" depth="0" NCoef="0" IVar="1" Cut="3.8072222471237183e-01" cType="1" res="-5.1998803392052650e-03" rms="4.3712377548217773e-01" purity="4.9436619877815247e-01" nType="0">
        <Node pos="l" depth="1" NCoef="0" IVar="19" Cut="1.4177823439240456e-02" cType="1" res="1.7456878721714020e-01" rms="3.9326924085617065e-01" purity="7.7568405866622925e-01" nType="0">
          <Node pos="l" depth="2" NCoef="0" IVar="-1" Cut="0.0000000000000000e+00" cType="1" res="5.3657222539186478e-02" rms="3.1803175806999207e-01" purity="8.7842279672622681e-01" nType="-99"/>
          <Node pos="r" depth="2" NCoef="0" IVar="-1" Cut="0.0000000000000000e+00" cType="1" res="8.4884045645594597e-03" rms="4.7155067324638367e-01" purity="5.9258228540420532e-01" nType="-99"/>
        </Node>
        <Node pos="r" depth="1" NCoef="0" IVar="19" Cut="2.0143578946590424e-01" cType="1" res="-1.4594790339469910e-01" rms="4.1770446300506592e-01" purity="2.7411127090454102e-01" nType="0">
          <Node pos="l" depth="2" NCoef="0" IVar="-1" Cut="0.0000000000000000e+00" cType="1" res="-1.5027266927063465e-02" rms="4.4887816905975342e-01" purity="3.6468583345413208e-01" nType="-99"/>
          <Node pos="r" depth="2" NCoef="0" IVar="-1" Cut="0.0000000000000000e+00" cType="1" res="-5.3967319428920746e-02" rms="3.3771184086799622e-01" purity="1.3925781846046448e-01" nType="-99"/>
        </Node>
      </Node>
    </BinaryTree>
    <BinaryTree type="DecisionTree" boostWeight="1.0000000000000000e+00" itree="6">
      <Node pos="s" depth="0" NCoef="0" IVar="1" Cut="4.1897463798522949e-01" cType="1" res="2.7571464888751507e-03" rms="4.2914757132530212e-01" purity="5.0304019451141357e-01" nType="0">
        <Node pos="l" depth="1" NCoef="0" IVar="19" Cut="-2.2534388117492199e-03" cType="1" res="1.4791695773601532e-01" rms="4.0151065587997437e-01" purity="7.5053143501281738e-01" nType="0">
          <Node pos="l" depth="2" NCoef="0" IVar="-1" Cut="0.0000000000000000e+00" cType="1" res="5.2950475364923477e-02" rms="3.0491915345191956e-01" purity="8.8841694593429565e-01" nType="-99"/>
          <Node pos="r" depth="2" NCoef="0" IVar="-1" Cut="0.0000000000000000e+00" cType="1" res="1.0007004253566265e-02" rms="4.6501037478446960e-01" purity="6.0088652372360229e-01" nType="-99"/>
        </Node>
        <Node pos="r" depth="1" NCoef="0" IVar="22" Cut="1.0243751853704453e-01" cType="1" res="-1.5336763858795166e-01" rms="4.0226930379867554e-01" purity="2.3685413599014282e-01" nType="0">
          <Node pos="l" depth="2" NCoef="0" IVar="-1" Cut="0.0000000000000000e+00" cType="1" res="-8.2307849079370499e-03" rms="4.7193917632102966e-01" purity="4.0333417057991028e-01" nType="-99"/>
          <Node pos="r" depth="2" NCoef="0" IVar="-1" Cut="0.0000000000000000e+00" cType="1" res="-4.7868203371763229e-02" rms="3.3861377835273743e-01" purity="1.4010989665985107e-01" nType="-99"/>
        </Node>
      </Node>
    </BinaryTree>
    <BinaryTree type="DecisionTree" boostWeight="1.0000000000000000e+00" itree="7">
      <Node pos="s" depth="0" NCoef="0" IVar="22" Cut="7.0485077798366547e-02" cType="1" res="3.5086101852357388e-03" rms="4.2285212874412537e-01" purity="5.0527697801589966e-01" nType="0">
        <Node pos="l" depth="1" NCoef="0" IVar="19" Cut="1.5993650257587433e-01" cType="1" res="1.5361407399177551e-01" rms="3.8955369591712952e-01" purity="7.4558031558990479e-01" nType="0">
          <Node pos="l" depth="2" NCoef="0" IVar="-1" Cut="0.0000000000000000e+00" cType="1" res="4.8928808420896530e-02" rms="3.3517390489578247e-01" purity="8.5402172803878784e-01" nType="-99"/>
          <Node pos="r" depth="2" NCoef="0" IVar="-1" Cut="0.0000000000000000e+00" cType="1" res="-2.0223513245582581e-02" rms="4.6541213989257812e-01" purity="3.4446951746940613e-01" nType="-99"/>
        </Node>
        <Node pos="r" depth="1" NCoef="0" IVar="19" Cut="-6.9570124149322510e-02" cType="1" res="-1.2220939993858337e-01" rms="4.0839284658432007e-01" purity="3.0401545763015747e-01" nType="0">
          <Node pos="l" depth="2" NCoef="0" IVar="-1" Cut="0.0000000000000000e+00" cType="1" res="4.6419404447078705e-02" rms="3.4839704632759094e-01" purity="8.3815646171569824e-01" nType="-99"/>
          <Node pos="r" depth="2" NCoef="0" IVar="-1" Cut="0.0000000000000000e+00" cType="1" res="-3.2519858330488205e-02" rms="4.0083196759223938e-01" purity="2.6065772771835327e-01" nType="-99"/>
        </Node>
      </Node>
    </BinaryTree>
    <BinaryTree type="DecisionTree" boostWeight="1.0000000000000000e+00" itree="8">
      <Node pos="s" depth="0" NCoef="0" IVar="1" Cut="3.3933240175247192e-01" cType="1" res="2.6626086328178644e-03" rms="4.1714331507682800e-01" purity="5.0391298532485962e-01" nType="0">
        <Node pos="l" depth="1" NCoef="0" IVar="19" Cut="-6.0930900275707245e-02" cType="1" res="1.6410319507122040e-01" rms="3.5549825429916382e-01" purity="8.2204955816268921e-01" nType="0">
          <Node pos="l" depth="2" NCoef="0" IVar="-1" Cut="0.0000000000000000e+00" cType="1" res="5.9858545660972595e-02" rms="2.1143211424350739e-01" purity="9.5098662376403809e-01" nType="-99"/>
          <Node pos="r" depth="2" NCoef="0" IVar="-1" Cut="0.0000000000000000e+00" cType="1" res="2.4145977571606636e-02" rms="4.1280487179756165e-01" purity="7.4048721790313721e-01" nType="-99"/>
        </Node>
        <Node pos="r" depth="1" NCoef="0" IVar="22" Cut="9.0760499238967896e-02" cType="1" res="-8.7571859359741211e-02" rms="4.2180621623992920e-01" purity="3.2609593868255615e-01" nType="0">
          <Node pos="l" depth="2" NCoef="0" IVar="-1" Cut="0.0000000000000000e+00" cType="1" res="5.1721925847232342e-03" rms="4.6074512600898743e-01" purity="5.2301031351089478e-01" nType="-99"/>
          <Node pos="r" depth="2" NCoef="0" IVar="-1" Cut="0.0000000000000000e+00" cType="1" res="-3.5094376653432846e-02" rms="3.7956154346466064e-01" purity="2.0441618561744690e-01" nType="-99"/>
        </Node>
      </Node>
    </BinaryTree>
    <BinaryTree type="DecisionTree" boostWeight="1.0000000000000000e+00" itree="9">
      <Node pos="s" depth="0" NCoef="0" IVar="19" Cut="1.1231561005115509e-01" cType="1" res="-2.7212367858737707e-03" rms="4.1070669889450073e-01" purity="4.9687159061431885e-01" nType="0">
        <Node pos="l" depth="1" NCoef="0" IVar="22" Cut="1.5641514956951141e-01" cType="1" res="9.8120585083961487e-02" rms="3.9661708474159241e-01" purity="6.8777918815612793e-01" nType="0">
          <Node pos="l" depth="2" NCoef="0" IVar="-1" Cut="0.0000000000000000e+00" cType="1" res="3.6494120955467224e-02" rms="3.6659100651741028e-01" purity="8.0647623538970947e-01" nType="-99"/>
          <Node pos="r" depth="2" NCoef="0" IVar="-1" Cut="0.0000000000000000e+00" cType="1" res="-2.2876648232340813e-02" rms="4.2350313067436218e-01" purity="2.9799246788024902e-01" nType="-99"/>
        </Node>
        <Node pos="r" depth="1" NCoef="0" IVar="34" Cut="-7.1425092220306396e-01" cType="1" res="-1.5244908630847931e-01" rms="3.8477516174316406e-01" purity="2.1341596543788910e-01" nType="0">
          <Node pos="l" depth="2" NCoef="0" IVar="-1" Cut="0.0000000000000000e+00" cType="1" res="4.3043368496000767e-03" rms="4.6148425340652466e-01" purity="4.0483382344245911e-01" nType="-99"/>
          <Node pos="r" depth="2" NCoef="0" IVar="-1" Cut="0.0000000000000000e+00" cType="1" res="-4.2515054345130920e-02" rms="3.5479909181594849e-01" purity="1.7141720652580261e-01" nType="-99"/>
        </Node>
      </Node>
    </BinaryTree>
    <BinaryTree type="DecisionTree" boostWeight="1.0000000000000000e+00" itree="10">
      <Node pos="s" depth="0" NCoef="0" IVar="19" Cut="1.1585376411676407e-01" cType="1" res="-1.0945609537884593e-03" rms="4.0553712844848633e-01" purity="4.9883460998535156e-01" nType="0">
        <Node pos="l" depth="1" NCoef="0" IVar="22" Cut="1.3819923996925354e-01" cType="1" res="8.5000060498714447e-02" rms="3.9413848519325256e-01" purity="6.8147987127304077e-01" nType="0">
          <Node pos="l" depth="2" NCoef="0" IVar="-1" Cut="0.0000000000000000e+00" cType="1" res="3.5985711961984634e-02" rms="3.5926783084869385e-01" purity="8.2158130407333374e-01" nType="-99"/>
          <Node pos="r" depth="2" NCoef="0" IVar="-1" Cut="0.0000000000000000e+00" cType="1" res="-2.1516244858503342e-02" rms="4.2384332418441772e-01" purity="3.0919662117958069e-01" nType="-99"/>
        </Node>
        <Node pos="r" depth="1" NCoef="0" IVar="34" Cut="6.1899083852767944e-01" cType="1" res="-1.3496685028076172e-01" rms="3.8624671101570129e-01" purity="2.1483145654201508e-01" nType="0">
          <Node pos="l" depth="2" NCoef="0" IVar="-1" Cut="0.0000000000000000e+00" cType="1" res="-4.0311835706233978e-02" rms="3.5391449928283691e-01" purity="1.6948905587196350e-01" nType="-99"/>
          <Node pos="r" depth="2" NCoef="0" IVar="-1" Cut="0.0000000000000000e+00" cType="1" res="1.2193423463031650e-03" rms="4.5115190744400024e-01" purity="3.6634147167205811e-01" nType="-99"/>
        </Node>
      </Node>
    </BinaryTree>
    <BinaryTree type="DecisionTree" boostWeight="1.0000000000000000e+00" itree="11">
      <Node pos="s" depth="0" NCoef="0" IVar="19" Cut="5.5833537131547928e-02" cType="1" res="-7.9032086068764329e-04" rms="4.0181833505630493e-01" purity="5.0008833408355713e-01" nType="0">
        <Node pos="l" depth="1" NCoef="0" IVar="22" Cut="2.0669469237327576e-01" cType="1" res="1.0229764878749847e-01" rms="3.6988928914070129e-01" purity="7.4290502071380615e-01" nType="0">
          <Node pos="l" depth="2" NCoef="0" IVar="-1" Cut="0.0000000000000000e+00" cType="1" res="3.3692933619022369e-02" rms="3.5188350081443787e-01" purity="8.1965631246566772e-01" nType="-99"/>
          <Node pos="r" depth="2" NCoef="0" IVar="-1" Cut="0.0000000000000000e+00" cType="1" res="-2.9742334038019180e-02" rms="3.9711436629295349e-01" purity="2.4565066397190094e-01" nType="-99"/>
        </Node>
        <Node pos="r" depth="1" NCoef="0" IVar="34" Cut="-6.1903631687164307e-01" cType="1" res="-9.3897841870784760e-02" rms="4.0674939751625061e-01" purity="2.8077989816665649e-01" nType="0">
          <Node pos="l" depth="2" NCoef="0" IVar="-1" Cut="0.0000000000000000e+00" cType="1" res="9.9492566660046577e-03" rms="4.5328953862190247e-01" purity="4.4451740384101868e-01" nType="-99"/>
          <Node pos="r" depth="2" NCoef="0" IVar="-1" Cut="0.0000000000000000e+00" cType="1" res="-3.2369595021009445e-02" rms="3.7789332866668701e-01" purity="2.2444368898868561e-01" nType="-99"/>
        </Node>
      </Node>
    </BinaryTree>
    <BinaryTree type="DecisionTree" boostWeight="1.0000000000000000e+00" itree="12">
      <Node pos="s" depth="0" NCoef="0" IVar="22" Cut="7.0485077798366547e-02" cType="1" res="-1.6463791253045201e-03" rms="3.9811071753501892e-01" purity="4.9684265255928040e-01" nType="0">
        <Node pos="l" depth="1" NCoef="0" IVar="19" Cut="2.1131794154644012e-01" cType="1" res="1.0439665615558624e-01" rms="3.7673661112785339e-01" purity="7.3397403955459595e-01" nType="0">
          <Node pos="l" depth="2" NCoef="0" IVar="-1" Cut="0.0000000000000000e+00" cType="1" res="3.6867287009954453e-02" rms="3.4841129183769226e-01" purity="8.2760655879974365e-01" nType="-99"/>
          <Node pos="r" depth="2" NCoef="0" IVar="-1" Cut="0.0000000000000000e+00" cType="1" res="-2.9729567468166351e-02" rms="4.2214900255203247e-01" purity="2.4568966031074524e-01" nType="-99"/>
        </Node>
        <Node pos="r" depth="1" NCoef="0" IVar="34" Cut="6.1891311407089233e-01" cType="1" res="-8.5848435759544373e-02" rms="3.9449167251586914e-01" purity="3.0855163931846619e-01" nType="0">
          <Node pos="l" depth="2" NCoef="0" IVar="-1" Cut="0.0000000000000000e+00" cType="1" res="-2.9910629615187645e-02" rms="3.7179398536682129e-01" purity="2.5593942403793335e-01" nType="-99"/>
          <Node pos="r" depth="2" NCoef="0" IVar="-1" Cut="0.0000000000000000e+00" cType="1" res="9.3851136043667793e-03" rms="4.3500044941902161e-01" purity="4.7363281250000000e-01" nType="-99"/>
        </Node>
      </Node>
    </BinaryTree>
    <BinaryTree type="DecisionTree" boostWeight="1.0000000000000000e+00" itree="13">
      <Node pos="s" depth="0" NCoef="0" IVar="22" Cut="2.9080212116241455e-02" cType="1" res="-4.4097527861595154e-03" rms="3.9515990018844604e-01" purity="4.9567070603370667e-01" nType="0">
        <Node pos="l" depth="1" NCoef="0" IVar="19" Cut="2.1045184135437012e-01" cType="1" res="1.3581228256225586e-01" rms="3.4703198075294495e-01" purity="8.0272316932678223e-01" nType="0">
          <Node pos="l" depth="2" NCoef="0" IVar="-1" Cut="0.0000000000000000e+00" cType="1" res="4.1629429906606674e-02" rms="3.1819498538970947e-01" purity="8.7001764774322510e-01" nType="-99"/>
          <Node pos="r" depth="2" NCoef="0" IVar="-1" Cut="0.0000000000000000e+00" cType="1" res="-1.3390653766691685e-02" rms="4.6116781234741211e-01" purity="3.2156369090080261e-01" nType="-99"/>
        </Node>
        <Node pos="r" depth="1" NCoef="0" IVar="19" Cut="-6.0826879926025867e-03" cType="1" res="-6.0846108943223953e-02" rms="3.9928594231605530e-01" purity="3.7208867073059082e-01" nType="0">
          <Node pos="l" depth="2" NCoef="0" IVar="-1" Cut="0.0000000000000000e+00" cType="1" res="2.2498575970530510e-02" rms="3.8309529423713684e-01" purity="7.4093264341354370e-01" nType="-99"/>
          <Node pos="r" depth="2" NCoef="0" IVar="-1" Cut="0.0000000000000000e+00" cType="1" res="-2.5022208690643311e-02" rms="3.9280319213867188e-01" purity="2.6293277740478516e-01" nType="-99"/>
        </Node>
      </Node>
    </BinaryTree>
    <BinaryTree type="DecisionTree" boostWeight="1.0000000000000000e+00" itree="14">
      <Node pos="s" depth="0" NCoef="0" IVar="22" Cut="6.0486417263746262e-02" cType="1" res="6.1101478058844805e-04" rms="3.9009323716163635e-01" purity="4.9830254912376404e-01" nType="0">
        <Node pos="l" depth="1" NCoef="0" IVar="19" Cut="2.3769587278366089e-01" cType="1" res="1.0126098245382309e-01" rms="3.6247268319129944e-01" purity="7.5584638118743896e-01" nType="0">
          <Node pos="l" depth="2" NCoef="0" IVar="-1" Cut="0.0000000000000000e+00" cType="1" res="3.4046452492475510e-02" rms="3.4154713153839111e-01" purity="8.3081275224685669e-01" nType="-99"/>
          <Node pos="r" depth="2" NCoef="0" IVar="-1" Cut="0.0000000000000000e+00" cType="1" res="-2.5544688105583191e-02" rms="4.2155310511589050e-01" purity="2.4306139349937439e-01" nType="-99"/>
        </Node>
        <Node pos="r" depth="1" NCoef="0" IVar="34" Cut="-6.1902666091918945e-01" cType="1" res="-6.9623209536075592e-02" rms="3.9328819513320923e-01" purity="3.1858670711517334e-01" nType="0">
          <Node pos="l" depth="2" NCoef="0" IVar="-1" Cut="0.0000000000000000e+00" cType="1" res="1.2869268655776978e-02" rms="4.2883482575416565e-01" purity="4.8650234937667847e-01" nType="-99"/>
          <Node pos="r" depth="2" NCoef="0" IVar="-1" Cut="0.0000000000000000e+00" cType="1" res="-2.7449453249573708e-02" rms="3.7087833881378174e-01" purity="2.6107928156852722e-01" nType="-99"/>
        </Node>
      </Node>
    </BinaryTree>
    <BinaryTree type="DecisionTree" boostWeight="1.0000000000000000e+00" itree="15">
      <Node pos="s" depth="0" NCoef="0" IVar="1" Cut="4.8078891634941101e-01" cType="1" res="-3.7076608277857304e-03" rms="3.8748946785926819e-01" purity="4.9436751008033752e-01" nType="0">
        <Node pos="l" depth="1" NCoef="0" IVar="19" Cut="1.5925042331218719e-01" cType="1" res="5.5739350616931915e-02" rms="3.9090883731842041e-01" purity="6.6608697175979614e-01" nType="0">
          <Node pos="l" depth="2" NCoef="0" IVar="-1" Cut="0.0000000000000000e+00" cType="1" res="2.1368367597460747e-02" rms="3.8022628426551819e-01" purity="7.3786169290542603e-01" nType="-99"/>
          <Node pos="r" depth="2" NCoef="0" IVar="-1" Cut="0.0000000000000000e+00" cType="1" res="-2.4902023375034332e-02" rms="4.0904858708381653e-01" purity="2.5595515966415405e-01" nType="-99"/>
        </Node>
        <Node pos="r" depth="1" NCoef="0" IVar="21" Cut="1.5659494698047638e-01" cType="1" res="-1.0941656678915024e-01" rms="3.5771036148071289e-01" purity="1.8901534378528595e-01" nType="0">
          <Node pos="l" depth="2" NCoef="0" IVar="-1" Cut="0.0000000000000000e+00" cType="1" res="1.6254514455795288e-02" rms="4.6937569975852966e-01" purity="4.9358227849006653e-01" nType="-99"/>
          <Node pos="r" depth="2" NCoef="0" IVar="-1" Cut="0.0000000000000000e+00" cType="1" res="-3.3585388213396072e-02" rms="3.3543720841407776e-01" purity="1.5289884805679321e-01" nType="-99"/>
        </Node>
      </Node>
    </BinaryTree>
    <BinaryTree type="DecisionTree" boostWeight="1.0000000000000000e+00" itree="16">
      <Node pos="s" depth="0" NCoef="0" IVar="19" Cut="-8.3460807800292969e-03" cType="1" res="3.8857053732499480e-04" rms="3.8560980558395386e-01" purity="5.0255054235458374e-01" nType="0">
        <Node pos="l" depth="1" NCoef="0" IVar="21" Cut="5.7253044843673706e-01" cType="1" res="1.1802773177623749e-01" rms="3.0838772654533386e-01" purity="8.4718054533004761e-01" nType="0">
          <Node pos="l" depth="2" NCoef="0" IVar="-1" Cut="0.0000000000000000e+00" cType="1" res="3.9874773472547531e-02" rms="2.8702768683433533e-01" purity="8.8334447145462036e-01" nType="-99"/>
          <Node pos="r" depth="2" NCoef="0" IVar="-1" Cut="0.0000000000000000e+00" cType="1" res="-1.8271168693900108e-02" rms="4.0920966863632202e-01" purity="5.2662724256515503e-01" nType="-99"/>
        </Node>
        <Node pos="r" depth="1" NCoef="0" IVar="34" Cut="-7.1429049968719482e-01" cType="1" res="-4.8417922109365463e-02" rms="4.0349185466766357e-01" purity="3.5956943035125732e-01" nType="0">
          <Node pos="l" depth="2" NCoef="0" IVar="-1" Cut="0.0000000000000000e+00" cType="1" res="2.3127481341362000e-02" rms="4.2885121703147888e-01" purity="5.7108217477798462e-01" nType="-99"/>
          <Node pos="r" depth="2" NCoef="0" IVar="-1" Cut="0.0000000000000000e+00" cType="1" res="-2.1251419559121132e-02" rms="3.8765040040016174e-01" purity="3.0494010448455811e-01" nType="-99"/>
        </Node>
      </Node>
    </BinaryTree>
    <BinaryTree type="DecisionTree" boostWeight="1.0000000000000000e+00" itree="17">
      <Node pos="s" depth="0" NCoef="0" IVar="22" Cut="1.3091811537742615e-01" cType="1" res="-1.2448551133275032e-03" rms="3.8317549228668213e-01" purity="4.9751898646354675e-01" nType="0">
        <Node pos="l" depth="1" NCoef="0" IVar="19" Cut="2.2015307843685150e-01" cType="1" res="5.1992569118738174e-02" rms="3.8508650660514832e-01" purity="6.5597230195999146e-01" nType="0">
          <Node pos="l" depth="2" NCoef="0" IVar="-1" Cut="0.0000000000000000e+00" cType="1" res="2.2243581712245941e-02" rms="3.7615528702735901e-01" purity="7.5628930330276489e-01" nType="-99"/>
          <Node pos="r" depth="2" NCoef="0" IVar="-1" Cut="0.0000000000000000e+00" cType="1" res="-2.4936236441135406e-02" rms="3.8680139183998108e-01" purity="2.0007520914077759e-01" nType="-99"/>
        </Node>
        <Node pos="r" depth="1" NCoef="0" IVar="34" Cut="8.0949658155441284e-01" cType="1" res="-9.8988234996795654e-02" rms="3.5968118906021118e-01" purity="2.0660024881362915e-01" nType="0">
          <Node pos="l" depth="2" NCoef="0" IVar="-1" Cut="0.0000000000000000e+00" cType="1" res="-3.1331211328506470e-02" rms="3.4151917695999146e-01" purity="1.8057921528816223e-01" nType="-99"/>
          <Node pos="r" depth="2" NCoef="0" IVar="-1" Cut="0.0000000000000000e+00" cType="1" res="1.2401135638356209e-02" rms="4.4165849685668945e-01" purity="3.9249491691589355e-01" nType="-99"/>
        </Node>
      </Node>
    </BinaryTree>
    <BinaryTree type="DecisionTree" boostWeight="1.0000000000000000e+00" itree="18">
      <Node pos="s" depth="0" NCoef="0" IVar="17" Cut="6.2500429153442383e-01" cType="1" res="-3.4660613164305687e-03" rms="3.7941750884056091e-01" purity="4.9355182051658630e-01" nType="0">
        <Node pos="l" depth="1" NCoef="0" IVar="19" Cut="2.2391538321971893e-01" cType="1" res="3.7825740873813629e-02" rms="3.7764680385589600e-01" purity="5.5291664600372314e-01" nType="0">
          <Node pos="l" depth="2" NCoef="0" IVar="-1" Cut="0.0000000000000000e+00" cType="1" res="1.9130095839500427e-02" rms="3.7754812836647034e-01" purity="6.5485072135925293e-01" nType="-99"/>
          <Node pos="r" depth="2" NCoef="0" IVar="-1" Cut="0.0000000000000000e+00" cType="1" res="-2.8156511485576630e-02" rms="3.4269034862518311e-01" purity="1.5117646753787994e-01" nType="-99"/>
        </Node>
        <Node pos="r" depth="1" NCoef="0" IVar="19" Cut="-2.6455428451299667e-02" cType="1" res="-1.2221003323793411e-01" rms="3.5890027880668640e-01" purity="3.2283464074134827e-01" nType="0">
          <Node pos="l" depth="2" NCoef="0" IVar="-1" Cut="0.0000000000000000e+00" cType="1" res="1.2269866652786732e-02" rms="3.6501225829124451e-01" purity="7.7721941471099854e-01" nType="-99"/>
          <Node pos="r" depth="2" NCoef="0" IVar="-1" Cut="0.0000000000000000e+00" cType="1" res="-4.1797257959842682e-02" rms="3.4491038322448730e-01" purity="2.0611014962196350e-01" nType="-99"/>
        </Node>
      </Node>
    </BinaryTree>
    <BinaryTree type="DecisionTree" boostWeight="1.0000000000000000e+00" itree="19">
      <Node pos="s" depth="0" NCoef="0" IVar="34" Cut="6.1901187896728516e-01" cType="1" res="-9.7567716147750616e-04" rms="3.7897804379463196e-01" purity="4.9585798382759094e-01" nType="0">
        <Node pos="l" depth="1" NCoef="0" IVar="34" Cut="-5.3746509552001953e-01" cType="1" res="-4.1848041117191315e-02" rms="3.7280091643333435e-01" purity="4.3255984783172607e-01" nType="0">
          <Node pos="l" depth="2" NCoef="0" IVar="-1" Cut="0.0000000000000000e+00" cType="1" res="2.0844783633947372e-02" rms="3.7215721607208252e-01" purity="6.3974511623382568e-01" nType="-99"/>
          <Node pos="r" depth="2" NCoef="0" IVar="-1" Cut="0.0000000000000000e+00" cType="1" res="-4.0011767297983170e-02" rms="3.3849111199378967e-01" purity="2.4826468527317047e-01" nType="-99"/>
        </Node>
        <Node pos="r" depth="1" NCoef="0" IVar="22" Cut="2.1590477228164673e-01" cType="1" res="1.0201234370470047e-01" rms="3.7484627962112427e-01" purity="6.5535330772399902e-01" nType="0">
          <Node pos="l" depth="2" NCoef="0" IVar="-1" Cut="0.0000000000000000e+00" cType="1" res="3.3219128847122192e-02" rms="3.6818939447402954e-01" purity="7.2261607646942139e-01" nType="-99"/>
          <Node pos="r" depth="2" NCoef="0" IVar="-1" Cut="0.0000000000000000e+00" cType="1" res="-1.8467904999852180e-02" rms="3.7428322434425354e-01" purity="2.0357142388820648e-01" nType="-99"/>
        </Node>
      </Node>
    </BinaryTree>
    <BinaryTree type="DecisionTree" boostWeight="1.0000000000000000e+00" itree="20">
      <Node pos="s" depth="0" NCoef="0" IVar="34" Cut="6.1901688575744629e-01" cType="1" res="3.0296484474092722e-03" rms="3.7534162402153015e-01" purity="5.0438541173934937e-01" nType="0">
        <Node pos="l" depth="1" NCoef="0" IVar="34" Cut="-4.6035984158515930e-01" cType="1" res="-3.6336407065391541e-02" rms="3.7014767527580261e-01" purity="4.3878936767578125e-01" nType="0">
          <Node pos="l" depth="2" NCoef="0" IVar="-1" Cut="0.0000000000000000e+00" cType="1" res="1.7867585644125938e-02" rms="3.7491881847381592e-01" purity="6.3353508710861206e-01" nType="-99"/>
          <Node pos="r" depth="2" NCoef="0" IVar="-1" Cut="0.0000000000000000e+00" cType="1" res="-3.9427164942026138e-02" rms="3.3186697959899902e-01" purity="2.3593947291374207e-01" nType="-99"/>
        </Node>
        <Node pos="r" depth="1" NCoef="0" IVar="5" Cut="5.9813731908798218e-01" cType="1" res="1.0109649598598480e-01" rms="3.7020200490951538e-01" purity="6.6779506206512451e-01" nType="0">
          <Node pos="l" depth="2" NCoef="0" IVar="-1" Cut="0.0000000000000000e+00" cType="1" res="3.3777374774217606e-02" rms="3.5520836710929871e-01" purity="7.5592595338821411e-01" nType="-99"/>
          <Node pos="r" depth="2" NCoef="0" IVar="-1" Cut="0.0000000000000000e+00" cType="1" res="-8.2391835749149323e-03" rms="4.1162469983100891e-01" purity="2.3475886881351471e-01" nType="-99"/>
        </Node>
      </Node>
    </BinaryTree>
    <BinaryTree type="DecisionTree" boostWeight="1.0000000000000000e+00" itree="21">
      <Node pos="s" depth="0" NCoef="0" IVar="19" Cut="-3.7797491997480392e-02" cType="1" res="-2.9569887556135654e-03" rms="3.7084916234016418e-01" purity="4.9682644009590149e-01" nType="0">
        <Node pos="l" depth="1" NCoef="0" IVar="31" Cut="6.2672486305236816e+00" cType="1" res="1.0810643434524536e-01" rms="2.6968470215797424e-01" purity="8.9083939790725708e-01" nType="0">
          <Node pos="l" depth="2" NCoef="0" IVar="-1" Cut="0.0000000000000000e+00" cType="1" res="-2.5769392959773540e-03" rms="3.7797701358795166e-01" purity="7.3030304908752441e-01" nType="-99"/>
          <Node pos="r" depth="2" NCoef="0" IVar="-1" Cut="0.0000000000000000e+00" cType="1" res="4.1068080812692642e-02" rms="2.4400609731674194e-01" purity="9.1550278663635254e-01" nType="-99"/>
        </Node>
        <Node pos="r" depth="1" NCoef="0" IVar="34" Cut="7.1421784162521362e-01" cType="1" res="-3.3726193010807037e-02" rms="3.8873785734176636e-01" purity="3.8766840100288391e-01" nType="0">
          <Node pos="l" depth="2" NCoef="0" IVar="-1" Cut="0.0000000000000000e+00" cType="1" res="-1.7017787322402000e-02" rms="3.7751665711402893e-01" purity="3.3422160148620605e-01" nType="-99"/>
          <Node pos="r" depth="2" NCoef="0" IVar="-1" Cut="0.0000000000000000e+00" cType="1" res="2.2386781871318817e-02" rms="4.0708529949188232e-01" purity="5.9768533706665039e-01" nType="-99"/>
        </Node>
      </Node>
    </BinaryTree>
    <BinaryTree type="DecisionTree" boostWeight="1.0000000000000000e+00" itree="22">
      <Node pos="s" depth="0" NCoef="0" IVar="8" Cut="1.1468478441238403e+00" cType="1" res="-1.2465687468647957e-03" rms="3.6988162994384766e-01" purity="4.9610447883605957e-01" nType="0">
        <Node pos="l" depth="1" NCoef="0" IVar="33" Cut="1.0139917135238647e+00" cType="1" res="6.7262187600135803e-02" rms="3.5275062918663025e-01" purity="7.1231055259704590e-01" nType="0">
          <Node pos="l" depth="2" NCoef="0" IVar="-1" Cut="0.0000000000000000e+00" cType="1" res="-2.9663925990462303e-02" rms="3.7468144297599792e-01" purity="4.6973094344139099e-01" nType="-99"/>
          <Node pos="r" depth="2" NCoef="0" IVar="-1" Cut="0.0000000000000000e+00" cType="1" res="2.3887339979410172e-02" rms="3.4557312726974487e-01" purity="7.3669970035552979e-01" nType="-99"/>
        </Node>
        <Node pos="r" depth="1" NCoef="0" IVar="17" Cut="6.0715681314468384e-01" cType="1" res="-5.3399968892335892e-02" rms="3.7409025430679321e-01" purity="3.3151412010192871e-01" nType="0">
          <Node pos="l" depth="2" NCoef="0" IVar="-1" Cut="0.0000000000000000e+00" cType="1" res="-3.0259639024734497e-03" rms="3.8673213124275208e-01" purity="3.9756292104721069e-01" nType="-99"/>
          <Node pos="r" depth="2" NCoef="0" IVar="-1" Cut="0.0000000000000000e+00" cType="1" res="-3.9356380701065063e-02" rms="3.2714033126831055e-01" purity="1.8813349306583405e-01" nType="-99"/>
        </Node>
      </Node>
    </BinaryTree>
    <BinaryTree type="DecisionTree" boostWeight="1.0000000000000000e+00" itree="23">
      <Node pos="s" depth="0" NCoef="0" IVar="22" Cut="1.0990197211503983e-01" cType="1" res="-2.9818378388881683e-03" rms="3.6640030145645142e-01" purity="4.9232324957847595e-01" nType="0">
        <Node pos="l" depth="1" NCoef="0" IVar="19" Cut="2.8396335244178772e-01" cType="1" res="4.6805698424577713e-02" rms="3.6648458242416382e-01" purity="6.7777526378631592e-01" nType="0">
          <Node pos="l" depth="2" NCoef="0" IVar="-1" Cut="0.0000000000000000e+00" cType="1" res="1.8962539732456207e-02" rms="3.6389148235321045e-01" purity="7.4732941389083862e-01" nType="-99"/>
          <Node pos="r" depth="2" NCoef="0" IVar="-1" Cut="0.0000000000000000e+00" cType="1" res="-3.0964858829975128e-02" rms="3.4213843941688538e-01" purity="1.5179152786731720e-01" nType="-99"/>
        </Node>
        <Node pos="r" depth="1" NCoef="0" IVar="21" Cut="5.2991300821304321e-01" cType="1" res="-7.1229398250579834e-02" rms="3.5511812567710876e-01" purity="2.3811013996601105e-01" nType="0">
          <Node pos="l" depth="2" NCoef="0" IVar="-1" Cut="0.0000000000000000e+00" cType="1" res="-9.3816481530666351e-03" rms="3.7246537208557129e-01" purity="2.8416821360588074e-01" nType="-99"/>
          <Node pos="r" depth="2" NCoef="0" IVar="-1" Cut="0.0000000000000000e+00" cType="1" res="-4.0643643587827682e-02" rms="3.0172830820083618e-01" purity="1.4262820780277252e-01" nType="-99"/>
        </Node>
      </Node>
    </BinaryTree>
    <BinaryTree type="DecisionTree" boostWeight="1.0000000000000000e+00" itree="24">
      <Node pos="s" depth="0" NCoef="0" IVar="8" Cut="4.5148962736129761e-01" cType="1" res="1.1625525075942278e-03" rms="3.6486229300498962e-01" purity="5.0090682506561279e-01" nType="0">
        <Node pos="l" depth="1" NCoef="0" IVar="33" Cut="1.0140739679336548e+00" cType="1" res="7.5797930359840393e-02" rms="3.3391347527503967e-01" purity="7.6897603273391724e-01" nType="0">
          <Node pos="l" depth="2" NCoef="0" IVar="-1" Cut="0.0000000000000000e+00" cType="1" res="-2.1119620651006699e-02" rms="3.9105010032653809e-01" purity="5.2967357635498047e-01" nType="-99"/>
          <Node pos="r" depth="2" NCoef="0" IVar="-1" Cut="0.0000000000000000e+00" cType="1" res="2.6939753443002701e-02" rms="3.2435402274131775e-01" purity="7.9144608974456787e-01" nType="-99"/>
        </Node>
        <Node pos="r" depth="1" NCoef="0" IVar="17" Cut="6.1064690351486206e-01" cType="1" res="-3.8555301725864410e-02" rms="3.7428763508796692e-01" purity="3.5825145244598389e-01" nType="0">
          <Node pos="l" depth="2" NCoef="0" IVar="-1" Cut="0.0000000000000000e+00" cType="1" res="-7.4487453093752265e-04" rms="3.8495844602584839e-01" purity="4.2165765166282654e-01" nType="-99"/>
          <Node pos="r" depth="2" NCoef="0" IVar="-1" Cut="0.0000000000000000e+00" cType="1" res="-3.4516897052526474e-02" rms="3.3312773704528809e-01" purity="2.0917555689811707e-01" nType="-99"/>
        </Node>
      </Node>
    </BinaryTree>
    <BinaryTree type="DecisionTree" boostWeight="1.0000000000000000e+00" itree="25">
      <Node pos="s" depth="0" NCoef="0" IVar="21" Cut="2.5552231073379517e-01" cType="1" res="3.8632822688668966e-03" rms="3.6570444703102112e-01" purity="5.0533980131149292e-01" nType="0">
        <Node pos="l" depth="1" NCoef="0" IVar="19" Cut="3.2992270588874817e-01" cType="1" res="8.7545290589332581e-02" rms="3.6194688081741333e-01" purity="6.8248695135116577e-01" nType="0">
          <Node pos="l" depth="2" NCoef="0" IVar="-1" Cut="0.0000000000000000e+00" cType="1" res="3.0888251960277557e-02" rms="3.5564607381820679e-01" purity="7.5537103414535522e-01" nType="-99"/>
          <Node pos="r" depth="2" NCoef="0" IVar="-1" Cut="0.0000000000000000e+00" cType="1" res="-2.3608298972249031e-02" rms="3.5768154263496399e-01" purity="1.6624040901660919e-01" nType="-99"/>
        </Node>
        <Node pos="r" depth="1" NCoef="0" IVar="1" Cut="3.0318045616149902e-01" cType="1" res="-2.8510421514511108e-02" rms="3.6199495196342468e-01" purity="4.3680763244628906e-01" nType="0">
          <Node pos="l" depth="2" NCoef="0" IVar="-1" Cut="0.0000000000000000e+00" cType="1" res="1.7149837687611580e-02" rms="3.3671376109123230e-01" purity="8.2517480850219727e-01" nType="-99"/>
          <Node pos="r" depth="2" NCoef="0" IVar="-1" Cut="0.0000000000000000e+00" cType="1" res="-1.6768721863627434e-02" rms="3.6620259284973145e-01" purity="2.8572642803192139e-01" nType="-99"/>
        </Node>
      </Node>
    </BinaryTree>
    <BinaryTree type="DecisionTree" boostWeight="1.0000000000000000e+00" itree="26">
      <Node pos="s" depth="0" NCoef="0" IVar="17" Cut="5.3353476524353027e-01" cType="1" res="-1.7892978212330490e-04" rms="3.6201620101928711e-01" purity="5.0247895717620850e-01" nType="0">
        <Node pos="l" depth="1" NCoef="0" IVar="19" Cut="1.7699432373046875e-01" cType="1" res="3.8157623261213303e-02" rms="3.6290311813354492e-01" purity="5.7740670442581177e-01" nType="0">
          <Node pos="l" depth="2" NCoef="0" IVar="-1" Cut="0.0000000000000000e+00" cType="1" res="1.9975341856479645e-02" rms="3.5649830102920532e-01" purity="7.0879721641540527e-01" nType="-99"/>
          <Node pos="r" depth="2" NCoef="0" IVar="-1" Cut="0.0000000000000000e+00" cType="1" res="-1.5156027860939503e-02" rms="3.6509671807289124e-01" purity="2.0187793672084808e-01" nType="-99"/>
        </Node>
        <Node pos="r" depth="1" NCoef="0" IVar="19" Cut="-5.0868138670921326e-02" cType="1" res="-7.2899408638477325e-02" rms="3.4894129633903503e-01" purity="3.6034882068634033e-01" nType="0">
          <Node pos="l" depth="2" NCoef="0" IVar="-1" Cut="0.0000000000000000e+00" cType="1" res="1.9893199205398560e-02" rms="3.1257691979408264e-01" purity="8.5243201255798340e-01" nType="-99"/>
          <Node pos="r" depth="2" NCoef="0" IVar="-1" Cut="0.0000000000000000e+00" cType="1" res="-2.7106158435344696e-02" rms="3.4992206096649170e-01" purity="2.6970386505126953e-01" nType="-99"/>
        </Node>
      </Node>
    </BinaryTree>
    <BinaryTree type="DecisionTree" boostWeight="1.0000000000000000e+00" itree="27">
      <Node pos="s" depth="0" NCoef="0" IVar="21" Cut="5.0126135349273682e-01" cType="1" res="6.0785887762904167e-04" rms="3.6128464341163635e-01" purity="5.0050324201583862e-01" nType="0">
        <Node pos="l" depth="1" NCoef="0" IVar="19" Cut="3.0613660812377930e-01" cType="1" res="2.7328027412295341e-02" rms="3.6458992958068848e-01" purity="5.5943346023559570e-01" nType="0">
          <Node pos="l" depth="2" NCoef="0" IVar="-1" Cut="0.0000000000000000e+00" cType="1" res="1.3773609884083271e-02" rms="3.7191498279571533e-01" purity="6.3065862655639648e-01" nType="-99"/>
          <Node pos="r" depth="2" NCoef="0" IVar="-1" Cut="0.0000000000000000e+00" cType="1" res="-3.5785760730504990e-02" rms="2.7297666668891907e-01" purity="9.1836735606193542e-02" nType="-99"/>
        </Node>
        <Node pos="r" depth="1" NCoef="0" IVar="1" Cut="2.5892770290374756e-01" cType="1" res="-9.3351028859615326e-02" rms="3.3279284834861755e-01" purity="2.9328063130378723e-01" nType="0">
          <Node pos="l" depth="2" NCoef="0" IVar="-1" Cut="0.0000000000000000e+00" cType="1" res="1.1328346095979214e-02" rms="3.4895032644271851e-01" purity="8.0656933784484863e-01" nType="-99"/>
          <Node pos="r" depth="2" NCoef="0" IVar="-1" Cut="0.0000000000000000e+00" cType="1" res="-3.4003682434558868e-02" rms="3.2358884811401367e-01" purity="1.9372345507144928e-01" nType="-99"/>
        </Node>
      </Node>
    </BinaryTree>
    <BinaryTree type="DecisionTree" boostWeight="1.0000000000000000e+00" itree="28">
      <Node pos="s" depth="0" NCoef="0" IVar="34" Cut="6.1902391910552979e-01" cType="1" res="-9.3932921299710870e-04" rms="3.5872137546539307e-01" purity="4.9677130579948425e-01" nType="0">
        <Node pos="l" depth="1" NCoef="0" IVar="34" Cut="-4.6036106348037720e-01" cType="1" res="-3.1219702214002609e-02" rms="3.5373431444168091e-01" purity="4.3236535787582397e-01" nType="0">
          <Node pos="l" depth="2" NCoef="0" IVar="-1" Cut="0.0000000000000000e+00" cType="1" res="1.4886253513395786e-02" rms="3.6624765396118164e-01" purity="6.2403100728988647e-01" nType="-99"/>
          <Node pos="r" depth="2" NCoef="0" IVar="-1" Cut="0.0000000000000000e+00" cType="1" res="-3.5805992782115936e-02" rms="3.1711113452911377e-01" purity="2.3104326426982880e-01" nType="-99"/>
        </Node>
        <Node pos="r" depth="1" NCoef="0" IVar="22" Cut="2.2602257132530212e-01" cType="1" res="7.6044186949729919e-02" rms="3.5980078577995300e-01" purity="6.6051429510116577e-01" nType="0">
          <Node pos="l" depth="2" NCoef="0" IVar="-1" Cut="0.0000000000000000e+00" cType="1" res="2.7313373982906342e-02" rms="3.5660585761070251e-01" purity="7.2817462682723999e-01" nType="-99"/>
          <Node pos="r" depth="2" NCoef="0" IVar="-1" Cut="0.0000000000000000e+00" cType="1" res="-1.6609778627753258e-02" rms="3.5388976335525513e-01" purity="1.8867924809455872e-01" nType="-99"/>
        </Node>
      </Node>
    </BinaryTree>
    <BinaryTree type="DecisionTree" boostWeight="1.0000000000000000e+00" itree="29">
      <Node pos="s" depth="0" NCoef="0" IVar="21" Cut="3.8744181394577026e-01" cType="1" res="-4.2382017709314823e-03" rms="3.5928282141685486e-01" purity="4.9651107192039490e-01" nType="0">
        <Node pos="l" depth="1" NCoef="0" IVar="31" Cut="6.3404068946838379e+00" cType="1" res="3.7217598408460617e-02" rms="3.5946044325828552e-01" purity="6.0042655467987061e-01" nType="0">
          <Node pos="l" depth="2" NCoef="0" IVar="-1" Cut="0.0000000000000000e+00" cType="1" res="-1.8927788361907005e-02" rms="3.8436484336853027e-01" purity="4.5777279138565063e-01" nType="-99"/>
          <Node pos="r" depth="2" NCoef="0" IVar="-1" Cut="0.0000000000000000e+00" cType="1" res="1.8951555714011192e-02" rms="3.4766301512718201e-01" purity="6.3694632053375244e-01" nType="-99"/>
        </Node>
        <Node pos="r" depth="1" NCoef="0" IVar="22" Cut="-1.6331019578501582e-03" cType="1" res="-5.8972030878067017e-02" rms="3.5164010524749756e-01" purity="3.5931214690208435e-01" nType="0">
          <Node pos="l" depth="2" NCoef="0" IVar="-1" Cut="0.0000000000000000e+00" cType="1" res="2.1012719720602036e-02" rms="3.0524373054504395e-01" purity="8.5269361734390259e-01" nType="-99"/>
          <Node pos="r" depth="2" NCoef="0" IVar="-1" Cut="0.0000000000000000e+00" cType="1" res="-2.1987615153193474e-02" rms="3.5431489348411560e-01" purity="2.9237094521522522e-01" nType="-99"/>
        </Node>
      </Node>
    </BinaryTree>
    <BinaryTree type="DecisionTree" boostWeight="1.0000000000000000e+00" itree="30">
      <Node pos="s" depth="0" NCoef="0" IVar="19" Cut="1.2836626172065735e-01" cType="1" res="7.4382312595844269e-04" rms="3.5706269741058350e-01" purity="4.9724313616752625e-01" nType="0">
        <Node pos="l" depth="1" NCoef="0" IVar="17" Cut="6.2222260236740112e-01" cType="1" res="3.5457253456115723e-02" rms="3.5743314027786255e-01" purity="6.7151767015457153e-01" nType="0">
          <Node pos="l" depth="2" NCoef="0" IVar="-1" Cut="0.0000000000000000e+00" cType="1" res="1.8851779401302338e-02" rms="3.4666347503662109e-01" purity="7.3204118013381958e-01" nType="-99"/>
          <Node pos="r" depth="2" NCoef="0" IVar="-1" Cut="0.0000000000000000e+00" cType="1" res="-1.4159061014652252e-02" rms="3.7612357735633850e-01" purity="4.8560947179794312e-01" nType="-99"/>
        </Node>
        <Node pos="r" depth="1" NCoef="0" IVar="21" Cut="1.4557291567325592e-01" cType="1" res="-5.8733116835355759e-02" rms="3.4847968816757202e-01" purity="1.9864639639854431e-01" nType="0">
          <Node pos="l" depth="2" NCoef="0" IVar="-1" Cut="0.0000000000000000e+00" cType="1" res="1.9367523491382599e-02" rms="4.5253953337669373e-01" purity="4.4490933418273926e-01" nType="-99"/>
          <Node pos="r" depth="2" NCoef="0" IVar="-1" Cut="0.0000000000000000e+00" cType="1" res="-2.1506443619728088e-02" rms="3.3414408564567566e-01" purity="1.7573004961013794e-01" nType="-99"/>
        </Node>
      </Node>
    </BinaryTree>
    <BinaryTree type="DecisionTree" boostWeight="1.0000000000000000e+00" itree="31">
      <Node pos="s" depth="0" NCoef="0" IVar="33" Cut="1.0125724077224731e+00" cType="1" res="-5.2784202853217721e-04" rms="3.5706743597984314e-01" purity="4.9780124425888062e-01" nType="0">
        <Node pos="l" depth="1" NCoef="0" IVar="31" Cut="7.0313696861267090e+00" cType="1" res="-1.6028267145156860e-01" rms="3.0676499009132385e-01" purity="2.1664766967296600e-01" nType="0">
          <Node pos="l" depth="2" NCoef="0" IVar="-1" Cut="0.0000000000000000e+00" cType="1" res="-6.4106442034244537e-02" rms="2.7925834059715271e-01" purity="1.4395099878311157e-01" nType="-99"/>
          <Node pos="r" depth="2" NCoef="0" IVar="-1" Cut="0.0000000000000000e+00" cType="1" res="-3.6156944930553436e-02" rms="3.1587535142898560e-01" purity="2.5976383686065674e-01" nType="-99"/>
        </Node>
        <Node pos="r" depth="1" NCoef="0" IVar="34" Cut="-7.1428430080413818e-01" cType="1" res="1.2824391946196556e-02" rms="3.5773831605911255e-01" purity="5.2129989862442017e-01" nType="0">
          <Node pos="l" depth="2" NCoef="0" IVar="-1" Cut="0.0000000000000000e+00" cType="1" res="2.6487708091735840e-02" rms="3.5071077942848206e-01" purity="7.0425361394882202e-01" nType="-99"/>
          <Node pos="r" depth="2" NCoef="0" IVar="-1" Cut="0.0000000000000000e+00" cType="1" res="-3.6443334538489580e-03" rms="3.5624647140502930e-01" purity="4.6431696414947510e-01" nType="-99"/>
        </Node>
      </Node>
    </BinaryTree>
    <BinaryTree type="DecisionTree" boostWeight="1.0000000000000000e+00" itree="32">
      <Node pos="s" depth="0" NCoef="0" IVar="21" Cut="3.1328833103179932e-01" cType="1" res="3.2791406847536564e-03" rms="3.5648968815803528e-01" purity="5.0238114595413208e-01" nType="0">
        <Node pos="l" depth="1" NCoef="0" IVar="19" Cut="3.3843129873275757e-01" cType="1" res="5.6495312601327896e-02" rms="3.5273954272270203e-01" purity="6.4667695760726929e-01" nType="0">
          <Node pos="l" depth="2" NCoef="0" IVar="-1" Cut="0.0000000000000000e+00" cType="1" res="2.1622512489557266e-02" rms="3.5231384634971619e-01" purity="7.1548169851303101e-01" nType="-99"/>
          <Node pos="r" depth="2" NCoef="0" IVar="-1" Cut="0.0000000000000000e+00" cType="1" res="-2.2465448826551437e-02" rms="3.2814478874206543e-01" purity="1.3917051255702972e-01" nType="-99"/>
        </Node>
        <Node pos="r" depth="1" NCoef="0" IVar="34" Cut="5.2379107475280762e-01" cType="1" res="-3.2307952642440796e-02" rms="3.5454654693603516e-01" purity="4.0588667988777161e-01" nType="0">
          <Node pos="l" depth="2" NCoef="0" IVar="-1" Cut="0.0000000000000000e+00" cType="1" res="-1.9147967919707298e-02" rms="3.4177520871162415e-01" purity="3.3865401148796082e-01" nType="-99"/>
          <Node pos="r" depth="2" NCoef="0" IVar="-1" Cut="0.0000000000000000e+00" cType="1" res="9.8571842536330223e-03" rms="3.7209656834602356e-01" purity="5.5025476217269897e-01" nType="-99"/>
        </Node>
      </Node>
    </BinaryTree>
    <BinaryTree type="DecisionTree" boostWeight="1.0000000000000000e+00" itree="33">
      <Node pos="s" depth="0" NCoef="0" IVar="34" Cut="-7.1429616212844849e-01" cType="1" res="-2.7944387402385473e-03" rms="3.5266140103340149e-01" purity="4.9890455603599548e-01" nType="0">
        <Node pos="l" depth="1" NCoef="0" IVar="22" Cut="1.9696944952011108e-01" cType="1" res="7.5347349047660828e-02" rms="3.5373422503471375e-01" purity="6.9386988878250122e-01" nType="0">
          <Node pos="l" depth="2" NCoef="0" IVar="-1" Cut="0.0000000000000000e+00" cType="1" res="2.8050325810909271e-02" rms="3.4410062432289124e-01" purity="7.7086091041564941e-01" nType="-99"/>
          <Node pos="r" depth="2" NCoef="0" IVar="-1" Cut="0.0000000000000000e+00" cType="1" res="-1.0040600784122944e-02" rms="3.8575130701065063e-01" purity="2.5126904249191284e-01" nType="-99"/>
        </Node>
        <Node pos="r" depth="1" NCoef="0" IVar="34" Cut="4.2851069569587708e-01" cType="1" res="-2.6535185053944588e-02" rms="3.4888547658920288e-01" purity="4.3967092037200928e-01" nType="0">
          <Node pos="l" depth="2" NCoef="0" IVar="-1" Cut="0.0000000000000000e+00" cType="1" res="-2.8995152562856674e-02" rms="3.2660570740699768e-01" purity="2.7871397137641907e-01" nType="-99"/>
          <Node pos="r" depth="2" NCoef="0" IVar="-1" Cut="0.0000000000000000e+00" cType="1" res="1.3477378524839878e-02" rms="3.5744819045066833e-01" purity="6.1079680919647217e-01" nType="-99"/>
        </Node>
      </Node>
    </BinaryTree>
    <BinaryTree type="DecisionTree" boostWeight="1.0000000000000000e+00" itree="34">
      <Node pos="s" depth="0" NCoef="0" IVar="25" Cut="-5.4391972720623016e-02" cType="1" res="-2.1482389420270920e-03" rms="3.5014835000038147e-01" purity="4.9124208092689514e-01" nType="0">
        <Node pos="l" depth="1" NCoef="0" IVar="25" Cut="-8.3975091576576233e-02" cType="1" res="9.7318254411220551e-02" rms="3.2301196455955505e-01" purity="7.6633244752883911e-01" nType="0">
          <Node pos="l" depth="2" NCoef="0" IVar="-1" Cut="0.0000000000000000e+00" cType="1" res="4.6868603676557541e-02" rms="2.8173539042472839e-01" purity="8.6186385154724121e-01" nType="-99"/>
          <Node pos="r" depth="2" NCoef="0" IVar="-1" Cut="0.0000000000000000e+00" cType="1" res="1.8302490934729576e-02" rms="3.5006436705589294e-01" purity="6.8503934144973755e-01" nType="-99"/>
        </Node>
        <Node pos="r" depth="1" NCoef="0" IVar="17" Cut="5.3353476524353027e-01" cType="1" res="-1.9144305959343910e-02" rms="3.5177522897720337e-01" purity="4.4423675537109375e-01" nType="0">
          <Node pos="l" depth="2" NCoef="0" IVar="-1" Cut="0.0000000000000000e+00" cType="1" res="3.8669893983751535e-03" rms="3.5777556896209717e-01" purity="5.2266228199005127e-01" nType="-99"/>
          <Node pos="r" depth="2" NCoef="0" IVar="-1" Cut="0.0000000000000000e+00" cType="1" res="-2.3426609113812447e-02" rms="3.3368307352066040e-01" purity="3.0734139680862427e-01" nType="-99"/>
        </Node>
      </Node>
    </BinaryTree>
    <BinaryTree type="DecisionTree" boostWeight="1.0000000000000000e+00" itree="35">
      <Node pos="s" depth="0" NCoef="0" IVar="34" Cut="5.2377635240554810e-01" cType="1" res="1.9228331802878529e-04" rms="3.5188227891921997e-01" purity="4.9656078219413757e-01" nType="0">
        <Node pos="l" depth="1" NCoef="0" IVar="34" Cut="-4.1952538490295410e-01" cType="1" res="-2.8613433241844177e-02" rms="3.4536269307136536e-01" purity="4.2597711086273193e-01" nType="0">
          <Node pos="l" depth="2" NCoef="0" IVar="-1" Cut="0.0000000000000000e+00" cType="1" res="1.1782702989876270e-02" rms="3.6098974943161011e-01" purity="6.0538429021835327e-01" nType="-99"/>
          <Node pos="r" depth="2" NCoef="0" IVar="-1" Cut="0.0000000000000000e+00" cType="1" res="-3.8869861513376236e-02" rms="2.9989832639694214e-01" purity="1.8628957867622375e-01" nType="-99"/>
        </Node>
        <Node pos="r" depth="1" NCoef="0" IVar="22" Cut="2.1398477256298065e-01" cType="1" res="5.7592213153839111e-02" rms="3.5767450928688049e-01" purity="6.3720989227294922e-01" nType="0">
          <Node pos="l" depth="2" NCoef="0" IVar="-1" Cut="0.0000000000000000e+00" cType="1" res="2.2707415744662285e-02" rms="3.5605254769325256e-01" purity="7.1422004699707031e-01" nType="-99"/>
          <Node pos="r" depth="2" NCoef="0" IVar="-1" Cut="0.0000000000000000e+00" cType="1" res="-1.5796963125467300e-02" rms="3.4766334295272827e-01" purity="1.8074478209018707e-01" nType="-99"/>
        </Node>
      </Node>
    </BinaryTree>
    <BinaryTree type="DecisionTree" boostWeight="1.0000000000000000e+00" itree="36">
      <Node pos="s" depth="0" NCoef="0" IVar="19" Cut="-5.7708684355020523e-02" cType="1" res="-5.3404230857267976e-04" rms="3.4786754846572876e-01" purity="4.9811887741088867e-01" nType="0">
        <Node pos="l" depth="1" NCoef="0" IVar="3" Cut="2.1902266144752502e-01" cType="1" res="9.2101559042930603e-02" rms="2.1708574891090393e-01" purity="9.3568307161331177e-01" nType="0">
          <Node pos="l" depth="2" NCoef="0" IVar="-1" Cut="0.0000000000000000e+00" cType="1" res="2.0839827135205269e-02" rms="2.7344065904617310e-01" purity="9.0109890699386597e-01" nType="-99"/>
          <Node pos="r" depth="2" NCoef="0" IVar="-1" Cut="0.0000000000000000e+00" cType="1" res="4.3507680296897888e-02" rms="1.9782543182373047e-01" purity="9.4491523504257202e-01" nType="-99"/>
        </Node>
        <Node pos="r" depth="1" NCoef="0" IVar="21" Cut="1.9372090697288513e-01" cType="1" res="-1.9783191382884979e-02" rms="3.6634841561317444e-01" purity="4.0719553828239441e-01" nType="0">
          <Node pos="l" depth="2" NCoef="0" IVar="-1" Cut="0.0000000000000000e+00" cType="1" res="2.1147534251213074e-02" rms="3.8526868820190430e-01" purity="6.3598799705505371e-01" nType="-99"/>
          <Node pos="r" depth="2" NCoef="0" IVar="-1" Cut="0.0000000000000000e+00" cType="1" res="-1.0736773721873760e-02" rms="3.6049827933311462e-01" purity="3.6923459172248840e-01" nType="-99"/>
        </Node>
      </Node>
    </BinaryTree>
    <BinaryTree type="DecisionTree" boostWeight="1.0000000000000000e+00" itree="37">
      <Node pos="s" depth="0" NCoef="0" IVar="33" Cut="1.0140008926391602e+00" cType="1" res="2.1514426916837692e-03" rms="3.5015913844108582e-01" purity="5.0406789779663086e-01" nType="0">
        <Node pos="l" depth="1" NCoef="0" IVar="31" Cut="6.7325558662414551e+00" cType="1" res="-1.1328205466270447e-01" rms="3.1375461816787720e-01" purity="2.7132105827331543e-01" nType="0">
          <Node pos="l" depth="2" NCoef="0" IVar="-1" Cut="0.0000000000000000e+00" cType="1" res="-5.8060418814420700e-02" rms="2.9881694912910461e-01" purity="1.6071428358554840e-01" nType="-99"/>
          <Node pos="r" depth="2" NCoef="0" IVar="-1" Cut="0.0000000000000000e+00" cType="1" res="-2.4842670187354088e-02" rms="3.1421551108360291e-01" purity="3.1971153616905212e-01" nType="-99"/>
        </Node>
        <Node pos="r" depth="1" NCoef="0" IVar="33" Cut="1.0263810157775879e+00" cType="1" res="1.5640301629900932e-02" rms="3.5170543193817139e-01" purity="5.3126525878906250e-01" nType="0">
          <Node pos="l" depth="2" NCoef="0" IVar="-1" Cut="0.0000000000000000e+00" cType="1" res="9.6672391518950462e-03" rms="3.5202383995056152e-01" purity="5.6017225980758667e-01" nType="-99"/>
          <Node pos="r" depth="2" NCoef="0" IVar="-1" Cut="0.0000000000000000e+00" cType="1" res="-2.8461715206503868e-02" rms="3.3004257082939148e-01" purity="3.3153015375137329e-01" nType="-99"/>
        </Node>
      </Node>
    </BinaryTree>
    <BinaryTree type="DecisionTree" boostWeight="1.0000000000000000e+00" itree="38">
      <Node pos="s" depth="0" NCoef="0" IVar="19" Cut="4.5287150889635086e-02" cType="1" res="-2.1393776405602694e-03" rms="3.4763464331626892e-01" purity="4.9509084224700928e-01" nType="0">
        <Node pos="l" depth="1" NCoef="0" IVar="18" Cut="2.5586953759193420e-01" cType="1" res="3.9059743285179138e-02" rms="3.2299509644508362e-01" purity="7.5753641128540039e-01" nType="0">
          <Node pos="l" depth="2" NCoef="0" IVar="-1" Cut="0.0000000000000000e+00" cType="1" res="-7.8389598056674004e-03" rms="3.7501487135887146e-01" purity="5.3244644403457642e-01" nType="-99"/>
          <Node pos="r" depth="2" NCoef="0" IVar="-1" Cut="0.0000000000000000e+00" cType="1" res="2.4909490719437599e-02" rms="2.9227638244628906e-01" purity="8.5755479335784912e-01" nType="-99"/>
        </Node>
        <Node pos="r" depth="1" NCoef="0" IVar="34" Cut="-6.1901968717575073e-01" cType="1" res="-3.5181790590286255e-02" rms="3.6283504962921143e-01" purity="2.8460490703582764e-01" nType="0">
          <Node pos="l" depth="2" NCoef="0" IVar="-1" Cut="0.0000000000000000e+00" cType="1" res="6.5631349571049213e-03" rms="4.1607353091239929e-01" purity="4.5183044672012329e-01" nType="-99"/>
          <Node pos="r" depth="2" NCoef="0" IVar="-1" Cut="0.0000000000000000e+00" cType="1" res="-1.7119402065873146e-02" rms="3.4090304374694824e-01" purity="2.2907112538814545e-01" nType="-99"/>
        </Node>
      </Node>
    </BinaryTree>
    <BinaryTree type="DecisionTree" boostWeight="1.0000000000000000e+00" itree="39">
      <Node pos="s" depth="0" NCoef="0" IVar="33" Cut="1.0139973163604736e+00" cType="1" res="1.0029599070549011e-03" rms="3.4732130169868469e-01" purity="4.9790740013122559e-01" nType="0">
        <Node pos="l" depth="1" NCoef="0" IVar="33" Cut="1.0106644630432129e+00" cType="1" res="-9.9969878792762756e-02" rms="3.1652978062629700e-01" purity="2.5957089662551880e-01" nType="0">
          <Node pos="l" depth="2" NCoef="0" IVar="-1" Cut="0.0000000000000000e+00" cType="1" res="-4.5802198350429535e-02" rms="2.9037854075431824e-01" purity="1.7135761678218842e-01" nType="-99"/>
          <Node pos="r" depth="2" NCoef="0" IVar="-1" Cut="0.0000000000000000e+00" cType="1" res="-1.7969081178307533e-02" rms="3.3631730079650879e-01" purity="3.5072711110115051e-01" nType="-99"/>
        </Node>
        <Node pos="r" depth="1" NCoef="0" IVar="33" Cut="1.0244688987731934e+00" cType="1" res="1.2676148675382137e-02" rms="3.4882697463035583e-01" purity="5.2546083927154541e-01" nType="0">
          <Node pos="l" depth="2" NCoef="0" IVar="-1" Cut="0.0000000000000000e+00" cType="1" res="9.3155764043331146e-03" rms="3.4840387105941772e-01" purity="5.5971908569335938e-01" nType="-99"/>
          <Node pos="r" depth="2" NCoef="0" IVar="-1" Cut="0.0000000000000000e+00" cType="1" res="-2.0911389961838722e-02" rms="3.3963608741760254e-01" purity="3.6486861109733582e-01" nType="-99"/>
        </Node>
      </Node>
    </BinaryTree>
    <BinaryTree type="DecisionTree" boostWeight="1.0000000000000000e+00" itree="40">
      <Node pos="s" depth="0" NCoef="0" IVar="17" Cut="6.2500429153442383e-01" cType="1" res="-1.6048761317506433e-03" rms="3.4743803739547729e-01" purity="4.9736440181732178e-01" nType="0">
        <Node pos="l" depth="1" NCoef="0" IVar="34" Cut="4.2850056290626526e-01" cType="1" res="1.9822366535663605e-02" rms="3.5119405388832092e-01" purity="5.5736839771270752e-01" nType="0">
          <Node pos="l" depth="2" NCoef="0" IVar="-1" Cut="0.0000000000000000e+00" cType="1" res="-3.0780392698943615e-03" rms="3.4765946865081787e-01" purity="4.8873531818389893e-01" nType="-99"/>
          <Node pos="r" depth="2" NCoef="0" IVar="-1" Cut="0.0000000000000000e+00" cType="1" res="2.1203873679041862e-02" rms="3.5152146220207214e-01" purity="6.6934365034103394e-01" nType="-99"/>
        </Node>
        <Node pos="r" depth="1" NCoef="0" IVar="7" Cut="1.0402918606996536e-01" cType="1" res="-6.3318662345409393e-02" rms="3.2867082953453064e-01" purity="3.2454362511634827e-01" nType="0">
          <Node pos="l" depth="2" NCoef="0" IVar="-1" Cut="0.0000000000000000e+00" cType="1" res="2.0983964204788208e-02" rms="2.8073751926422119e-01" purity="8.7841945886611938e-01" nType="-99"/>
          <Node pos="r" depth="2" NCoef="0" IVar="-1" Cut="0.0000000000000000e+00" cType="1" res="-2.5183087214827538e-02" rms="3.3121189475059509e-01" purity="2.5523012876510620e-01" nType="-99"/>
        </Node>
      </Node>
    </BinaryTree>
    <BinaryTree type="DecisionTree" boostWeight="1.0000000000000000e+00" itree="41">
      <Node pos="s" depth="0" NCoef="0" IVar="25" Cut="-4.6297330409288406e-02" cType="1" res="-1.1542578431544825e-04" rms="3.4612813591957092e-01" purity="4.9848544597625732e-01" nType="0">
        <Node pos="l" depth="1" NCoef="0" IVar="25" Cut="-8.9546762406826019e-02" cType="1" res="7.7009119093418121e-02" rms="3.1877782940864563e-01" purity="7.4151307344436646e-01" nType="0">
          <Node pos="l" depth="2" NCoef="0" IVar="-1" Cut="0.0000000000000000e+00" cType="1" res="4.8123806715011597e-02" rms="2.6622188091278076e-01" purity="8.8888889551162720e-01" nType="-99"/>
          <Node pos="r" depth="2" NCoef="0" IVar="-1" Cut="0.0000000000000000e+00" cType="1" res="1.6170628368854523e-02" rms="3.3812159299850464e-01" purity="6.6979092359542847e-01" nType="-99"/>
        </Node>
        <Node pos="r" depth="1" NCoef="0" IVar="34" Cut="-6.1904948949813843e-01" cType="1" res="-1.7165096476674080e-02" rms="3.4959867596626282e-01" purity="4.4476011395454407e-01" nType="0">
          <Node pos="l" depth="2" NCoef="0" IVar="-1" Cut="0.0000000000000000e+00" cType="1" res="1.0745905339717865e-02" rms="3.6524173617362976e-01" purity="6.1016631126403809e-01" nType="-99"/>
          <Node pos="r" depth="2" NCoef="0" IVar="-1" Cut="0.0000000000000000e+00" cType="1" res="-1.2342464178800583e-02" rms="3.4087756276130676e-01" purity="3.7925615906715393e-01" nType="-99"/>
        </Node>
      </Node>
    </BinaryTree>
    <BinaryTree type="DecisionTree" boostWeight="1.0000000000000000e+00" itree="42">
      <Node pos="s" depth="0" NCoef="0" IVar="22" Cut="4.5268714427947998e-02" cType="1" res="1.4472078764811158e-03" rms="3.4573468565940857e-01" purity="4.9942594766616821e-01" nType="0">
        <Node pos="l" depth="1" NCoef="0" IVar="31" Cut="5.9558949470520020e+00" cType="1" res="4.7185964882373810e-02" rms="3.2006147503852844e-01" purity="7.7704834938049316e-01" nType="0">
          <Node pos="l" depth="2" NCoef="0" IVar="-1" Cut="0.0000000000000000e+00" cType="1" res="-1.4505222439765930e-02" rms="3.7923991680145264e-01" purity="6.0705292224884033e-01" nType="-99"/>
          <Node pos="r" depth="2" NCoef="0" IVar="-1" Cut="0.0000000000000000e+00" cType="1" res="1.9933404400944710e-02" rms="3.1088662147521973e-01" purity="7.9598706960678101e-01" nType="-99"/>
        </Node>
        <Node pos="r" depth="1" NCoef="0" IVar="21" Cut="2.3863480985164642e-01" cType="1" res="-2.3156981915235519e-02" rms="3.5636585950851440e-01" purity="3.5008490085601807e-01" nType="0">
          <Node pos="l" depth="2" NCoef="0" IVar="-1" Cut="0.0000000000000000e+00" cType="1" res="1.7290752381086349e-02" rms="3.7200015783309937e-01" purity="5.7887637615203857e-01" nType="-99"/>
          <Node pos="r" depth="2" NCoef="0" IVar="-1" Cut="0.0000000000000000e+00" cType="1" res="-1.1687021702528000e-02" rms="3.5145118832588196e-01" purity="3.0935999751091003e-01" nType="-99"/>
        </Node>
      </Node>
    </BinaryTree>
    <BinaryTree type="DecisionTree" boostWeight="1.0000000000000000e+00" itree="43">
      <Node pos="s" depth="0" NCoef="0" IVar="34" Cut="-5.2379393577575684e-01" cType="1" res="2.6162394788116217e-03" rms="3.4430819749832153e-01" purity="4.9898499250411987e-01" nType="0">
        <Node pos="l" depth="1" NCoef="0" IVar="5" Cut="6.1587792634963989e-01" cType="1" res="5.3353510797023773e-02" rms="3.5555794835090637e-01" purity="6.4756333827972412e-01" nType="0">
          <Node pos="l" depth="2" NCoef="0" IVar="-1" Cut="0.0000000000000000e+00" cType="1" res="2.1665686741471291e-02" rms="3.4761700034141541e-01" purity="7.2795814275741577e-01" nType="-99"/>
          <Node pos="r" depth="2" NCoef="0" IVar="-1" Cut="0.0000000000000000e+00" cType="1" res="-1.0649211704730988e-02" rms="3.8342574238777161e-01" purity="2.1070234477519989e-01" nType="-99"/>
        </Node>
        <Node pos="r" depth="1" NCoef="0" IVar="34" Cut="4.1962406039237976e-01" cType="1" res="-2.3472856730222702e-02" rms="3.3540323376655579e-01" purity="4.2258602380752563e-01" nType="0">
          <Node pos="l" depth="2" NCoef="0" IVar="-1" Cut="0.0000000000000000e+00" cType="1" res="-3.6458656191825867e-02" rms="2.9127770662307739e-01" purity="1.8370483815670013e-01" nType="-99"/>
          <Node pos="r" depth="2" NCoef="0" IVar="-1" Cut="0.0000000000000000e+00" cType="1" res="1.2387549504637718e-02" rms="3.5316431522369385e-01" purity="6.0626477003097534e-01" nType="-99"/>
        </Node>
      </Node>
    </BinaryTree>
    <BinaryTree type="DecisionTree" boostWeight="1.0000000000000000e+00" itree="44">
      <Node pos="s" depth="0" NCoef="0" IVar="22" Cut="1.2801945209503174e-02" cType="1" res="1.2572765117511153e-03" rms="3.4310850501060486e-01" purity="5.0265908241271973e-01" nType="0">
        <Node pos="l" depth="1" NCoef="0" IVar="25" Cut="1.5620748512446880e-02" cType="1" res="6.1874829232692719e-02" rms="2.8967547416687012e-01" purity="8.3058261871337891e-01" nType="0">
          <Node pos="l" depth="2" NCoef="0" IVar="-1" Cut="0.0000000000000000e+00" cType="1" res="3.2635264098644257e-02" rms="2.4705840647220612e-01" purity="8.7818694114685059e-01" nType="-99"/>
          <Node pos="r" depth="2" NCoef="0" IVar="-1" Cut="0.0000000000000000e+00" cType="1" res="7.6331631280481815e-03" rms="3.4752380847930908e-01" purity="7.4892008304595947e-01" nType="-99"/>
        </Node>
        <Node pos="r" depth="1" NCoef="0" IVar="33" Cut="1.0140010118484497e+00" cType="1" res="-1.6127705574035645e-02" rms="3.5505557060241699e-01" purity="4.0861135721206665e-01" nType="0">
          <Node pos="l" depth="2" NCoef="0" IVar="-1" Cut="0.0000000000000000e+00" cType="1" res="-3.6061547696590424e-02" rms="3.0329811573028564e-01" purity="1.8989898264408112e-01" nType="-99"/>
          <Node pos="r" depth="2" NCoef="0" IVar="-1" Cut="0.0000000000000000e+00" cType="1" res="-1.3997826026752591e-03" rms="3.5945299267768860e-01" purity="4.3645131587982178e-01" nType="-99"/>
        </Node>
      </Node>
    </BinaryTree>
    <BinaryTree type="DecisionTree" boostWeight="1.0000000000000000e+00" itree="45">
      <Node pos="s" depth="0" NCoef="0" IVar="31" Cut="5.4400568008422852e+00" cType="1" res="-1.1134630767628551e-03" rms="3.4518805146217346e-01" purity="5.0017368793487549e-01" nType="0">
        <Node pos="l" depth="1" NCoef="0" IVar="14" Cut="1.2314601987600327e-01" cType="1" res="-1.2744700908660889e-01" rms="3.5294637084007263e-01" purity="2.6532325148582458e-01" nType="0">
          <Node pos="l" depth="2" NCoef="0" IVar="-1" Cut="0.0000000000000000e+00" cType="1" res="-3.2480288296937943e-02" rms="3.3390945196151733e-01" purity="2.3156088590621948e-01" nType="-99"/>
          <Node pos="r" depth="2" NCoef="0" IVar="-1" Cut="0.0000000000000000e+00" cType="1" res="-4.2585618793964386e-02" rms="3.6896550655364990e-01" purity="2.9769736528396606e-01" nType="-99"/>
        </Node>
        <Node pos="r" depth="1" NCoef="0" IVar="21" Cut="3.7445917725563049e-01" cType="1" res="5.7755648158490658e-03" rms="3.4342634677886963e-01" purity="5.1298016309738159e-01" nType="0">
          <Node pos="l" depth="2" NCoef="0" IVar="-1" Cut="0.0000000000000000e+00" cType="1" res="1.1748167686164379e-02" rms="3.4135565161705017e-01" purity="6.2160545587539673e-01" nType="-99"/>
          <Node pos="r" depth="2" NCoef="0" IVar="-1" Cut="0.0000000000000000e+00" cType="1" res="-9.6086673438549042e-03" rms="3.4245130419731140e-01" purity="3.8742473721504211e-01" nType="-99"/>
        </Node>
      </Node>
    </BinaryTree>
    <BinaryTree type="DecisionTree" boostWeight="1.0000000000000000e+00" itree="46">
      <Node pos="s" depth="0" NCoef="0" IVar="25" Cut="1.0946241021156311e-01" cType="1" res="4.3793646618723869e-03" rms="3.4031295776367188e-01" purity="5.0342541933059692e-01" nType="0">
        <Node pos="l" depth="1" NCoef="0" IVar="19" Cut="3.4198847413063049e-01" cType="1" res="2.1450964733958244e-02" rms="3.3612108230590820e-01" purity="5.5662530660629272e-01" nType="0">
          <Node pos="l" depth="2" NCoef="0" IVar="-1" Cut="0.0000000000000000e+00" cType="1" res="1.0326668620109558e-02" rms="3.4022748470306396e-01" purity="6.0115820169448853e-01" nType="-99"/>
          <Node pos="r" depth="2" NCoef="0" IVar="-1" Cut="0.0000000000000000e+00" cType="1" res="-3.1458638608455658e-02" rms="2.6684588193893433e-01" purity="8.9514069259166718e-02" nType="-99"/>
        </Node>
        <Node pos="r" depth="1" NCoef="0" IVar="20" Cut="-6.5290644764900208e-02" cType="1" res="-6.1505421996116638e-02" rms="3.4826794266700745e-01" purity="2.9810997843742371e-01" nType="0">
          <Node pos="l" depth="2" NCoef="0" IVar="-1" Cut="0.0000000000000000e+00" cType="1" res="1.0780826210975647e-02" rms="3.8552212715148926e-01" purity="5.4697984457015991e-01" nType="-99"/>
          <Node pos="r" depth="2" NCoef="0" IVar="-1" Cut="0.0000000000000000e+00" cType="1" res="-2.4357259273529053e-02" rms="3.4002903103828430e-01" purity="2.6157635450363159e-01" nType="-99"/>
        </Node>
      </Node>
    </BinaryTree>
    <BinaryTree type="DecisionTree" boostWeight="1.0000000000000000e+00" itree="47">
      <Node pos="s" depth="0" NCoef="0" IVar="17" Cut="5.3161334991455078e-01" cType="1" res="3.9510098285973072e-03" rms="3.4393838047981262e-01" purity="4.9871546030044556e-01" nType="0">
        <Node pos="l" depth="1" NCoef="0" IVar="21" Cut="4.5201542973518372e-01" cType="1" res="2.6869883760809898e-02" rms="3.4867364168167114e-01" purity="5.7614403963088989e-01" nType="0">
          <Node pos="l" depth="2" NCoef="0" IVar="-1" Cut="0.0000000000000000e+00" cType="1" res="1.4965059235692024e-02" rms="3.4347230195999146e-01" purity="6.4845991134643555e-01" nType="-99"/>
          <Node pos="r" depth="2" NCoef="0" IVar="-1" Cut="0.0000000000000000e+00" cType="1" res="-6.8447133526206017e-03" rms="3.5668286681175232e-01" purity="3.9653125405311584e-01" nType="-99"/>
        </Node>
        <Node pos="r" depth="1" NCoef="0" IVar="19" Cut="-9.7546085715293884e-02" cType="1" res="-3.8518272340297699e-02" rms="3.3081603050231934e-01" purity="3.5523822903633118e-01" nType="0">
          <Node pos="l" depth="2" NCoef="0" IVar="-1" Cut="0.0000000000000000e+00" cType="1" res="4.3116435408592224e-02" rms="1.8484598398208618e-01" purity="9.6036583185195923e-01" nType="-99"/>
          <Node pos="r" depth="2" NCoef="0" IVar="-1" Cut="0.0000000000000000e+00" cType="1" res="-1.6613313928246498e-02" rms="3.3848327398300171e-01" purity="3.0053740739822388e-01" nType="-99"/>
        </Node>
      </Node>
    </BinaryTree>
    <BinaryTree type="DecisionTree" boostWeight="1.0000000000000000e+00" itree="48">
      <Node pos="s" depth="0" NCoef="0" IVar="34" Cut="6.1898553371429443e-01" cType="1" res="1.9452947890385985e-03" rms="3.4289416670799255e-01" purity="5.0070655345916748e-01" nType="0">
        <Node pos="l" depth="1" NCoef="0" IVar="34" Cut="-3.8331145048141479e-01" cType="1" res="-1.7209062352776527e-02" rms="3.3594423532485962e-01" purity="4.3460515141487122e-01" nType="0">
          <Node pos="l" depth="2" NCoef="0" IVar="-1" Cut="0.0000000000000000e+00" cType="1" res="9.7515117377042770e-03" rms="3.5420045256614685e-01" purity="6.0216242074966431e-01" nType="-99"/>
          <Node pos="r" depth="2" NCoef="0" IVar="-1" Cut="0.0000000000000000e+00" cType="1" res="-2.7867797762155533e-02" rms="3.0018994212150574e-01" purity="2.2090896964073181e-01" nType="-99"/>
        </Node>
        <Node pos="r" depth="1" NCoef="0" IVar="26" Cut="-6.5467037260532379e-02" cType="1" res="4.9782376736402512e-02" rms="3.5518226027488708e-01" purity="6.6579151153564453e-01" nType="0">
          <Node pos="l" depth="2" NCoef="0" IVar="-1" Cut="0.0000000000000000e+00" cType="1" res="4.1911613196134567e-02" rms="3.4710639715194702e-01" purity="7.8657716512680054e-01" nType="-99"/>
          <Node pos="r" depth="2" NCoef="0" IVar="-1" Cut="0.0000000000000000e+00" cType="1" res="1.2593120336532593e-02" rms="3.5477495193481445e-01" purity="6.5008723735809326e-01" nType="-99"/>
        </Node>
      </Node>
    </BinaryTree>
    <BinaryTree type="DecisionTree" boostWeight="1.0000000000000000e+00" itree="49">
      <Node pos="s" depth="0" NCoef="0" IVar="19" Cut="1.1857318878173828e-01" cType="1" res="9.2860008589923382e-04" rms="3.4153589606285095e-01" purity="5.0229233503341675e-01" nType="0">
        <Node pos="l" depth="1" NCoef="0" IVar="31" Cut="6.4268436431884766e+00" cType="1" res="2.3447331041097641e-02" rms="3.4198421239852905e-01" purity="6.8540215492248535e-01" nType="0">
          <Node pos="l" depth="2" NCoef="0" IVar="-1" Cut="0.0000000000000000e+00" cType="1" res="-1.3839611783623695e-02" rms="3.7258669734001160e-01" purity="4.9675878882408142e-01" nType="-99"/>
          <Node pos="r" depth="2" NCoef="0" IVar="-1" Cut="0.0000000000000000e+00" cType="1" res="1.4335681684315205e-02" rms="3.3098211884498596e-01" purity="7.3574942350387573e-01" nType="-99"/>
        </Node>
        <Node pos="r" depth="1" NCoef="0" IVar="21" Cut="1.9499514997005463e-01" cType="1" res="-3.4791741520166397e-02" rms="3.3775788545608521e-01" purity="2.1183446049690247e-01" nType="0">
          <Node pos="l" depth="2" NCoef="0" IVar="-1" Cut="0.0000000000000000e+00" cType="1" res="1.1439373716711998e-02" rms="4.0786743164062500e-01" purity="4.1827267408370972e-01" nType="-99"/>
          <Node pos="r" depth="2" NCoef="0" IVar="-1" Cut="0.0000000000000000e+00" cType="1" res="-1.7172547057271004e-02" rms="3.2045853137969971e-01" purity="1.7259158194065094e-01" nType="-99"/>
        </Node>
      </Node>
    </BinaryTree>
    <BinaryTree type="DecisionTree" boostWeight="1.0000000000000000e+00" itree="50">
      <Node pos="s" depth="0" NCoef="0" IVar="21" Cut="4.5201542973518372e-01" cType="1" res="2.4926338810473680e-03" rms="3.3742031455039978e-01" purity="4.9991175532341003e-01" nType="0">
        <Node pos="l" depth="1" NCoef="0" IVar="19" Cut="2.3377914726734161e-01" cType="1" res="2.1300731226801872e-02" rms="3.4152770042419434e-01" purity="5.7437211275100708e-01" nType="0">
          <Node pos="l" depth="2" NCoef="0" IVar="-1" Cut="0.0000000000000000e+00" cType="1" res="1.3391861692070961e-02" rms="3.4431153535842896e-01" purity="6.9312888383865356e-01" nType="-99"/>
          <Node pos="r" depth="2" NCoef="0" IVar="-1" Cut="0.0000000000000000e+00" cType="1" res="-1.6478363424539566e-02" rms="3.2193964719772339e-01" purity="1.5275007486343384e-01" nType="-99"/>
        </Node>
        <Node pos="r" depth="1" NCoef="0" IVar="19" Cut="1.3312245719134808e-02" cType="1" res="-4.2336277663707733e-02" rms="3.2303687930107117e-01" purity="3.2243618369102478e-01" nType="0">
          <Node pos="l" depth="2" NCoef="0" IVar="-1" Cut="0.0000000000000000e+00" cType="1" res="9.2112674610689282e-04" rms="3.4505739808082581e-01" purity="6.0312354564666748e-01" nType="-99"/>
          <Node pos="r" depth="2" NCoef="0" IVar="-1" Cut="0.0000000000000000e+00" cType="1" res="-2.2624904289841652e-02" rms="3.0954802036285400e-01" purity="1.8730650842189789e-01" nType="-99"/>
        </Node>
      </Node>
    </BinaryTree>
    <BinaryTree type="DecisionTree" boostWeight="1.0000000000000000e+00" itree="51">
      <Node pos="s" depth="0" NCoef="0" IVar="33" Cut="1.0097154378890991e+00" cType="1" res="4.9864139873534441e-04" rms="3.3871608972549438e-01" purity="5.0395649671554565e-01" nType="0">
        <Node pos="l" depth="1" NCoef="0" IVar="-1" Cut="0.0000000000000000e+00" cType="1" res="-4.5538127422332764e-02" rms="2.6050126552581787e-01" purity="1.6352201998233795e-01" nType="-99"/>
        <Node pos="r" depth="1" NCoef="0" IVar="1" Cut="5.6330543756484985e-01" cType="1" res="6.0703502967953682e-03" rms="3.4067001938819885e-01" purity="5.1894587278366089e-01" nType="0">
          <Node pos="l" depth="2" NCoef="0" IVar="-1" Cut="0.0000000000000000e+00" cType="1" res="6.5253581851720810e-03" rms="3.4847688674926758e-01" purity="6.1160224676132202e-01" nType="-99"/>
          <Node pos="r" depth="2" NCoef="0" IVar="-1" Cut="0.0000000000000000e+00" cType="1" res="-1.7898006364703178e-02" rms="3.0158841609954834e-01" purity="1.5114678442478180e-01" nType="-99"/>
        </Node>
      </Node>
    </BinaryTree>
    <BinaryTree type="DecisionTree" boostWeight="1.0000000000000000e+00" itree="52">
      <Node pos="s" depth="0" NCoef="0" IVar="19" Cut="7.5837723910808563e-02" cType="1" res="-1.8509164219722152e-03" rms="3.3934807777404785e-01" purity="4.9688589572906494e-01" nType="0">
        <Node pos="l" depth="1" NCoef="0" IVar="31" Cut="6.6551780700683594e+00" cType="1" res="2.4692816659808159e-02" rms="3.2456454634666443e-01" purity="7.2453153133392334e-01" nType="0">
          <Node pos="l" depth="2" NCoef="0" IVar="-1" Cut="0.0000000000000000e+00" cType="1" res="-1.0198363102972507e-02" rms="3.6998027563095093e-01" purity="5.5453050136566162e-01" nType="-99"/>
          <Node pos="r" depth="2" NCoef="0" IVar="-1" Cut="0.0000000000000000e+00" cType="1" res="1.6601053997874260e-02" rms="3.0473947525024414e-01" purity="7.8380239009857178e-01" nType="-99"/>
        </Node>
        <Node pos="r" depth="1" NCoef="0" IVar="20" Cut="-1.0284786671400070e-01" cType="1" res="-3.0442845076322556e-02" rms="3.5235351324081421e-01" purity="2.5167447328567505e-01" nType="0">
          <Node pos="l" depth="2" NCoef="0" IVar="-1" Cut="0.0000000000000000e+00" cType="1" res="2.1140765398740768e-02" rms="4.1547635197639465e-01" purity="5.3481894731521606e-01" nType="-99"/>
          <Node pos="r" depth="2" NCoef="0" IVar="-1" Cut="0.0000000000000000e+00" cType="1" res="-1.2419595383107662e-02" rms="3.4608188271522522e-01" purity="2.3170611262321472e-01" nType="-99"/>
        </Node>
      </Node>
    </BinaryTree>
    <BinaryTree type="DecisionTree" boostWeight="1.0000000000000000e+00" itree="53">
      <Node pos="s" depth="0" NCoef="0" IVar="34" Cut="-5.2379083633422852e-01" cType="1" res="4.8229223466478288e-04" rms="3.3851560950279236e-01" purity="5.0430977344512939e-01" nType="0">
        <Node pos="l" depth="1" NCoef="0" IVar="22" Cut="2.3873835802078247e-01" cType="1" res="4.0936771780252457e-02" rms="3.5352209210395813e-01" purity="6.5273183584213257e-01" nType="0">
          <Node pos="l" depth="2" NCoef="0" IVar="-1" Cut="0.0000000000000000e+00" cType="1" res="1.7035972326993942e-02" rms="3.5292071104049683e-01" purity="7.1003550291061401e-01" nType="-99"/>
          <Node pos="r" depth="2" NCoef="0" IVar="-1" Cut="0.0000000000000000e+00" cType="1" res="-1.7342520877718925e-02" rms="3.4392675757408142e-01" purity="1.7061020433902740e-01" nType="-99"/>
        </Node>
        <Node pos="r" depth="1" NCoef="0" IVar="34" Cut="4.1951340436935425e-01" cType="1" res="-1.9817456603050232e-02" rms="3.2885923981666565e-01" purity="4.2983272671699524e-01" nType="0">
          <Node pos="l" depth="2" NCoef="0" IVar="-1" Cut="0.0000000000000000e+00" cType="1" res="-3.3600877970457077e-02" rms="2.9116237163543701e-01" purity="1.8987739086151123e-01" nType="-99"/>
          <Node pos="r" depth="2" NCoef="0" IVar="-1" Cut="0.0000000000000000e+00" cType="1" res="1.0542809963226318e-02" rms="3.4497502446174622e-01" purity="6.0526317358016968e-01" nType="-99"/>
        </Node>
      </Node>
    </BinaryTree>
    <BinaryTree type="DecisionTree" boostWeight="1.0000000000000000e+00" itree="54">
      <Node pos="s" depth="0" NCoef="0" IVar="31" Cut="5.6537642478942871e+00" cType="1" res="-2.7800092939287424e-03" rms="3.3738777041435242e-01" purity="4.9843913316726685e-01" nType="0">
        <Node pos="l" depth="1" NCoef="0" IVar="3" Cut="3.5104870796203613e-01" cType="1" res="-9.6483856439590454e-02" rms="3.4522706270217896e-01" purity="2.9237288236618042e-01" nType="0">
          <Node pos="l" depth="2" NCoef="0" IVar="-1" Cut="0.0000000000000000e+00" cType="1" res="-4.3031916022300720e-02" rms="3.5017192363739014e-01" purity="3.0104321241378784e-01" nType="-99"/>
          <Node pos="r" depth="2" NCoef="0" IVar="-1" Cut="0.0000000000000000e+00" cType="1" res="-2.1413533017039299e-02" rms="3.3849370479583740e-01" purity="2.8644239902496338e-01" nType="-99"/>
        </Node>
        <Node pos="r" depth="1" NCoef="0" IVar="21" Cut="4.9529197812080383e-01" cType="1" res="4.4495235197246075e-03" rms="3.3569025993347168e-01" purity="5.1433777809143066e-01" nType="0">
          <Node pos="l" depth="2" NCoef="0" IVar="-1" Cut="0.0000000000000000e+00" cType="1" res="7.0118065923452377e-03" rms="3.3842799067497253e-01" purity="5.7659143209457397e-01" nType="-99"/>
          <Node pos="r" depth="2" NCoef="0" IVar="-1" Cut="0.0000000000000000e+00" cType="1" res="-1.6760714352130890e-02" rms="3.2134118676185608e-01" purity="3.1310534477233887e-01" nType="-99"/>
        </Node>
      </Node>
    </BinaryTree>
    <BinaryTree type="DecisionTree" boostWeight="1.0000000000000000e+00" itree="55">
      <Node pos="s" depth="0" NCoef="0" IVar="33" Cut="1.0254287719726562e+00" cType="1" res="-1.2477505952119827e-03" rms="3.3910176157951355e-01" purity="4.9859526753425598e-01" nType="0">
        <Node pos="l" depth="1" NCoef="0" IVar="33" Cut="1.0152252912521362e+00" cType="1" res="8.7226303294301033e-03" rms="3.4096455574035645e-01" purity="5.2332627773284912e-01" nType="0">
          <Node pos="l" depth="2" NCoef="0" IVar="-1" Cut="0.0000000000000000e+00" cType="1" res="-2.2708978503942490e-02" rms="3.1778898835182190e-01" purity="3.0480769276618958e-01" nType="-99"/>
          <Node pos="r" depth="2" NCoef="0" IVar="-1" Cut="0.0000000000000000e+00" cType="1" res="7.5631346553564072e-03" rms="3.4346005320549011e-01" purity="5.6418555974960327e-01" nType="-99"/>
        </Node>
        <Node pos="r" depth="1" NCoef="0" IVar="3" Cut="2.2740699350833893e-01" cType="1" res="-6.7647665739059448e-02" rms="3.1856280565261841e-01" purity="3.3389374613761902e-01" nType="0">
          <Node pos="l" depth="2" NCoef="0" IVar="-1" Cut="0.0000000000000000e+00" cType="1" res="-3.7676803767681122e-02" rms="3.6265814304351807e-01" purity="3.7619048357009888e-01" nType="-99"/>
          <Node pos="r" depth="2" NCoef="0" IVar="-1" Cut="0.0000000000000000e+00" cType="1" res="-1.6612801700830460e-02" rms="2.9635801911354065e-01" purity="3.1724461913108826e-01" nType="-99"/>
        </Node>
      </Node>
    </BinaryTree>
    <BinaryTree type="DecisionTree" boostWeight="1.0000000000000000e+00" itree="56">
      <Node pos="s" depth="0" NCoef="0" IVar="19" Cut="-2.5744477286934853e-02" cType="1" res="-1.4265947975218296e-03" rms="3.3473137021064758e-01" purity="4.9781465530395508e-01" nType="0">
        <Node pos="l" depth="1" NCoef="0" IVar="18" Cut="2.7208232879638672e-01" cType="1" res="4.8607900738716125e-02" rms="2.5509253144264221e-01" purity="8.7987375259399414e-01" nType="0">
          <Node pos="l" depth="2" NCoef="0" IVar="-1" Cut="0.0000000000000000e+00" cType="1" res="3.3755032345652580e-03" rms="3.4624955058097839e-01" purity="7.0181220769882202e-01" nType="-99"/>
          <Node pos="r" depth="2" NCoef="0" IVar="-1" Cut="0.0000000000000000e+00" cType="1" res="3.0777312815189362e-02" rms="2.2035218775272369e-01" purity="9.3168741464614868e-01" nType="-99"/>
        </Node>
        <Node pos="r" depth="1" NCoef="0" IVar="34" Cut="-7.1424502134323120e-01" cType="1" res="-1.7035387456417084e-02" rms="3.5450553894042969e-01" purity="3.7862727046012878e-01" nType="0">
          <Node pos="l" depth="2" NCoef="0" IVar="-1" Cut="0.0000000000000000e+00" cType="1" res="1.0565436445176601e-02" rms="3.9079761505126953e-01" purity="5.8303886651992798e-01" nType="-99"/>
          <Node pos="r" depth="2" NCoef="0" IVar="-1" Cut="0.0000000000000000e+00" cType="1" res="-1.0640348307788372e-02" rms="3.4252035617828369e-01" purity="3.2327395677566528e-01" nType="-99"/>
        </Node>
      </Node>
    </BinaryTree>
    <BinaryTree type="DecisionTree" boostWeight="1.0000000000000000e+00" itree="57">
      <Node pos="s" depth="0" NCoef="0" IVar="21" Cut="1.9164171814918518e-01" cType="1" res="4.6178020420484245e-04" rms="3.3710157871246338e-01" purity="5.0135266780853271e-01" nType="0">
        <Node pos="l" depth="1" NCoef="0" IVar="1" Cut="6.0349625349044800e-01" cType="1" res="5.9311881661415100e-02" rms="3.2135796546936035e-01" purity="7.3441964387893677e-01" nType="0">
          <Node pos="l" depth="2" NCoef="0" IVar="-1" Cut="0.0000000000000000e+00" cType="1" res="2.7761977165937424e-02" rms="2.9582673311233521e-01" purity="8.1887316703796387e-01" nType="-99"/>
          <Node pos="r" depth="2" NCoef="0" IVar="-1" Cut="0.0000000000000000e+00" cType="1" res="-4.9261632375419140e-03" rms="4.1378894448280334e-01" purity="3.3057850599288940e-01" nType="-99"/>
        </Node>
        <Node pos="r" depth="1" NCoef="0" IVar="19" Cut="-2.5744477286934853e-02" cType="1" res="-1.0138510726392269e-02" rms="3.3877506852149963e-01" purity="4.5937177538871765e-01" nType="0">
          <Node pos="l" depth="2" NCoef="0" IVar="-1" Cut="0.0000000000000000e+00" cType="1" res="1.6458811238408089e-02" rms="2.7523827552795410e-01" purity="8.5825151205062866e-01" nType="-99"/>
          <Node pos="r" depth="2" NCoef="0" IVar="-1" Cut="0.0000000000000000e+00" cType="1" res="-7.7420757152140141e-03" rms="3.5401135683059692e-01" purity="3.4317442774772644e-01" nType="-99"/>
        </Node>
      </Node>
    </BinaryTree>
    <BinaryTree type="DecisionTree" boostWeight="1.0000000000000000e+00" itree="58">
      <Node pos="s" depth="0" NCoef="0" IVar="34" Cut="7.1421390771865845e-01" cType="1" res="2.3575949016958475e-03" rms="3.3388590812683105e-01" purity="5.0836598873138428e-01" nType="0">
        <Node pos="l" depth="1" NCoef="0" IVar="34" Cut="-3.4696182608604431e-01" cType="1" res="-1.1766876094043255e-02" rms="3.3190476894378662e-01" purity="4.5278108119964600e-01" nType="0">
          <Node pos="l" depth="2" NCoef="0" IVar="-1" Cut="0.0000000000000000e+00" cType="1" res="7.4618305079638958e-03" rms="3.4739771485328674e-01" purity="5.9712684154510498e-01" nType="-99"/>
          <Node pos="r" depth="2" NCoef="0" IVar="-1" Cut="0.0000000000000000e+00" cType="1" res="-1.9064914435148239e-02" rms="3.0846521258354187e-01" purity="2.8625395894050598e-01" nType="-99"/>
        </Node>
        <Node pos="r" depth="1" NCoef="0" IVar="28" Cut="3.3435825258493423e-02" cType="1" res="4.9661323428153992e-02" rms="3.3614218235015869e-01" purity="6.9452339410781860e-01" nType="0">
          <Node pos="l" depth="2" NCoef="0" IVar="-1" Cut="0.0000000000000000e+00" cType="1" res="2.0530093461275101e-02" rms="3.3739611506462097e-01" purity="7.5087338685989380e-01" nType="-99"/>
          <Node pos="r" depth="2" NCoef="0" IVar="-1" Cut="0.0000000000000000e+00" cType="1" res="-6.5283733420073986e-03" rms="3.1943666934967041e-01" purity="3.2424676418304443e-01" nType="-99"/>
        </Node>
      </Node>
    </BinaryTree>
    <BinaryTree type="DecisionTree" boostWeight="1.0000000000000000e+00" itree="59">
      <Node pos="s" depth="0" NCoef="0" IVar="34" Cut="5.2378267049789429e-01" cType="1" res="-3.6394185735844076e-04" rms="3.3676779270172119e-01" purity="5.0294756889343262e-01" nType="0">
        <Node pos="l" depth="1" NCoef="0" IVar="34" Cut="-3.4695109724998474e-01" cType="1" res="-1.8521027639508247e-02" rms="3.3085739612579346e-01" purity="4.3282124400138855e-01" nType="0">
          <Node pos="l" depth="2" NCoef="0" IVar="-1" Cut="0.0000000000000000e+00" cType="1" res="6.0460465028882027e-03" rms="3.5082083940505981e-01" purity="5.9149605035781860e-01" nType="-99"/>
          <Node pos="r" depth="2" NCoef="0" IVar="-1" Cut="0.0000000000000000e+00" cType="1" res="-3.1196303665637970e-02" rms="2.8545019030570984e-01" purity="1.7389069497585297e-01" nType="-99"/>
        </Node>
        <Node pos="r" depth="1" NCoef="0" IVar="21" Cut="4.8735800385475159e-01" cType="1" res="3.5823028534650803e-02" rms="3.4541308879852295e-01" purity="6.4270889759063721e-01" nType="0">
