<?xml version="1.0"?>
<MethodSetup Method="BDT::BDTG">
  <GeneralInfo>
    <Info name="TMVA Release" value="4.2.1 [262657]"/>
    <Info name="ROOT Release" value="6.18/04 [397828]"/>
    <Info name="Creator" value="zhai"/>
    <Info name="Date" value="Mon Sep 13 01:21:11 2021"/>
    <Info name="Host" value="Darwin macphsft18.dyndns.cern.ch 18.7.0 Darwin Kernel Version 18.7.0: Tue Aug 20 16:57:14 PDT 2019; root:xnu-4903.271.2~2/RELEASE_X86_64 x86_64"/>
    <Info name="Dir" value="/Users/zhai/Desktop/myB2Ana/B0_phi_K0/tmva/TestSet"/>
    <Info name="Training events" value="42936"/>
    <Info name="TrainingTime" value="2.76940629e+01"/>
    <Info name="AnalysisType" value="Classification"/>
  </GeneralInfo>
  <Options>
    <Option name="V" modified="Yes">False</Option>
    <Option name="VerbosityLevel" modified="No">Default</Option>
    <Option name="VarTransform" modified="No">None</Option>
    <Option name="H" modified="Yes">False</Option>
    <Option name="CreateMVAPdfs" modified="No">False</Option>
    <Option name="IgnoreNegWeightsInTraining" modified="No">False</Option>
    <Option name="NTrees" modified="Yes">1000</Option>
    <Option name="MaxDepth" modified="Yes">2</Option>
    <Option name="MinNodeSize" modified="Yes">2.5%</Option>
    <Option name="nCuts" modified="Yes">20</Option>
    <Option name="BoostType" modified="Yes">Grad</Option>
    <Option name="AdaBoostR2Loss" modified="No">quadratic</Option>
    <Option name="UseBaggedBoost" modified="Yes">True</Option>
    <Option name="Shrinkage" modified="Yes">1.000000e-01</Option>
    <Option name="AdaBoostBeta" modified="No">5.000000e-01</Option>
    <Option name="UseRandomisedTrees" modified="No">False</Option>
    <Option name="UseNvars" modified="No">5</Option>
    <Option name="UsePoissonNvars" modified="No">True</Option>
    <Option name="BaggedSampleFraction" modified="Yes">5.000000e-01</Option>
    <Option name="UseYesNoLeaf" modified="No">True</Option>
    <Option name="NegWeightTreatment" modified="No">pray</Option>
    <Option name="Css" modified="No">1.000000e+00</Option>
    <Option name="Cts_sb" modified="No">1.000000e+00</Option>
    <Option name="Ctb_ss" modified="No">1.000000e+00</Option>
    <Option name="Cbb" modified="No">1.000000e+00</Option>
    <Option name="NodePurityLimit" modified="No">5.000000e-01</Option>
    <Option name="SeparationType" modified="No">giniindex</Option>
    <Option name="RegressionLossFunctionBDTG" modified="No">huber</Option>
    <Option name="HuberQuantile" modified="No">7.000000e-01</Option>
    <Option name="DoBoostMonitor" modified="No">False</Option>
    <Option name="UseFisherCuts" modified="No">False</Option>
    <Option name="MinLinCorrForFisher" modified="No">8.000000e-01</Option>
    <Option name="UseExclusiveVars" modified="No">False</Option>
    <Option name="DoPreselection" modified="No">False</Option>
    <Option name="SigToBkgFraction" modified="No">1.000000e+00</Option>
    <Option name="PruneMethod" modified="No">nopruning</Option>
    <Option name="PruneStrength" modified="No">0.000000e+00</Option>
    <Option name="PruningValFraction" modified="No">5.000000e-01</Option>
    <Option name="SkipNormalization" modified="No">False</Option>
    <Option name="nEventsMin" modified="No">0</Option>
    <Option name="UseBaggedGrad" modified="No">False</Option>
    <Option name="GradBaggingFraction" modified="No">5.000000e-01</Option>
    <Option name="UseNTrainEvents" modified="No">0</Option>
    <Option name="NNodesMax" modified="No">0</Option>
  </Options>
  <Variables NVar="23">
    <Variable VarIndex="0" Expression="foxWolframR1" Label="foxWolframR1" Title="R1" Unit="" Internal="foxWolframR1" Type="F" Min="3.90196533e-07" Max="9.71774220e-01"/>
    <Variable VarIndex="1" Expression="harmonicMomentThrust1" Label="harmonicMomentThrust1" Title="h1" Unit="" Internal="harmonicMomentThrust1" Type="F" Min="-1.34834137e+01" Max="6.37336397e+00"/>
    <Variable VarIndex="2" Expression="harmonicMomentThrust3" Label="harmonicMomentThrust3" Title="h3" Unit="" Internal="harmonicMomentThrust3" Type="F" Min="-1.33784189e+01" Max="6.26526117e+00"/>
    <Variable VarIndex="3" Expression="cleoConeThrust3" Label="cleoConeThrust3" Title="cc3" Unit="" Internal="cleoConeThrust3" Type="F" Min="0.00000000e+00" Max="7.90961695e+00"/>
    <Variable VarIndex="4" Expression="cleoConeThrust4" Label="cleoConeThrust4" Title="cc4" Unit="" Internal="cleoConeThrust4" Type="F" Min="0.00000000e+00" Max="7.43052912e+00"/>
    <Variable VarIndex="5" Expression="cleoConeThrust5" Label="cleoConeThrust5" Title="cc5" Unit="" Internal="cleoConeThrust5" Type="F" Min="0.00000000e+00" Max="4.75336504e+00"/>
    <Variable VarIndex="6" Expression="cleoConeThrust6" Label="cleoConeThrust6" Title="cc6" Unit="" Internal="cleoConeThrust6" Type="F" Min="0.00000000e+00" Max="3.83052039e+00"/>
    <Variable VarIndex="7" Expression="cleoConeThrust7" Label="cleoConeThrust7" Title="cc7" Unit="" Internal="cleoConeThrust7" Type="F" Min="0.00000000e+00" Max="3.26682448e+00"/>
    <Variable VarIndex="8" Expression="cleoConeThrust8" Label="cleoConeThrust8" Title="cc8" Unit="" Internal="cleoConeThrust8" Type="F" Min="0.00000000e+00" Max="2.02912760e+00"/>
    <Variable VarIndex="9" Expression="thrustAxisCosTheta" Label="thrustAxisCosTheta" Title="thAxCosTh" Unit="" Internal="thrustAxisCosTheta" Type="F" Min="-9.64388967e-01" Max="9.99337256e-01"/>
    <Variable VarIndex="10" Expression="CS_hso00" Label="CS_hso00" Title="hso00" Unit="" Internal="CS_hso00" Type="F" Min="0.00000000e+00" Max="2.06188178e+00"/>
    <Variable VarIndex="11" Expression="CS_hso04" Label="CS_hso04" Title="hso04" Unit="" Internal="CS_hso04" Type="F" Min="-4.92189139e-01" Max="9.37228203e-01"/>
    <Variable VarIndex="12" Expression="CS_hso10" Label="CS_hso10" Title="hso10" Unit="" Internal="CS_hso10" Type="F" Min="0.00000000e+00" Max="1.34149206e+00"/>
    <Variable VarIndex="13" Expression="CS_hso14" Label="CS_hso14" Title="hso14" Unit="" Internal="CS_hso14" Type="F" Min="-2.31500924e-01" Max="7.48872697e-01"/>
    <Variable VarIndex="14" Expression="CS_hso20" Label="CS_hso20" Title="hso20" Unit="" Internal="CS_hso20" Type="F" Min="2.09404435e-03" Max="1.95837736e+00"/>
    <Variable VarIndex="15" Expression="CS_hso22" Label="CS_hso22" Title="hso22" Unit="" Internal="CS_hso22" Type="F" Min="-3.69831055e-01" Max="1.62778163e+00"/>
    <Variable VarIndex="16" Expression="CS_hso24" Label="CS_hso24" Title="hso24" Unit="" Internal="CS_hso24" Type="F" Min="-4.27157968e-01" Max="9.67512190e-01"/>
    <Variable VarIndex="17" Expression="CS_hoo1" Label="CS_hoo1" Title="hoo1" Unit="" Internal="CS_hoo1" Type="F" Min="-6.16031177e-02" Max="7.76988566e-02"/>
    <Variable VarIndex="18" Expression="CS_hoo2" Label="CS_hoo2" Title="hoo2" Unit="" Internal="CS_hoo2" Type="F" Min="-2.59680822e-02" Max="9.06451285e-01"/>
    <Variable VarIndex="19" Expression="CS_hoo3" Label="CS_hoo3" Title="hoo3" Unit="" Internal="CS_hoo3" Type="F" Min="-4.60474119e-02" Max="6.32595494e-02"/>
    <Variable VarIndex="20" Expression="CS_hoo4" Label="CS_hoo4" Title="hoo4" Unit="" Internal="CS_hoo4" Type="F" Min="-2.42137704e-02" Max="9.08398986e-01"/>
    <Variable VarIndex="21" Expression="phi_M" Label="phi_M" Title="mKK" Unit="" Internal="phi_M" Type="F" Min="1.00400174e+00" Max="1.03399980e+00"/>
    <Variable VarIndex="22" Expression="phi_cosHel" Label="phi_cosHel" Title="cosHel" Unit="" Internal="phi_cosHel" Type="F" Min="-9.99991417e-01" Max="9.99927044e-01"/>
  </Variables>
  <Spectators NSpec="0"/>
  <Classes NClass="2">
    <Class Name="Signal" Index="0"/>
    <Class Name="Background" Index="1"/>
  </Classes>
  <Transformations NTransformations="0"/>
  <MVAPdfs/>
  <Weights NTrees="1000" AnalysisType="1">
    <BinaryTree type="DecisionTree" boostWeight="1.0000000000000000e+00" itree="0">
      <Node pos="s" depth="0" NCoef="0" IVar="18" Cut="2.2963976487517357e-02" cType="1" res="3.7376200780272484e-03" rms="4.9998602271080017e-01" purity="5.0373762845993042e-01" nType="0">
        <Node pos="l" depth="1" NCoef="0" IVar="18" Cut="4.0302141569554806e-03" cType="1" res="1.0706703364849091e-01" rms="4.8840212821960449e-01" purity="6.0706704854965210e-01" nType="0">
          <Node pos="l" depth="2" NCoef="0" IVar="-1" Cut="0.0000000000000000e+00" cType="1" res="4.5442610979080200e-02" rms="4.4539222121238708e-01" purity="7.2721302509307861e-01" nType="-99"/>
          <Node pos="r" depth="2" NCoef="0" IVar="-1" Cut="0.0000000000000000e+00" cType="1" res="3.8626275490969419e-03" rms="4.9962687492370605e-01" purity="5.1931315660476685e-01" nType="-99"/>
        </Node>
        <Node pos="r" depth="1" NCoef="0" IVar="3" Cut="1.8786354064941406e+00" cType="1" res="-2.4659374356269836e-01" rms="4.3496152758598328e-01" purity="2.5340628623962402e-01" nType="0">
          <Node pos="l" depth="2" NCoef="0" IVar="-1" Cut="0.0000000000000000e+00" cType="1" res="-6.0615591704845428e-02" rms="3.9767292141914368e-01" purity="1.9692203402519226e-01" nType="-99"/>
          <Node pos="r" depth="2" NCoef="0" IVar="-1" Cut="0.0000000000000000e+00" cType="1" res="4.3170861899852753e-02" rms="4.5100656151771545e-01" purity="7.1585428714752197e-01" nType="-99"/>
        </Node>
      </Node>
    </BinaryTree>
    <BinaryTree type="DecisionTree" boostWeight="1.0000000000000000e+00" itree="1">
      <Node pos="s" depth="0" NCoef="0" IVar="18" Cut="2.2963976487517357e-02" cType="1" res="-3.5081419628113508e-04" rms="4.9198490381240845e-01" purity="5.0003343820571899e-01" nType="0">
        <Node pos="l" depth="1" NCoef="0" IVar="18" Cut="6.1344304122030735e-03" cType="1" res="9.6545569598674774e-02" rms="4.8615431785583496e-01" purity="6.0744976997375488e-01" nType="0">
          <Node pos="l" depth="2" NCoef="0" IVar="-1" Cut="0.0000000000000000e+00" cType="1" res="3.8881905376911163e-02" rms="4.5164448022842407e-01" purity="7.1324068307876587e-01" nType="-99"/>
          <Node pos="r" depth="2" NCoef="0" IVar="-1" Cut="0.0000000000000000e+00" cType="1" res="-1.8805830040946603e-03" rms="4.9994418025016785e-01" purity="4.9252852797508240e-01" nType="-99"/>
        </Node>
        <Node pos="r" depth="1" NCoef="0" IVar="4" Cut="1.2944071292877197e+00" cType="1" res="-2.2841164469718933e-01" rms="4.2586654424667358e-01" purity="2.4721238017082214e-01" nType="0">
          <Node pos="l" depth="2" NCoef="0" IVar="-1" Cut="0.0000000000000000e+00" cType="1" res="-5.4755493998527527e-02" rms="3.9697244763374329e-01" purity="2.0185987651348114e-01" nType="-99"/>
          <Node pos="r" depth="2" NCoef="0" IVar="-1" Cut="0.0000000000000000e+00" cType="1" res="4.1429832577705383e-02" rms="4.5358103513717651e-01" purity="6.9135749340057373e-01" nType="-99"/>
        </Node>
      </Node>
    </BinaryTree>
    <BinaryTree type="DecisionTree" boostWeight="1.0000000000000000e+00" itree="2">
      <Node pos="s" depth="0" NCoef="0" IVar="18" Cut="2.1954011172056198e-02" cType="1" res="-6.5963692031800747e-03" rms="4.8558294773101807e-01" purity="4.9354445934295654e-01" nType="0">
        <Node pos="l" depth="1" NCoef="0" IVar="22" Cut="-6.1896681785583496e-01" cType="1" res="8.6557038128376007e-02" rms="4.8489212989807129e-01" purity="6.0735964775085449e-01" nType="0">
          <Node pos="l" depth="2" NCoef="0" IVar="-1" Cut="0.0000000000000000e+00" cType="1" res="4.5382052659988403e-02" rms="4.3100777268409729e-01" purity="7.4816781282424927e-01" nType="-99"/>
          <Node pos="r" depth="2" NCoef="0" IVar="-1" Cut="0.0000000000000000e+00" cType="1" res="4.7016730532050133e-03" rms="4.9461838603019714e-01" purity="5.4367482662200928e-01" nType="-99"/>
        </Node>
        <Node pos="r" depth="1" NCoef="0" IVar="3" Cut="2.0354773998260498e+00" cType="1" res="-2.1303911507129669e-01" rms="4.1884019970893860e-01" purity="2.4131187796592712e-01" nType="0">
          <Node pos="l" depth="2" NCoef="0" IVar="-1" Cut="0.0000000000000000e+00" cType="1" res="-5.1212195307016373e-02" rms="3.9345681667327881e-01" purity="1.9614571332931519e-01" nType="-99"/>
          <Node pos="r" depth="2" NCoef="0" IVar="-1" Cut="0.0000000000000000e+00" cType="1" res="4.0822681039571762e-02" rms="4.4672951102256775e-01" purity="7.1119087934494019e-01" nType="-99"/>
        </Node>
      </Node>
    </BinaryTree>
    <BinaryTree type="DecisionTree" boostWeight="1.0000000000000000e+00" itree="3">
      <Node pos="s" depth="0" NCoef="0" IVar="18" Cut="1.8432840704917908e-02" cType="1" res="-2.5423208717256784e-03" rms="4.7888916730880737e-01" purity="4.9751266837120056e-01" nType="0">
        <Node pos="l" depth="1" NCoef="0" IVar="22" Cut="6.1898875236511230e-01" cType="1" res="9.9257148802280426e-02" rms="4.7779619693756104e-01" purity="6.3041722774505615e-01" nType="0">
          <Node pos="l" depth="2" NCoef="0" IVar="-1" Cut="0.0000000000000000e+00" cType="1" res="7.7989301644265652e-03" rms="4.8796370625495911e-01" purity="5.7225048542022705e-01" nType="-99"/>
          <Node pos="r" depth="2" NCoef="0" IVar="-1" Cut="0.0000000000000000e+00" cType="1" res="4.7416657209396362e-02" rms="4.2317971587181091e-01" purity="7.6194030046463013e-01" nType="-99"/>
        </Node>
        <Node pos="r" depth="1" NCoef="0" IVar="3" Cut="2.2598905563354492e+00" cType="1" res="-1.8257316946983337e-01" rms="4.2478924989700317e-01" purity="2.6247289776802063e-01" nType="0">
          <Node pos="l" depth="2" NCoef="0" IVar="-1" Cut="0.0000000000000000e+00" cType="1" res="-4.5187894254922867e-02" rms="4.0416383743286133e-01" purity="2.1690601110458374e-01" nType="-99"/>
          <Node pos="r" depth="2" NCoef="0" IVar="-1" Cut="0.0000000000000000e+00" cType="1" res="5.6170433759689331e-02" rms="3.9103242754936218e-01" purity="8.0589383840560913e-01" nType="-99"/>
        </Node>
      </Node>
    </BinaryTree>
    <BinaryTree type="DecisionTree" boostWeight="1.0000000000000000e+00" itree="4">
      <Node pos="s" depth="0" NCoef="0" IVar="18" Cut="2.0939609035849571e-02" cType="1" res="5.0819818861782551e-03" rms="4.7390723228454590e-01" purity="5.0499445199966431e-01" nType="0">
        <Node pos="l" depth="1" NCoef="0" IVar="9" Cut="5.3167635202407837e-01" cType="1" res="8.4355361759662628e-02" rms="4.7724130749702454e-01" purity="6.2236630916595459e-01" nType="0">
          <Node pos="l" depth="2" NCoef="0" IVar="-1" Cut="0.0000000000000000e+00" cType="1" res="2.9590835794806480e-02" rms="4.5680779218673706e-01" purity="6.8567043542861938e-01" nType="-99"/>
          <Node pos="r" depth="2" NCoef="0" IVar="-1" Cut="0.0000000000000000e+00" cType="1" res="-8.4814112633466721e-03" rms="4.9254873394966125e-01" purity="4.9396502971649170e-01" nType="-99"/>
        </Node>
        <Node pos="r" depth="1" NCoef="0" IVar="4" Cut="1.2944071292877197e+00" cType="1" res="-1.6414216160774231e-01" rms="4.1924545168876648e-01" purity="2.5444194674491882e-01" nType="0">
          <Node pos="l" depth="2" NCoef="0" IVar="-1" Cut="0.0000000000000000e+00" cType="1" res="-4.1736908257007599e-02" rms="3.9789175987243652e-01" purity="2.1143789589405060e-01" nType="-99"/>
          <Node pos="r" depth="2" NCoef="0" IVar="-1" Cut="0.0000000000000000e+00" cType="1" res="3.8900174200534821e-02" rms="4.5272818207740784e-01" purity="6.7026555538177490e-01" nType="-99"/>
        </Node>
      </Node>
    </BinaryTree>
    <BinaryTree type="DecisionTree" boostWeight="1.0000000000000000e+00" itree="5">
      <Node pos="s" depth="0" NCoef="0" IVar="18" Cut="2.0382307469844818e-02" cType="1" res="-1.3191020116209984e-04" rms="4.6867719292640686e-01" purity="5.0029426813125610e-01" nType="0">
        <Node pos="l" depth="1" NCoef="0" IVar="22" Cut="6.1898678541183472e-01" cType="1" res="7.6767534017562866e-02" rms="4.7555154561996460e-01" purity="6.2403100728988647e-01" nType="0">
          <Node pos="l" depth="2" NCoef="0" IVar="-1" Cut="0.0000000000000000e+00" cType="1" res="3.8006652612239122e-03" rms="4.8701211810112000e-01" purity="5.6233519315719604e-01" nType="-99"/>
          <Node pos="r" depth="2" NCoef="0" IVar="-1" Cut="0.0000000000000000e+00" cType="1" res="4.1698407381772995e-02" rms="4.2148631811141968e-01" purity="7.6098090410232544e-01" nType="-99"/>
        </Node>
        <Node pos="r" depth="1" NCoef="0" IVar="12" Cut="2.5063067674636841e-01" cType="1" res="-1.5616659820079803e-01" rms="4.1248255968093872e-01" purity="2.4922327697277069e-01" nType="0">
          <Node pos="l" depth="2" NCoef="0" IVar="-1" Cut="0.0000000000000000e+00" cType="1" res="1.5168878249824047e-02" rms="4.7272878885269165e-01" purity="4.9085909128189087e-01" nType="-99"/>
          <Node pos="r" depth="2" NCoef="0" IVar="-1" Cut="0.0000000000000000e+00" cType="1" res="-4.5364715158939362e-02" rms="3.7288880348205566e-01" purity="1.8623104691505432e-01" nType="-99"/>
        </Node>
      </Node>
    </BinaryTree>
    <BinaryTree type="DecisionTree" boostWeight="1.0000000000000000e+00" itree="6">
      <Node pos="s" depth="0" NCoef="0" IVar="11" Cut="1.4475274085998535e-01" cType="1" res="2.0077405497431755e-03" rms="4.6470353007316589e-01" purity="5.0122898817062378e-01" nType="0">
        <Node pos="l" depth="1" NCoef="0" IVar="12" Cut="3.1328833103179932e-01" cType="1" res="4.1400328278541565e-02" rms="4.6754941344261169e-01" purity="5.5143338441848755e-01" nType="0">
          <Node pos="l" depth="2" NCoef="0" IVar="-1" Cut="0.0000000000000000e+00" cType="1" res="3.3851191401481628e-02" rms="4.4312492012977600e-01" purity="6.9613772630691528e-01" nType="-99"/>
          <Node pos="r" depth="2" NCoef="0" IVar="-1" Cut="0.0000000000000000e+00" cType="1" res="-7.9282075166702271e-03" rms="4.6544057130813599e-01" purity="4.5839962363243103e-01" nType="-99"/>
        </Node>
        <Node pos="r" depth="1" NCoef="0" IVar="12" Cut="1.9494320452213287e-01" cType="1" res="-2.3770864307880402e-01" rms="3.6455112695693970e-01" purity="1.9571943581104279e-01" nType="0">
          <Node pos="l" depth="2" NCoef="0" IVar="-1" Cut="0.0000000000000000e+00" cType="1" res="-1.4192533679306507e-02" rms="4.5429718494415283e-01" purity="4.0898463129997253e-01" nType="-99"/>
          <Node pos="r" depth="2" NCoef="0" IVar="-1" Cut="0.0000000000000000e+00" cType="1" res="-5.8741319924592972e-02" rms="3.2718914747238159e-01" purity="1.4506182074546814e-01" nType="-99"/>
        </Node>
      </Node>
    </BinaryTree>
    <BinaryTree type="DecisionTree" boostWeight="1.0000000000000000e+00" itree="7">
      <Node pos="s" depth="0" NCoef="0" IVar="18" Cut="1.1944515630602837e-02" cType="1" res="2.1276583429425955e-03" rms="4.6227484941482544e-01" purity="5.0255697965621948e-01" nType="0">
        <Node pos="l" depth="1" NCoef="0" IVar="9" Cut="6.3183706998825073e-01" cType="1" res="9.7975999116897583e-02" rms="4.6191644668579102e-01" purity="6.6404980421066284e-01" nType="0">
          <Node pos="l" depth="2" NCoef="0" IVar="-1" Cut="0.0000000000000000e+00" cType="1" res="2.9675766825675964e-02" rms="4.4182389974594116e-01" purity="7.1594732999801636e-01" nType="-99"/>
          <Node pos="r" depth="2" NCoef="0" IVar="-1" Cut="0.0000000000000000e+00" cType="1" res="-1.1658322997391224e-02" rms="4.9201941490173340e-01" purity="4.9201077222824097e-01" nType="-99"/>
        </Node>
        <Node pos="r" depth="1" NCoef="0" IVar="15" Cut="-7.4360072612762451e-02" cType="1" res="-9.7605057060718536e-02" rms="4.4106334447860718e-01" purity="3.3451944589614868e-01" nType="0">
          <Node pos="l" depth="2" NCoef="0" IVar="-1" Cut="0.0000000000000000e+00" cType="1" res="7.9348273575305939e-02" rms="3.2556423544883728e-01" purity="8.8014537096023560e-01" nType="-99"/>
          <Node pos="r" depth="2" NCoef="0" IVar="-1" Cut="0.0000000000000000e+00" cType="1" res="-2.7094643563032150e-02" rms="4.2911982536315918e-01" purity="2.9943019151687622e-01" nType="-99"/>
        </Node>
      </Node>
    </BinaryTree>
    <BinaryTree type="DecisionTree" boostWeight="1.0000000000000000e+00" itree="8">
      <Node pos="s" depth="0" NCoef="0" IVar="11" Cut="9.8475269973278046e-02" cType="1" res="5.6336191482841969e-04" rms="4.5661768317222595e-01" purity="5.0159490108489990e-01" nType="0">
        <Node pos="l" depth="1" NCoef="0" IVar="12" Cut="4.6546038985252380e-01" cType="1" res="5.1873300224542618e-02" rms="4.6151569485664368e-01" purity="5.7227605581283569e-01" nType="0">
          <Node pos="l" depth="2" NCoef="0" IVar="-1" Cut="0.0000000000000000e+00" cType="1" res="2.4375649169087410e-02" rms="4.5108988881111145e-01" purity="6.5529221296310425e-01" nType="-99"/>
          <Node pos="r" depth="2" NCoef="0" IVar="-1" Cut="0.0000000000000000e+00" cType="1" res="-2.2424645721912384e-02" rms="4.4727236032485962e-01" purity="3.7182331085205078e-01" nType="-99"/>
        </Node>
        <Node pos="r" depth="1" NCoef="0" IVar="6" Cut="7.8267425298690796e-01" cType="1" res="-1.8113714456558228e-01" rms="3.8760367035865784e-01" purity="2.5129663944244385e-01" nType="0">
          <Node pos="l" depth="2" NCoef="0" IVar="-1" Cut="0.0000000000000000e+00" cType="1" res="-4.7449331730604172e-02" rms="3.6033558845520020e-01" purity="1.9869352877140045e-01" nType="-99"/>
          <Node pos="r" depth="2" NCoef="0" IVar="-1" Cut="0.0000000000000000e+00" cType="1" res="1.6031935811042786e-02" rms="4.5328339934349060e-01" purity="5.9272247552871704e-01" nType="-99"/>
        </Node>
      </Node>
    </BinaryTree>
    <BinaryTree type="DecisionTree" boostWeight="1.0000000000000000e+00" itree="9">
      <Node pos="s" depth="0" NCoef="0" IVar="6" Cut="6.8019926548004150e-01" cType="1" res="2.5988554116338491e-03" rms="4.5295158028602600e-01" purity="5.0296729803085327e-01" nType="0">
        <Node pos="l" depth="1" NCoef="0" IVar="5" Cut="1.1317535638809204e+00" cType="1" res="-4.6311873942613602e-02" rms="4.4990289211273193e-01" purity="4.3864360451698303e-01" nType="0">
          <Node pos="l" depth="2" NCoef="0" IVar="-1" Cut="0.0000000000000000e+00" cType="1" res="-1.6647918149828911e-02" rms="4.4413638114929199e-01" purity="3.9865449070930481e-01" nType="-99"/>
          <Node pos="r" depth="2" NCoef="0" IVar="-1" Cut="0.0000000000000000e+00" cType="1" res="4.3474111706018448e-02" rms="4.1109615564346313e-01" purity="7.5405734777450562e-01" nType="-99"/>
        </Node>
        <Node pos="r" depth="1" NCoef="0" IVar="6" Cut="1.0933722257614136e+00" cType="1" res="1.6790454089641571e-01" rms="4.2315095663070679e-01" purity="7.2036486864089966e-01" nType="0">
          <Node pos="l" depth="2" NCoef="0" IVar="-1" Cut="0.0000000000000000e+00" cType="1" res="2.0707653835415840e-02" rms="4.5017135143280029e-01" purity="6.4131253957748413e-01" nType="-99"/>
          <Node pos="r" depth="2" NCoef="0" IVar="-1" Cut="0.0000000000000000e+00" cType="1" res="5.3545493632555008e-02" rms="3.6485424637794495e-01" purity="8.2585954666137695e-01" nType="-99"/>
        </Node>
      </Node>
    </BinaryTree>
    <BinaryTree type="DecisionTree" boostWeight="1.0000000000000000e+00" itree="10">
      <Node pos="s" depth="0" NCoef="0" IVar="22" Cut="-6.1900395154953003e-01" cType="1" res="-2.1534641273319721e-03" rms="4.5101878046989441e-01" purity="4.9968311190605164e-01" nType="0">
        <Node pos="l" depth="1" NCoef="0" IVar="11" Cut="1.4422090351581573e-01" cType="1" res="1.3553272187709808e-01" rms="4.3249285221099854e-01" purity="6.5846151113510132e-01" nType="0">
          <Node pos="l" depth="2" NCoef="0" IVar="-1" Cut="0.0000000000000000e+00" cType="1" res="3.3988196402788162e-02" rms="4.2641511559486389e-01" purity="7.0049625635147095e-01" nType="-99"/>
          <Node pos="r" depth="2" NCoef="0" IVar="-1" Cut="0.0000000000000000e+00" cType="1" res="-2.1536350250244141e-02" rms="4.1313025355339050e-01" purity="3.0028259754180908e-01" nType="-99"/>
        </Node>
        <Node pos="r" depth="1" NCoef="0" IVar="22" Cut="5.3736734390258789e-01" cType="1" res="-5.7300217449665070e-02" rms="4.4647458195686340e-01" purity="4.3608832359313965e-01" nType="0">
          <Node pos="l" depth="2" NCoef="0" IVar="-1" Cut="0.0000000000000000e+00" cType="1" res="-4.2868539690971375e-02" rms="4.0255928039550781e-01" purity="2.5882983207702637e-01" nType="-99"/>
          <Node pos="r" depth="2" NCoef="0" IVar="-1" Cut="0.0000000000000000e+00" cType="1" res="2.3757383227348328e-02" rms="4.3498525023460388e-01" purity="6.4267838001251221e-01" nType="-99"/>
        </Node>
      </Node>
    </BinaryTree>
    <BinaryTree type="DecisionTree" boostWeight="1.0000000000000000e+00" itree="11">
      <Node pos="s" depth="0" NCoef="0" IVar="7" Cut="6.0171198844909668e-01" cType="1" res="-3.1514717265963554e-03" rms="4.4532889127731323e-01" purity="4.9743926525115967e-01" nType="0">
        <Node pos="l" depth="1" NCoef="0" IVar="5" Cut="9.0540283918380737e-01" cType="1" res="-4.7288779169321060e-02" rms="4.4247913360595703e-01" purity="4.3850558996200562e-01" nType="0">
          <Node pos="l" depth="2" NCoef="0" IVar="-1" Cut="0.0000000000000000e+00" cType="1" res="-1.8491083756089211e-02" rms="4.3559384346008301e-01" purity="3.8423964381217957e-01" nType="-99"/>
          <Node pos="r" depth="2" NCoef="0" IVar="-1" Cut="0.0000000000000000e+00" cType="1" res="2.8833786025643349e-02" rms="4.2758992314338684e-01" purity="6.9287377595901489e-01" nType="-99"/>
        </Node>
        <Node pos="r" depth="1" NCoef="0" IVar="11" Cut="1.1931812018156052e-01" cType="1" res="1.4758644998073578e-01" rms="4.2140629887580872e-01" purity="6.9870996475219727e-01" nType="0">
          <Node pos="l" depth="2" NCoef="0" IVar="-1" Cut="0.0000000000000000e+00" cType="1" res="3.6688987165689468e-02" rms="4.1119852662086487e-01" purity="7.4010831117630005e-01" nType="-99"/>
          <Node pos="r" depth="2" NCoef="0" IVar="-1" Cut="0.0000000000000000e+00" cType="1" res="-8.8790152221918106e-03" rms="4.3963888287544250e-01" purity="4.2113113403320312e-01" nType="-99"/>
        </Node>
      </Node>
    </BinaryTree>
    <BinaryTree type="DecisionTree" boostWeight="1.0000000000000000e+00" itree="12">
      <Node pos="s" depth="0" NCoef="0" IVar="12" Cut="3.7594601511955261e-01" cType="1" res="2.2336030378937721e-03" rms="4.4175031781196594e-01" purity="5.0307542085647583e-01" nType="0">
        <Node pos="l" depth="1" NCoef="0" IVar="11" Cut="1.7557306587696075e-01" cType="1" res="7.8647628426551819e-02" rms="4.3660396337509155e-01" purity="6.0763680934906006e-01" nType="0">
          <Node pos="l" depth="2" NCoef="0" IVar="-1" Cut="0.0000000000000000e+00" cType="1" res="2.4127595126628876e-02" rms="4.3417856097221375e-01" purity="6.6418212652206421e-01" nType="-99"/>
          <Node pos="r" depth="2" NCoef="0" IVar="-1" Cut="0.0000000000000000e+00" cType="1" res="-4.3504819273948669e-02" rms="3.4982877969741821e-01" purity="1.7877681553363800e-01" nType="-99"/>
        </Node>
        <Node pos="r" depth="1" NCoef="0" IVar="7" Cut="9.3337839841842651e-01" cType="1" res="-8.8186085224151611e-02" rms="4.3058931827545166e-01" purity="3.7934944033622742e-01" nType="0">
          <Node pos="l" depth="2" NCoef="0" IVar="-1" Cut="0.0000000000000000e+00" cType="1" res="-2.5454601272940636e-02" rms="4.2248311638832092e-01" purity="3.3686289191246033e-01" nType="-99"/>
          <Node pos="r" depth="2" NCoef="0" IVar="-1" Cut="0.0000000000000000e+00" cType="1" res="3.5918056964874268e-02" rms="4.1110888123512268e-01" purity="7.4152803421020508e-01" nType="-99"/>
        </Node>
      </Node>
    </BinaryTree>
    <BinaryTree type="DecisionTree" boostWeight="1.0000000000000000e+00" itree="13">
      <Node pos="s" depth="0" NCoef="0" IVar="6" Cut="6.8019926548004150e-01" cType="1" res="2.2993502207100391e-03" rms="4.3693587183952332e-01" purity="5.0427258014678955e-01" nType="0">
        <Node pos="l" depth="1" NCoef="0" IVar="7" Cut="6.2225228548049927e-01" cType="1" res="-4.3921664357185364e-02" rms="4.3555247783660889e-01" purity="4.3533298373222351e-01" nType="0">
          <Node pos="l" depth="2" NCoef="0" IVar="-1" Cut="0.0000000000000000e+00" cType="1" res="-1.8475575372576714e-02" rms="4.2802175879478455e-01" purity="3.7205830216407776e-01" nType="-99"/>
          <Node pos="r" depth="2" NCoef="0" IVar="-1" Cut="0.0000000000000000e+00" cType="1" res="2.4624587967991829e-02" rms="4.2704042792320251e-01" purity="6.7936736345291138e-01" nType="-99"/>
        </Node>
        <Node pos="r" depth="1" NCoef="0" IVar="6" Cut="1.0932513475418091e+00" cType="1" res="1.5050612390041351e-01" rms="4.0739130973815918e-01" purity="7.2532618045806885e-01" nType="0">
          <Node pos="l" depth="2" NCoef="0" IVar="-1" Cut="0.0000000000000000e+00" cType="1" res="1.9288109615445137e-02" rms="4.3357378244400024e-01" purity="6.4847701787948608e-01" nType="-99"/>
          <Node pos="r" depth="2" NCoef="0" IVar="-1" Cut="0.0000000000000000e+00" cType="1" res="5.0482906401157379e-02" rms="3.4823969006538391e-01" purity="8.3766162395477295e-01" nType="-99"/>
        </Node>
      </Node>
    </BinaryTree>
    <BinaryTree type="DecisionTree" boostWeight="1.0000000000000000e+00" itree="14">
      <Node pos="s" depth="0" NCoef="0" IVar="12" Cut="2.1252579987049103e-01" cType="1" res="1.1798419291153550e-03" rms="4.3476131558418274e-01" purity="5.0124156475067139e-01" nType="0">
        <Node pos="l" depth="1" NCoef="0" IVar="11" Cut="1.3603810966014862e-01" cType="1" res="1.6513808071613312e-01" rms="4.0249186754226685e-01" purity="7.1602809429168701e-01" nType="0">
          <Node pos="l" depth="2" NCoef="0" IVar="-1" Cut="0.0000000000000000e+00" cType="1" res="4.4812396168708801e-02" rms="3.8197666406631470e-01" purity="7.9148477315902710e-01" nType="-99"/>
          <Node pos="r" depth="2" NCoef="0" IVar="-1" Cut="0.0000000000000000e+00" cType="1" res="-1.1696570552885532e-02" rms="4.2525628209114075e-01" purity="3.5645675659179688e-01" nType="-99"/>
        </Node>
        <Node pos="r" depth="1" NCoef="0" IVar="7" Cut="4.6668919920921326e-01" cType="1" res="-3.8622669875621796e-02" rms="4.3297344446182251e-01" purity="4.4909989833831787e-01" nType="0">
          <Node pos="l" depth="2" NCoef="0" IVar="-1" Cut="0.0000000000000000e+00" cType="1" res="-2.0157128572463989e-02" rms="4.2242434620857239e-01" purity="3.6296507716178894e-01" nType="-99"/>
          <Node pos="r" depth="2" NCoef="0" IVar="-1" Cut="0.0000000000000000e+00" cType="1" res="1.7610253766179085e-02" rms="4.3176034092903137e-01" purity="6.4185369014739990e-01" nType="-99"/>
        </Node>
      </Node>
    </BinaryTree>
    <BinaryTree type="DecisionTree" boostWeight="1.0000000000000000e+00" itree="15">
      <Node pos="s" depth="0" NCoef="0" IVar="22" Cut="6.1897766590118408e-01" cType="1" res="-5.0836652517318726e-03" rms="4.3308219313621521e-01" purity="4.9730053544044495e-01" nType="0">
        <Node pos="l" depth="1" NCoef="0" IVar="22" Cut="-4.6037718653678894e-01" cType="1" res="-5.4578717797994614e-02" rms="4.2993840575218201e-01" purity="4.2897063493728638e-01" nType="0">
          <Node pos="l" depth="2" NCoef="0" IVar="-1" Cut="0.0000000000000000e+00" cType="1" res="1.7096558585762978e-02" rms="4.2892673611640930e-01" purity="6.0398340225219727e-01" nType="-99"/>
          <Node pos="r" depth="2" NCoef="0" IVar="-1" Cut="0.0000000000000000e+00" cType="1" res="-4.2810145765542984e-02" rms="3.8255688548088074e-01" purity="2.4260190129280090e-01" nType="-99"/>
        </Node>
        <Node pos="r" depth="1" NCoef="0" IVar="9" Cut="6.1975729465484619e-01" cType="1" res="1.1955825239419937e-01" rms="4.1555732488632202e-01" purity="6.6937375068664551e-01" nType="0">
          <Node pos="l" depth="2" NCoef="0" IVar="-1" Cut="0.0000000000000000e+00" cType="1" res="3.4597039222717285e-02" rms="3.9737233519554138e-01" purity="7.1990793943405151e-01" nType="-99"/>
          <Node pos="r" depth="2" NCoef="0" IVar="-1" Cut="0.0000000000000000e+00" cType="1" res="-8.9863920584321022e-04" rms="4.4604688882827759e-01" purity="5.1056700944900513e-01" nType="-99"/>
        </Node>
      </Node>
    </BinaryTree>
    <BinaryTree type="DecisionTree" boostWeight="1.0000000000000000e+00" itree="16">
      <Node pos="s" depth="0" NCoef="0" IVar="6" Cut="7.2962296009063721e-01" cType="1" res="8.2388537703081965e-04" rms="4.2702385783195496e-01" purity="5.0086420774459839e-01" nType="0">
        <Node pos="l" depth="1" NCoef="0" IVar="5" Cut="6.7905217409133911e-01" cType="1" res="-3.6316726356744766e-02" rms="4.2728069424629211e-01" purity="4.3855413794517517e-01" nType="0">
          <Node pos="l" depth="2" NCoef="0" IVar="-1" Cut="0.0000000000000000e+00" cType="1" res="-1.8058879300951958e-02" rms="4.1624435782432556e-01" purity="3.6850717663764954e-01" nType="-99"/>
          <Node pos="r" depth="2" NCoef="0" IVar="-1" Cut="0.0000000000000000e+00" cType="1" res="1.9877208396792412e-02" rms="4.3160378932952881e-01" purity="6.3619154691696167e-01" nType="-99"/>
        </Node>
        <Node pos="r" depth="1" NCoef="0" IVar="12" Cut="4.7818306088447571e-01" cType="1" res="1.4063552021980286e-01" rms="3.9595881104469299e-01" purity="7.3542344570159912e-01" nType="0">
          <Node pos="l" depth="2" NCoef="0" IVar="-1" Cut="0.0000000000000000e+00" cType="1" res="3.9906349033117294e-02" rms="3.6807787418365479e-01" purity="7.9702430963516235e-01" nType="-99"/>
          <Node pos="r" depth="2" NCoef="0" IVar="-1" Cut="0.0000000000000000e+00" cType="1" res="2.1679708734154701e-03" rms="4.4821867346763611e-01" purity="5.4294073581695557e-01" nType="-99"/>
        </Node>
      </Node>
    </BinaryTree>
    <BinaryTree type="DecisionTree" boostWeight="1.0000000000000000e+00" itree="17">
      <Node pos="s" depth="0" NCoef="0" IVar="22" Cut="-7.1425002813339233e-01" cType="1" res="2.1843144204467535e-03" rms="4.2554876208305359e-01" purity="5.0354945659637451e-01" nType="0">
        <Node pos="l" depth="1" NCoef="0" IVar="11" Cut="9.5889627933502197e-02" cType="1" res="1.3317795097827911e-01" rms="4.0642994642257690e-01" purity="6.8914920091629028e-01" nType="0">
          <Node pos="l" depth="2" NCoef="0" IVar="-1" Cut="0.0000000000000000e+00" cType="1" res="3.5889029502868652e-02" rms="3.9666554331779480e-01" purity="7.4610781669616699e-01" nType="-99"/>
          <Node pos="r" depth="2" NCoef="0" IVar="-1" Cut="0.0000000000000000e+00" cType="1" res="-3.6443753633648157e-03" rms="4.1698196530342102e-01" purity="4.2818701267242432e-01" nType="-99"/>
        </Node>
        <Node pos="r" depth="1" NCoef="0" IVar="22" Cut="5.1014506816864014e-01" cType="1" res="-3.8005661219358444e-02" rms="4.2319276928901672e-01" purity="4.4660586118698120e-01" nType="0">
          <Node pos="l" depth="2" NCoef="0" IVar="-1" Cut="0.0000000000000000e+00" cType="1" res="-3.0107034370303154e-02" rms="4.0061414241790771e-01" purity="2.9772523045539856e-01" nType="-99"/>
          <Node pos="r" depth="2" NCoef="0" IVar="-1" Cut="0.0000000000000000e+00" cType="1" res="1.9123101606965065e-02" rms="4.1795229911804199e-01" purity="6.3554716110229492e-01" nType="-99"/>
        </Node>
      </Node>
    </BinaryTree>
    <BinaryTree type="DecisionTree" boostWeight="1.0000000000000000e+00" itree="18">
      <Node pos="s" depth="0" NCoef="0" IVar="3" Cut="2.2598905563354492e+00" cType="1" res="1.0807636426761746e-03" rms="4.2313748598098755e-01" purity="5.0082147121429443e-01" nType="0">
        <Node pos="l" depth="1" NCoef="0" IVar="15" Cut="-5.4472219198942184e-02" cType="1" res="-1.6334768384695053e-02" rms="4.2290300130844116e-01" purity="4.7795215249061584e-01" nType="0">
          <Node pos="l" depth="2" NCoef="0" IVar="-1" Cut="0.0000000000000000e+00" cType="1" res="3.4942392259836197e-02" rms="3.9521411061286926e-01" purity="7.4868959188461304e-01" nType="-99"/>
          <Node pos="r" depth="2" NCoef="0" IVar="-1" Cut="0.0000000000000000e+00" cType="1" res="-9.9212424829602242e-03" rms="4.2026662826538086e-01" purity="4.3479213118553162e-01" nType="-99"/>
        </Node>
        <Node pos="r" depth="1" NCoef="0" IVar="4" Cut="7.6736241579055786e-01" cType="1" res="2.6349794864654541e-01" rms="3.2954725623130798e-01" purity="8.4541600942611694e-01" nType="0">
          <Node pos="l" depth="2" NCoef="0" IVar="-1" Cut="0.0000000000000000e+00" cType="1" res="4.2349688708782196e-02" rms="3.7610852718353271e-01" purity="7.7515417337417603e-01" nType="-99"/>
          <Node pos="r" depth="2" NCoef="0" IVar="-1" Cut="0.0000000000000000e+00" cType="1" res="7.3011383414268494e-02" rms="2.3547096550464630e-01" purity="9.3349391222000122e-01" nType="-99"/>
        </Node>
      </Node>
    </BinaryTree>
    <BinaryTree type="DecisionTree" boostWeight="1.0000000000000000e+00" itree="19">
      <Node pos="s" depth="0" NCoef="0" IVar="9" Cut="6.2776690721511841e-01" cType="1" res="2.7702650986611843e-03" rms="4.2009744048118591e-01" purity="5.0454038381576538e-01" nType="0">
        <Node pos="l" depth="1" NCoef="0" IVar="12" Cut="4.4716402888298035e-01" cType="1" res="4.2392015457153320e-02" rms="4.1810795664787292e-01" purity="5.6135559082031250e-01" nType="0">
          <Node pos="l" depth="2" NCoef="0" IVar="-1" Cut="0.0000000000000000e+00" cType="1" res="1.9422829151153564e-02" rms="4.0977022051811218e-01" purity="6.3456702232360840e-01" nType="-99"/>
          <Node pos="r" depth="2" NCoef="0" IVar="-1" Cut="0.0000000000000000e+00" cType="1" res="-1.4155767858028412e-02" rms="4.1827765107154846e-01" purity="3.8941556215286255e-01" nType="-99"/>
        </Node>
        <Node pos="r" depth="1" NCoef="0" IVar="6" Cut="8.5024905204772949e-01" cType="1" res="-1.1488329619169235e-01" rms="4.0364536643028259e-01" purity="3.3583241701126099e-01" nType="0">
          <Node pos="l" depth="2" NCoef="0" IVar="-1" Cut="0.0000000000000000e+00" cType="1" res="-3.1986352056264877e-02" rms="3.9019265770912170e-01" purity="2.8462171554565430e-01" nType="-99"/>
          <Node pos="r" depth="2" NCoef="0" IVar="-1" Cut="0.0000000000000000e+00" cType="1" res="1.3380534015595913e-02" rms="4.3754139542579651e-01" purity="6.4752393960952759e-01" nType="-99"/>
        </Node>
      </Node>
    </BinaryTree>
    <BinaryTree type="DecisionTree" boostWeight="1.0000000000000000e+00" itree="20">
      <Node pos="s" depth="0" NCoef="0" IVar="22" Cut="-5.2378684282302856e-01" cType="1" res="-7.3684082599356771e-04" rms="4.2087334394454956e-01" purity="5.0070154666900635e-01" nType="0">
        <Node pos="l" depth="1" NCoef="0" IVar="21" Cut="1.0140085220336914e+00" cType="1" res="9.7559586167335510e-02" rms="4.1769704222679138e-01" purity="6.4552009105682373e-01" nType="0">
          <Node pos="l" depth="2" NCoef="0" IVar="-1" Cut="0.0000000000000000e+00" cType="1" res="-2.4212645366787910e-02" rms="4.2139276862144470e-01" purity="4.0037852525711060e-01" nType="-99"/>
          <Node pos="r" depth="2" NCoef="0" IVar="-1" Cut="0.0000000000000000e+00" cType="1" res="2.5781154632568359e-02" rms="4.1203224658966064e-01" purity="6.6851758956909180e-01" nType="-99"/>
        </Node>
        <Node pos="r" depth="1" NCoef="0" IVar="22" Cut="4.1949638724327087e-01" cType="1" res="-5.1338139921426773e-02" rms="4.1348654031753540e-01" purity="4.2615148425102234e-01" nType="0">
          <Node pos="l" depth="2" NCoef="0" IVar="-1" Cut="0.0000000000000000e+00" cType="1" res="-4.3589770793914795e-02" rms="3.5457581281661987e-01" purity="2.0119979977607727e-01" nType="-99"/>
          <Node pos="r" depth="2" NCoef="0" IVar="-1" Cut="0.0000000000000000e+00" cType="1" res="1.3345655985176563e-02" rms="4.2245835065841675e-01" purity="6.0374903678894043e-01" nType="-99"/>
        </Node>
      </Node>
    </BinaryTree>
    <BinaryTree type="DecisionTree" boostWeight="1.0000000000000000e+00" itree="21">
      <Node pos="s" depth="0" NCoef="0" IVar="4" Cut="1.4076896905899048e+00" cType="1" res="-2.1495532710105181e-03" rms="4.1560781002044678e-01" purity="4.9574068188667297e-01" nType="0">
        <Node pos="l" depth="1" NCoef="0" IVar="6" Cut="7.2962296009063721e-01" cType="1" res="-2.4301016703248024e-02" rms="4.1367062926292419e-01" purity="4.6599826216697693e-01" nType="0">
          <Node pos="l" depth="2" NCoef="0" IVar="-1" Cut="0.0000000000000000e+00" cType="1" res="-1.3292474672198296e-02" rms="4.1204339265823364e-01" purity="3.9901992678642273e-01" nType="-99"/>
          <Node pos="r" depth="2" NCoef="0" IVar="-1" Cut="0.0000000000000000e+00" cType="1" res="2.4703394621610641e-02" rms="3.9204698801040649e-01" purity="7.2536647319793701e-01" nType="-99"/>
        </Node>
        <Node pos="r" depth="1" NCoef="0" IVar="12" Cut="3.5776284337043762e-01" cType="1" res="2.0194686949253082e-01" rms="3.7597197294235229e-01" purity="7.6977759599685669e-01" nType="0">
          <Node pos="l" depth="2" NCoef="0" IVar="-1" Cut="0.0000000000000000e+00" cType="1" res="5.7915873825550079e-02" rms="3.0947804450988770e-01" purity="8.7424683570861816e-01" nType="-99"/>
          <Node pos="r" depth="2" NCoef="0" IVar="-1" Cut="0.0000000000000000e+00" cType="1" res="2.5251584127545357e-02" rms="4.3463742733001709e-01" purity="6.3307416439056396e-01" nType="-99"/>
        </Node>
      </Node>
    </BinaryTree>
    <BinaryTree type="DecisionTree" boostWeight="1.0000000000000000e+00" itree="22">
      <Node pos="s" depth="0" NCoef="0" IVar="5" Cut="9.6523249149322510e-01" cType="1" res="-2.0825606770813465e-04" rms="4.1239434480667114e-01" purity="4.9954268336296082e-01" nType="0">
        <Node pos="l" depth="1" NCoef="0" IVar="11" Cut="-4.8031896352767944e-02" cType="1" res="-2.7116224169731140e-02" rms="4.1132274270057678e-01" purity="4.5302146673202515e-01" nType="0">
          <Node pos="l" depth="2" NCoef="0" IVar="-1" Cut="0.0000000000000000e+00" cType="1" res="2.2448403760790825e-02" rms="4.2308074235916138e-01" purity="6.2578928470611572e-01" nType="-99"/>
          <Node pos="r" depth="2" NCoef="0" IVar="-1" Cut="0.0000000000000000e+00" cType="1" res="-1.3789874501526356e-02" rms="4.0151652693748474e-01" purity="4.0842929482460022e-01" nType="-99"/>
        </Node>
        <Node pos="r" depth="1" NCoef="0" IVar="12" Cut="4.5455449819564819e-01" cType="1" res="1.4106149971485138e-01" rms="3.8851633667945862e-01" purity="7.4378407001495361e-01" nType="0">
          <Node pos="l" depth="2" NCoef="0" IVar="-1" Cut="0.0000000000000000e+00" cType="1" res="4.0787864476442337e-02" rms="3.5938045382499695e-01" purity="8.0882495641708374e-01" nType="-99"/>
          <Node pos="r" depth="2" NCoef="0" IVar="-1" Cut="0.0000000000000000e+00" cType="1" res="7.2845709510147572e-03" rms="4.4149780273437500e-01" purity="5.6583791971206665e-01" nType="-99"/>
        </Node>
      </Node>
    </BinaryTree>
    <BinaryTree type="DecisionTree" boostWeight="1.0000000000000000e+00" itree="23">
      <Node pos="s" depth="0" NCoef="0" IVar="11" Cut="9.0738080441951752e-02" cType="1" res="-3.1762623693794012e-03" rms="4.1075640916824341e-01" purity="4.9601584672927856e-01" nType="0">
        <Node pos="l" depth="1" NCoef="0" IVar="12" Cut="3.6202475428581238e-01" cType="1" res="3.3722445368766785e-02" rms="4.2113527655601501e-01" purity="5.7040697336196899e-01" nType="0">
          <Node pos="l" depth="2" NCoef="0" IVar="-1" Cut="0.0000000000000000e+00" cType="1" res="2.3017961531877518e-02" rms="4.0681260824203491e-01" purity="6.9920158386230469e-01" nType="-99"/>
          <Node pos="r" depth="2" NCoef="0" IVar="-1" Cut="0.0000000000000000e+00" cType="1" res="-7.8460536897182465e-03" rms="4.2373842000961304e-01" purity="4.4241657853126526e-01" nType="-99"/>
        </Node>
        <Node pos="r" depth="1" NCoef="0" IVar="18" Cut="7.9826992005109787e-03" cType="1" res="-1.2355464696884155e-01" rms="3.4874093532562256e-01" purity="2.5332242250442505e-01" nType="0">
          <Node pos="l" depth="2" NCoef="0" IVar="-1" Cut="0.0000000000000000e+00" cType="1" res="2.8380891308188438e-03" rms="4.3494218587875366e-01" purity="5.8517670631408691e-01" nType="-99"/>
          <Node pos="r" depth="2" NCoef="0" IVar="-1" Cut="0.0000000000000000e+00" cType="1" res="-4.0036074817180634e-02" rms="3.1098830699920654e-01" purity="1.6282883286476135e-01" nType="-99"/>
        </Node>
      </Node>
    </BinaryTree>
    <BinaryTree type="DecisionTree" boostWeight="1.0000000000000000e+00" itree="24">
      <Node pos="s" depth="0" NCoef="0" IVar="7" Cut="7.7781534194946289e-01" cType="1" res="-1.1212211102247238e-03" rms="4.0960693359375000e-01" purity="4.9795490503311157e-01" nType="0">
        <Node pos="l" depth="1" NCoef="0" IVar="5" Cut="1.1317535638809204e+00" cType="1" res="-2.6290567591786385e-02" rms="4.1024726629257202e-01" purity="4.5336860418319702e-01" nType="0">
          <Node pos="l" depth="2" NCoef="0" IVar="-1" Cut="0.0000000000000000e+00" cType="1" res="-1.1326932348310947e-02" rms="4.0857902169227600e-01" purity="4.1135635972023010e-01" nType="-99"/>
          <Node pos="r" depth="2" NCoef="0" IVar="-1" Cut="0.0000000000000000e+00" cType="1" res="3.2606326043605804e-02" rms="3.8126823306083679e-01" purity="7.6215165853500366e-01" nType="-99"/>
        </Node>
        <Node pos="r" depth="1" NCoef="0" IVar="15" Cut="7.2329738177359104e-03" cType="1" res="1.4313076436519623e-01" rms="3.7460610270500183e-01" purity="7.5349050760269165e-01" nType="0">
          <Node pos="l" depth="2" NCoef="0" IVar="-1" Cut="0.0000000000000000e+00" cType="1" res="4.4589702039957047e-02" rms="3.3587747812271118e-01" purity="8.3347666263580322e-01" nType="-99"/>
          <Node pos="r" depth="2" NCoef="0" IVar="-1" Cut="0.0000000000000000e+00" cType="1" res="1.8074091523885727e-02" rms="4.0564951300621033e-01" purity="6.6196954250335693e-01" nType="-99"/>
        </Node>
      </Node>
    </BinaryTree>
    <BinaryTree type="DecisionTree" boostWeight="1.0000000000000000e+00" itree="25">
      <Node pos="s" depth="0" NCoef="0" IVar="5" Cut="8.6301892995834351e-01" cType="1" res="6.6387199331074953e-04" rms="4.0749320387840271e-01" purity="4.9972417950630188e-01" nType="0">
        <Node pos="l" depth="1" NCoef="0" IVar="12" Cut="2.6825875043869019e-01" cType="1" res="-2.8240514919161797e-02" rms="4.0655183792114258e-01" purity="4.4327113032341003e-01" nType="0">
          <Node pos="l" depth="2" NCoef="0" IVar="-1" Cut="0.0000000000000000e+00" cType="1" res="1.4491125009953976e-02" rms="4.0608218312263489e-01" purity="6.1037176847457886e-01" nType="-99"/>
          <Node pos="r" depth="2" NCoef="0" IVar="-1" Cut="0.0000000000000000e+00" cType="1" res="-1.5458982437849045e-02" rms="4.0045151114463806e-01" purity="3.7287798523902893e-01" nType="-99"/>
        </Node>
        <Node pos="r" depth="1" NCoef="0" IVar="5" Cut="1.5617748498916626e+00" cType="1" res="1.1867664009332657e-01" rms="3.8966825604438782e-01" purity="7.3021435737609863e-01" nType="0">
          <Node pos="l" depth="2" NCoef="0" IVar="-1" Cut="0.0000000000000000e+00" cType="1" res="1.8912984058260918e-02" rms="4.0409743785858154e-01" purity="6.8261814117431641e-01" nType="-99"/>
          <Node pos="r" depth="2" NCoef="0" IVar="-1" Cut="0.0000000000000000e+00" cType="1" res="5.1484175026416779e-02" rms="3.2112666964530945e-01" purity="8.7128406763076782e-01" nType="-99"/>
        </Node>
      </Node>
    </BinaryTree>
    <BinaryTree type="DecisionTree" boostWeight="1.0000000000000000e+00" itree="26">
      <Node pos="s" depth="0" NCoef="0" IVar="15" Cut="-5.2727203816175461e-02" cType="1" res="8.9959200704470277e-04" rms="4.0743437409400940e-01" purity="5.0189471244812012e-01" nType="0">
        <Node pos="l" depth="1" NCoef="0" IVar="12" Cut="4.1374257206916809e-01" cType="1" res="1.3665407896041870e-01" rms="3.7132820487022400e-01" purity="7.6099121570587158e-01" nType="0">
          <Node pos="l" depth="2" NCoef="0" IVar="-1" Cut="0.0000000000000000e+00" cType="1" res="4.1541438549757004e-02" rms="3.3448725938796997e-01" purity="8.3144223690032959e-01" nType="-99"/>
          <Node pos="r" depth="2" NCoef="0" IVar="-1" Cut="0.0000000000000000e+00" cType="1" res="4.5710755512118340e-03" rms="4.4008430838584900e-01" purity="5.6097620725631714e-01" nType="-99"/>
        </Node>
        <Node pos="r" depth="1" NCoef="0" IVar="21" Cut="1.0125726461410522e+00" cType="1" res="-2.4353113025426865e-02" rms="4.0886107087135315e-01" purity="4.5369824767112732e-01" nType="0">
          <Node pos="l" depth="2" NCoef="0" IVar="-1" Cut="0.0000000000000000e+00" cType="1" res="-5.0375845283269882e-02" rms="3.3594313263893127e-01" purity="1.9331166148185730e-01" nType="-99"/>
          <Node pos="r" depth="2" NCoef="0" IVar="-1" Cut="0.0000000000000000e+00" cType="1" res="-1.7243449110537767e-03" rms="4.1045120358467102e-01" purity="4.7671863436698914e-01" nType="-99"/>
        </Node>
      </Node>
    </BinaryTree>
    <BinaryTree type="DecisionTree" boostWeight="1.0000000000000000e+00" itree="27">
      <Node pos="s" depth="0" NCoef="0" IVar="11" Cut="1.2558197975158691e-01" cType="1" res="-5.9717032127082348e-04" rms="4.0567904710769653e-01" purity="4.9880012869834900e-01" nType="0">
        <Node pos="l" depth="1" NCoef="0" IVar="13" Cut="6.5228186547756195e-02" cType="1" res="2.4997550994157791e-02" rms="4.1508793830871582e-01" purity="5.5821883678436279e-01" nType="0">
          <Node pos="l" depth="2" NCoef="0" IVar="-1" Cut="0.0000000000000000e+00" cType="1" res="1.4796821400523186e-02" rms="4.1590443253517151e-01" purity="6.3634705543518066e-01" nType="-99"/>
          <Node pos="r" depth="2" NCoef="0" IVar="-1" Cut="0.0000000000000000e+00" cType="1" res="-1.3792336918413639e-02" rms="4.0028014779090881e-01" purity="3.9525967836380005e-01" nType="-99"/>
        </Node>
        <Node pos="r" depth="1" NCoef="0" IVar="5" Cut="6.0324960947036743e-01" cType="1" res="-1.2690576910972595e-01" rms="3.2753407955169678e-01" purity="2.0557178556919098e-01" nType="0">
          <Node pos="l" depth="2" NCoef="0" IVar="-1" Cut="0.0000000000000000e+00" cType="1" res="-3.9324197918176651e-02" rms="3.0736708641052246e-01" purity="1.5465526282787323e-01" nType="-99"/>
          <Node pos="r" depth="2" NCoef="0" IVar="-1" Cut="0.0000000000000000e+00" cType="1" res="-5.5921836756169796e-03" rms="3.8576385378837585e-01" purity="4.2288637161254883e-01" nType="-99"/>
        </Node>
      </Node>
    </BinaryTree>
    <BinaryTree type="DecisionTree" boostWeight="1.0000000000000000e+00" itree="28">
      <Node pos="s" depth="0" NCoef="0" IVar="7" Cut="5.1192921400070190e-01" cType="1" res="-2.1390905603766441e-03" rms="4.0430173277854919e-01" purity="4.9576598405838013e-01" nType="0">
        <Node pos="l" depth="1" NCoef="0" IVar="4" Cut="1.7691736221313477e+00" cType="1" res="-3.5981837660074234e-02" rms="4.0315940976142883e-01" purity="4.2538955807685852e-01" nType="0">
          <Node pos="l" depth="2" NCoef="0" IVar="-1" Cut="0.0000000000000000e+00" cType="1" res="-1.2140054255723953e-02" rms="4.0041461586952209e-01" purity="4.0206637978553772e-01" nType="-99"/>
          <Node pos="r" depth="2" NCoef="0" IVar="-1" Cut="0.0000000000000000e+00" cType="1" res="5.0146974623203278e-02" rms="3.5441225767135620e-01" purity="8.1430983543395996e-01" nType="-99"/>
        </Node>
        <Node pos="r" depth="1" NCoef="0" IVar="9" Cut="4.5626801252365112e-01" cType="1" res="8.8985793292522430e-02" rms="3.9313581585884094e-01" purity="6.8526124954223633e-01" nType="0">
          <Node pos="l" depth="2" NCoef="0" IVar="-1" Cut="0.0000000000000000e+00" cType="1" res="3.1728256493806839e-02" rms="3.6450871825218201e-01" purity="7.6347029209136963e-01" nType="-99"/>
          <Node pos="r" depth="2" NCoef="0" IVar="-1" Cut="0.0000000000000000e+00" cType="1" res="3.5925977863371372e-03" rms="4.2354235053062439e-01" purity="5.6416535377502441e-01" nType="-99"/>
        </Node>
      </Node>
    </BinaryTree>
    <BinaryTree type="DecisionTree" boostWeight="1.0000000000000000e+00" itree="29">
      <Node pos="s" depth="0" NCoef="0" IVar="6" Cut="8.5024905204772949e-01" cType="1" res="-5.5883345194160938e-03" rms="4.0310066938400269e-01" purity="4.9388268589973450e-01" nType="0">
        <Node pos="l" depth="1" NCoef="0" IVar="22" Cut="-6.1905455589294434e-01" cType="1" res="-3.0198156833648682e-02" rms="4.0503093600273132e-01" purity="4.4167971611022949e-01" nType="0">
          <Node pos="l" depth="2" NCoef="0" IVar="-1" Cut="0.0000000000000000e+00" cType="1" res="1.4094747602939606e-02" rms="4.1432476043701172e-01" purity="6.1014199256896973e-01" nType="-99"/>
          <Node pos="r" depth="2" NCoef="0" IVar="-1" Cut="0.0000000000000000e+00" cType="1" res="-1.5455990098416805e-02" rms="3.9568018913269043e-01" purity="3.7637439370155334e-01" nType="-99"/>
        </Node>
        <Node pos="r" depth="1" NCoef="0" IVar="6" Cut="1.3688058853149414e+00" cType="1" res="1.2380997836589813e-01" rms="3.6655116081237793e-01" purity="7.6836550235748291e-01" nType="0">
          <Node pos="l" depth="2" NCoef="0" IVar="-1" Cut="0.0000000000000000e+00" cType="1" res="2.0078467205166817e-02" rms="3.9007857441902161e-01" purity="7.1519672870635986e-01" nType="-99"/>
          <Node pos="r" depth="2" NCoef="0" IVar="-1" Cut="0.0000000000000000e+00" cType="1" res="4.8592753708362579e-02" rms="2.9708927869796753e-01" purity="8.7923675775527954e-01" nType="-99"/>
        </Node>
      </Node>
    </BinaryTree>
    <BinaryTree type="DecisionTree" boostWeight="1.0000000000000000e+00" itree="30">
      <Node pos="s" depth="0" NCoef="0" IVar="3" Cut="2.3815636634826660e+00" cType="1" res="2.8857339639216661e-03" rms="3.9885351061820984e-01" purity="5.0233352184295654e-01" nType="0">
        <Node pos="l" depth="1" NCoef="0" IVar="18" Cut="9.8864287137985229e-03" cType="1" res="-1.1709019541740417e-02" rms="4.0010544657707214e-01" purity="4.7934898734092712e-01" nType="0">
          <Node pos="l" depth="2" NCoef="0" IVar="-1" Cut="0.0000000000000000e+00" cType="1" res="1.1823508888483047e-02" rms="4.1577517986297607e-01" purity="6.7483437061309814e-01" nType="-99"/>
          <Node pos="r" depth="2" NCoef="0" IVar="-1" Cut="0.0000000000000000e+00" cType="1" res="-1.6849316656589508e-02" rms="3.7627431750297546e-01" purity="3.0302897095680237e-01" nType="-99"/>
        </Node>
        <Node pos="r" depth="1" NCoef="0" IVar="5" Cut="3.4493622183799744e-01" cType="1" res="2.3179338872432709e-01" rms="2.9606857895851135e-01" purity="8.6282879114151001e-01" nType="0">
          <Node pos="l" depth="2" NCoef="0" IVar="-1" Cut="0.0000000000000000e+00" cType="1" res="3.8010377436876297e-02" rms="3.5206708312034607e-01" purity="7.7394574880599976e-01" nType="-99"/>
          <Node pos="r" depth="2" NCoef="0" IVar="-1" Cut="0.0000000000000000e+00" cType="1" res="6.6347599029541016e-02" rms="2.2384518384933472e-01" purity="9.3949103355407715e-01" nType="-99"/>
        </Node>
      </Node>
    </BinaryTree>
    <BinaryTree type="DecisionTree" boostWeight="1.0000000000000000e+00" itree="31">
      <Node pos="s" depth="0" NCoef="0" IVar="22" Cut="7.1423172950744629e-01" cType="1" res="5.6766327470541000e-03" rms="4.0046939253807068e-01" purity="5.0511753559112549e-01" nType="0">
        <Node pos="l" depth="1" NCoef="0" IVar="22" Cut="-4.2857787013053894e-01" cType="1" res="-2.3104971274733543e-02" rms="3.9864581823348999e-01" purity="4.5029839873313904e-01" nType="0">
          <Node pos="l" depth="2" NCoef="0" IVar="-1" Cut="0.0000000000000000e+00" cType="1" res="1.5809623524546623e-02" rms="4.0317010879516602e-01" purity="6.1605864763259888e-01" nType="-99"/>
          <Node pos="r" depth="2" NCoef="0" IVar="-1" Cut="0.0000000000000000e+00" cType="1" res="-2.6410680264234543e-02" rms="3.7414839863777161e-01" purity="2.9145064949989319e-01" nType="-99"/>
        </Node>
        <Node pos="r" depth="1" NCoef="0" IVar="21" Cut="1.0154551267623901e+00" cType="1" res="1.0431441664695740e-01" rms="3.9089837670326233e-01" purity="6.9298875331878662e-01" nType="0">
          <Node pos="l" depth="2" NCoef="0" IVar="-1" Cut="0.0000000000000000e+00" cType="1" res="-8.8521055877208710e-03" rms="4.1726219654083252e-01" purity="5.0183922052383423e-01" nType="-99"/>
          <Node pos="r" depth="2" NCoef="0" IVar="-1" Cut="0.0000000000000000e+00" cType="1" res="2.9083324596285820e-02" rms="3.8316199183464050e-01" purity="7.1884667873382568e-01" nType="-99"/>
        </Node>
      </Node>
    </BinaryTree>
    <BinaryTree type="DecisionTree" boostWeight="1.0000000000000000e+00" itree="32">
      <Node pos="s" depth="0" NCoef="0" IVar="22" Cut="5.2374720573425293e-01" cType="1" res="3.2058127690106630e-03" rms="3.9710399508476257e-01" purity="5.0215607881546021e-01" nType="0">
        <Node pos="l" depth="1" NCoef="0" IVar="22" Cut="-3.4695887565612793e-01" cType="1" res="-3.4462142735719681e-02" rms="3.9227864146232605e-01" purity="4.2795589566230774e-01" nType="0">
          <Node pos="l" depth="2" NCoef="0" IVar="-1" Cut="0.0000000000000000e+00" cType="1" res="1.0732959955930710e-02" rms="4.0419882535934448e-01" purity="5.8304584026336670e-01" nType="-99"/>
          <Node pos="r" depth="2" NCoef="0" IVar="-1" Cut="0.0000000000000000e+00" cType="1" res="-3.9595499634742737e-02" rms="3.3649334311485291e-01" purity="1.8520121276378632e-01" nType="-99"/>
        </Node>
        <Node pos="r" depth="1" NCoef="0" IVar="11" Cut="1.2761589884757996e-01" cType="1" res="8.0148585140705109e-02" rms="3.9579501748085022e-01" purity="6.5372163057327271e-01" nType="0">
          <Node pos="l" depth="2" NCoef="0" IVar="-1" Cut="0.0000000000000000e+00" cType="1" res="2.4118229746818542e-02" rms="3.9332988858222961e-01" purity="7.0595467090606689e-01" nType="-99"/>
          <Node pos="r" depth="2" NCoef="0" IVar="-1" Cut="0.0000000000000000e+00" cType="1" res="-1.6683533787727356e-02" rms="3.7910684943199158e-01" purity="3.2106423377990723e-01" nType="-99"/>
        </Node>
      </Node>
    </BinaryTree>
    <BinaryTree type="DecisionTree" boostWeight="1.0000000000000000e+00" itree="33">
      <Node pos="s" depth="0" NCoef="0" IVar="12" Cut="3.1328833103179932e-01" cType="1" res="1.5302979154512286e-03" rms="3.9445185661315918e-01" purity="5.0219655036926270e-01" nType="0">
        <Node pos="l" depth="1" NCoef="0" IVar="11" Cut="1.6410464048385620e-01" cType="1" res="6.6073551774024963e-02" rms="3.8513851165771484e-01" purity="6.4279627799987793e-01" nType="0">
          <Node pos="l" depth="2" NCoef="0" IVar="-1" Cut="0.0000000000000000e+00" cType="1" res="2.1824685856699944e-02" rms="3.8666504621505737e-01" purity="7.1045440435409546e-01" nType="-99"/>
          <Node pos="r" depth="2" NCoef="0" IVar="-1" Cut="0.0000000000000000e+00" cType="1" res="-2.8337467461824417e-02" rms="3.2684719562530518e-01" purity="1.9214068353176117e-01" nType="-99"/>
        </Node>
        <Node pos="r" depth="1" NCoef="0" IVar="6" Cut="5.1014941930770874e-01" cType="1" res="-4.1530966758728027e-02" rms="3.9471855759620667e-01" purity="4.0839275717735291e-01" nType="0">
          <Node pos="l" depth="2" NCoef="0" IVar="-1" Cut="0.0000000000000000e+00" cType="1" res="-2.0016945898532867e-02" rms="3.8207542896270752e-01" purity="3.1725263595581055e-01" nType="-99"/>
          <Node pos="r" depth="2" NCoef="0" IVar="-1" Cut="0.0000000000000000e+00" cType="1" res="9.8026311025023460e-03" rms="4.0701180696487427e-01" purity="5.9676229953765869e-01" nType="-99"/>
        </Node>
      </Node>
    </BinaryTree>
    <BinaryTree type="DecisionTree" boostWeight="1.0000000000000000e+00" itree="34">
      <Node pos="s" depth="0" NCoef="0" IVar="9" Cut="6.2479960918426514e-01" cType="1" res="-2.0091589540243149e-03" rms="3.9432433247566223e-01" purity="4.9757695198059082e-01" nType="0">
        <Node pos="l" depth="1" NCoef="0" IVar="22" Cut="7.1420061588287354e-01" cType="1" res="2.7495469897985458e-02" rms="3.9476469159126282e-01" purity="5.5279028415679932e-01" nType="0">
          <Node pos="l" depth="2" NCoef="0" IVar="-1" Cut="0.0000000000000000e+00" cType="1" res="5.3874560398980975e-04" rms="3.9789018034934998e-01" purity="4.9634411931037903e-01" nType="-99"/>
          <Node pos="r" depth="2" NCoef="0" IVar="-1" Cut="0.0000000000000000e+00" cType="1" res="2.6515966281294823e-02" rms="3.7329787015914917e-01" purity="7.3328793048858643e-01" nType="-99"/>
        </Node>
        <Node pos="r" depth="1" NCoef="0" IVar="15" Cut="-3.7988495081663132e-02" cType="1" res="-8.3729229867458344e-02" rms="3.8136592507362366e-01" purity="3.4465050697326660e-01" nType="0">
          <Node pos="l" depth="2" NCoef="0" IVar="-1" Cut="0.0000000000000000e+00" cType="1" res="1.2828138656914234e-02" rms="4.0118649601936340e-01" purity="6.3144499063491821e-01" nType="-99"/>
          <Node pos="r" depth="2" NCoef="0" IVar="-1" Cut="0.0000000000000000e+00" cType="1" res="-2.7665244415402412e-02" rms="3.7053620815277100e-01" purity="2.8481733798980713e-01" nType="-99"/>
        </Node>
      </Node>
    </BinaryTree>
    <BinaryTree type="DecisionTree" boostWeight="1.0000000000000000e+00" itree="35">
      <Node pos="s" depth="0" NCoef="0" IVar="4" Cut="1.2518231868743896e+00" cType="1" res="-1.4349658740684390e-03" rms="3.9465814828872681e-01" purity="4.9941483139991760e-01" nType="0">
        <Node pos="l" depth="1" NCoef="0" IVar="6" Cut="9.6118277311325073e-01" cType="1" res="-2.0009739324450493e-02" rms="3.9351516962051392e-01" purity="4.6610906720161438e-01" nType="0">
          <Node pos="l" depth="2" NCoef="0" IVar="-1" Cut="0.0000000000000000e+00" cType="1" res="-9.4379438087344170e-03" rms="3.9440482854843140e-01" purity="4.2011272907257080e-01" nType="-99"/>
          <Node pos="r" depth="2" NCoef="0" IVar="-1" Cut="0.0000000000000000e+00" cType="1" res="2.7048537507653236e-02" rms="3.6197504401206970e-01" purity="7.8175848722457886e-01" nType="-99"/>
        </Node>
        <Node pos="r" depth="1" NCoef="0" IVar="4" Cut="2.0121996402740479e+00" cType="1" res="1.2024265527725220e-01" rms="3.8025081157684326e-01" purity="7.1759063005447388e-01" nType="0">
          <Node pos="l" depth="2" NCoef="0" IVar="-1" Cut="0.0000000000000000e+00" cType="1" res="1.8546424806118011e-02" rms="3.9394107460975647e-01" purity="6.6269773244857788e-01" nType="-99"/>
          <Node pos="r" depth="2" NCoef="0" IVar="-1" Cut="0.0000000000000000e+00" cType="1" res="5.2960433065891266e-02" rms="3.1840211153030396e-01" purity="8.6061400175094604e-01" nType="-99"/>
        </Node>
      </Node>
    </BinaryTree>
    <BinaryTree type="DecisionTree" boostWeight="1.0000000000000000e+00" itree="36">
      <Node pos="s" depth="0" NCoef="0" IVar="7" Cut="9.0256798267364502e-01" cType="1" res="-7.4844300979748368e-04" rms="3.9102348685264587e-01" purity="4.9839556217193604e-01" nType="0">
        <Node pos="l" depth="1" NCoef="0" IVar="12" Cut="1.8797300755977631e-01" cType="1" res="-1.7842160537838936e-02" rms="3.9299893379211426e-01" purity="4.6292921900749207e-01" nType="0">
          <Node pos="l" depth="2" NCoef="0" IVar="-1" Cut="0.0000000000000000e+00" cType="1" res="2.5073992088437080e-02" rms="3.6771458387374878e-01" purity="7.0257306098937988e-01" nType="-99"/>
          <Node pos="r" depth="2" NCoef="0" IVar="-1" Cut="0.0000000000000000e+00" cType="1" res="-9.5565067604184151e-03" rms="3.9356207847595215e-01" purity="4.2003625631332397e-01" nType="-99"/>
        </Node>
        <Node pos="r" depth="1" NCoef="0" IVar="12" Cut="4.5505502820014954e-01" cType="1" res="1.4096972346305847e-01" rms="3.4285879135131836e-01" purity="7.9243439435958862e-01" nType="0">
          <Node pos="l" depth="2" NCoef="0" IVar="-1" Cut="0.0000000000000000e+00" cType="1" res="4.4090289622545242e-02" rms="3.0258232355117798e-01" purity="8.5423332452774048e-01" nType="-99"/>
          <Node pos="r" depth="2" NCoef="0" IVar="-1" Cut="0.0000000000000000e+00" cType="1" res="1.3214780949056149e-02" rms="4.1116905212402344e-01" purity="6.4672362804412842e-01" nType="-99"/>
        </Node>
      </Node>
    </BinaryTree>
    <BinaryTree type="DecisionTree" boostWeight="1.0000000000000000e+00" itree="37">
      <Node pos="s" depth="0" NCoef="0" IVar="11" Cut="6.1216574162244797e-02" cType="1" res="1.8150217365473509e-03" rms="3.9142662286758423e-01" purity="5.0264191627502441e-01" nType="0">
        <Node pos="l" depth="1" NCoef="0" IVar="21" Cut="1.0140019655227661e+00" cType="1" res="3.3534884452819824e-02" rms="4.0388414263725281e-01" purity="5.8217108249664307e-01" nType="0">
          <Node pos="l" depth="2" NCoef="0" IVar="-1" Cut="0.0000000000000000e+00" cType="1" res="-2.9694342985749245e-02" rms="3.8399034738540649e-01" purity="3.3195438981056213e-01" nType="-99"/>
          <Node pos="r" depth="2" NCoef="0" IVar="-1" Cut="0.0000000000000000e+00" cType="1" res="1.1827084235846996e-02" rms="4.0230751037597656e-01" purity="6.0763680934906006e-01" nType="-99"/>
        </Node>
        <Node pos="r" depth="1" NCoef="0" IVar="5" Cut="1.0787737369537354e+00" cType="1" res="-6.5681926906108856e-02" rms="3.5416868329048157e-01" purity="3.3341103792190552e-01" nType="0">
          <Node pos="l" depth="2" NCoef="0" IVar="-1" Cut="0.0000000000000000e+00" cType="1" res="-2.3551071062684059e-02" rms="3.4716144204139709e-01" purity="2.8313192725181580e-01" nType="-99"/>
          <Node pos="r" depth="2" NCoef="0" IVar="-1" Cut="0.0000000000000000e+00" cType="1" res="3.2088242471218109e-02" rms="3.5133767127990723e-01" purity="7.5891858339309692e-01" nType="-99"/>
        </Node>
      </Node>
    </BinaryTree>
    <BinaryTree type="DecisionTree" boostWeight="1.0000000000000000e+00" itree="38">
      <Node pos="s" depth="0" NCoef="0" IVar="9" Cut="5.4079830646514893e-01" cType="1" res="-1.0971270967274904e-03" rms="3.9020177721977234e-01" purity="4.9994343519210815e-01" nType="0">
        <Node pos="l" depth="1" NCoef="0" IVar="12" Cut="5.3131449222564697e-01" cType="1" res="3.4687008708715439e-02" rms="3.8996917009353638e-01" purity="5.7187533378601074e-01" nType="0">
          <Node pos="l" depth="2" NCoef="0" IVar="-1" Cut="0.0000000000000000e+00" cType="1" res="1.3852953910827637e-02" rms="3.8681122660636902e-01" purity="6.1955958604812622e-01" nType="-99"/>
          <Node pos="r" depth="2" NCoef="0" IVar="-1" Cut="0.0000000000000000e+00" cType="1" res="-1.7164899036288261e-02" rms="3.8811925053596497e-01" purity="3.4039679169654846e-01" nType="-99"/>
        </Node>
        <Node pos="r" depth="1" NCoef="0" IVar="21" Cut="1.0140280723571777e+00" cType="1" res="-6.9035343825817108e-02" rms="3.8151705265045166e-01" purity="3.6337664723396301e-01" nType="0">
          <Node pos="l" depth="2" NCoef="0" IVar="-1" Cut="0.0000000000000000e+00" cType="1" res="-5.4686129093170166e-02" rms="2.7547824382781982e-01" purity="1.2509676814079285e-01" nType="-99"/>
          <Node pos="r" depth="2" NCoef="0" IVar="-1" Cut="0.0000000000000000e+00" cType="1" res="-1.2008206918835640e-02" rms="3.9044883847236633e-01" purity="3.9785176515579224e-01" nType="-99"/>
        </Node>
      </Node>
    </BinaryTree>
    <BinaryTree type="DecisionTree" boostWeight="1.0000000000000000e+00" itree="39">
      <Node pos="s" depth="0" NCoef="0" IVar="7" Cut="3.0203109979629517e-01" cType="1" res="4.9000340513885021e-03" rms="3.8784927129745483e-01" purity="5.0524461269378662e-01" nType="0">
        <Node pos="l" depth="1" NCoef="0" IVar="11" Cut="-8.8838659226894379e-02" cType="1" res="-3.2646708190441132e-02" rms="3.8298147916793823e-01" purity="4.1676649451255798e-01" nType="0">
          <Node pos="l" depth="2" NCoef="0" IVar="-1" Cut="0.0000000000000000e+00" cType="1" res="2.6696546003222466e-02" rms="4.0972885489463806e-01" purity="6.6831862926483154e-01" nType="-99"/>
          <Node pos="r" depth="2" NCoef="0" IVar="-1" Cut="0.0000000000000000e+00" cType="1" res="-1.3164194300770760e-02" rms="3.7508958578109741e-01" purity="3.8389194011688232e-01" nType="-99"/>
        </Node>
        <Node pos="r" depth="1" NCoef="0" IVar="21" Cut="1.0254291296005249e+00" cType="1" res="5.6657020002603531e-02" rms="3.8855797052383423e-01" purity="6.2720888853073120e-01" nType="0">
          <Node pos="l" depth="2" NCoef="0" IVar="-1" Cut="0.0000000000000000e+00" cType="1" res="1.8557123839855194e-02" rms="3.8225668668746948e-01" purity="6.5271741151809692e-01" nType="-99"/>
          <Node pos="r" depth="2" NCoef="0" IVar="-1" Cut="0.0000000000000000e+00" cType="1" res="-1.9825777038931847e-02" rms="4.0412357449531555e-01" purity="4.4638517498970032e-01" nType="-99"/>
        </Node>
      </Node>
    </BinaryTree>
    <BinaryTree type="DecisionTree" boostWeight="1.0000000000000000e+00" itree="40">
      <Node pos="s" depth="0" NCoef="0" IVar="22" Cut="-8.0952298641204834e-01" cType="1" res="1.1643739417195320e-03" rms="3.8702625036239624e-01" purity="5.0103026628494263e-01" nType="0">
        <Node pos="l" depth="1" NCoef="0" IVar="12" Cut="4.5416674017906189e-01" cType="1" res="1.0294134169816971e-01" rms="3.7725412845611572e-01" purity="7.1351200342178345e-01" nType="0">
          <Node pos="l" depth="2" NCoef="0" IVar="-1" Cut="0.0000000000000000e+00" cType="1" res="3.1814776360988617e-02" rms="3.5904529690742493e-01" purity="7.7442336082458496e-01" nType="-99"/>
          <Node pos="r" depth="2" NCoef="0" IVar="-1" Cut="0.0000000000000000e+00" cType="1" res="8.5307648405432701e-03" rms="4.1606944799423218e-01" purity="5.4661691188812256e-01" nType="-99"/>
        </Node>
        <Node pos="r" depth="1" NCoef="0" IVar="22" Cut="3.9682281017303467e-01" cType="1" res="-1.9135741516947746e-02" rms="3.8574707508087158e-01" purity="4.5864933729171753e-01" nType="0">
          <Node pos="l" depth="2" NCoef="0" IVar="-1" Cut="0.0000000000000000e+00" cType="1" res="-1.9904866814613342e-02" rms="3.7046137452125549e-01" purity="3.3227080106735229e-01" nType="-99"/>
          <Node pos="r" depth="2" NCoef="0" IVar="-1" Cut="0.0000000000000000e+00" cType="1" res="1.2954819016158581e-02" rms="3.9145997166633606e-01" purity="6.1089622974395752e-01" nType="-99"/>
        </Node>
      </Node>
    </BinaryTree>
    <BinaryTree type="DecisionTree" boostWeight="1.0000000000000000e+00" itree="41">
      <Node pos="s" depth="0" NCoef="0" IVar="5" Cut="1.0787737369537354e+00" cType="1" res="-1.0371718090027571e-03" rms="3.8500347733497620e-01" purity="5.0075924396514893e-01" nType="0">
        <Node pos="l" depth="1" NCoef="0" IVar="6" Cut="9.8215007781982422e-01" cType="1" res="-1.8141569569706917e-02" rms="3.8652390241622925e-01" purity="4.5786416530609131e-01" nType="0">
          <Node pos="l" depth="2" NCoef="0" IVar="-1" Cut="0.0000000000000000e+00" cType="1" res="-8.9467121288180351e-03" rms="3.8735911250114441e-01" purity="4.1136249899864197e-01" nType="-99"/>
          <Node pos="r" depth="2" NCoef="0" IVar="-1" Cut="0.0000000000000000e+00" cType="1" res="2.7816314250230789e-02" rms="3.5528081655502319e-01" purity="7.9030418395996094e-01" nType="-99"/>
        </Node>
        <Node pos="r" depth="1" NCoef="0" IVar="5" Cut="1.7369011640548706e+00" cType="1" res="1.1362339556217194e-01" rms="3.5391488671302795e-01" purity="7.8830933570861816e-01" nType="0">
          <Node pos="l" depth="2" NCoef="0" IVar="-1" Cut="0.0000000000000000e+00" cType="1" res="2.0712282508611679e-02" rms="3.7030065059661865e-01" purity="7.4581956863403320e-01" nType="-99"/>
          <Node pos="r" depth="2" NCoef="0" IVar="-1" Cut="0.0000000000000000e+00" cType="1" res="5.1429498940706253e-02" rms="2.8906148672103882e-01" purity="9.0245330333709717e-01" nType="-99"/>
        </Node>
      </Node>
    </BinaryTree>
    <BinaryTree type="DecisionTree" boostWeight="1.0000000000000000e+00" itree="42">
      <Node pos="s" depth="0" NCoef="0" IVar="15" Cut="-6.1147633939981461e-02" cType="1" res="1.0502780787646770e-03" rms="3.8338690996170044e-01" purity="4.9944531917572021e-01" nType="0">
        <Node pos="l" depth="1" NCoef="0" IVar="18" Cut="1.5813972800970078e-02" cType="1" res="1.2091020494699478e-01" rms="3.3810952305793762e-01" purity="7.9205125570297241e-01" nType="0">
          <Node pos="l" depth="2" NCoef="0" IVar="-1" Cut="0.0000000000000000e+00" cType="1" res="2.3039588704705238e-02" rms="3.4807151556015015e-01" purity="7.7690452337265015e-01" nType="-99"/>
          <Node pos="r" depth="2" NCoef="0" IVar="-1" Cut="0.0000000000000000e+00" cType="1" res="5.5116578936576843e-02" rms="2.7966493368148804e-01" purity="8.4167760610580444e-01" nType="-99"/>
        </Node>
        <Node pos="r" depth="1" NCoef="0" IVar="3" Cut="2.3747236728668213e+00" cType="1" res="-1.6301076859235764e-02" rms="3.8643729686737061e-01" purity="4.5708665251731873e-01" nType="0">
          <Node pos="l" depth="2" NCoef="0" IVar="-1" Cut="0.0000000000000000e+00" cType="1" res="-6.7803380079567432e-03" rms="3.8712006807327271e-01" purity="4.3540674448013306e-01" nType="-99"/>
          <Node pos="r" depth="2" NCoef="0" IVar="-1" Cut="0.0000000000000000e+00" cType="1" res="3.9654862135648727e-02" rms="3.2637777924537659e-01" purity="8.2095611095428467e-01" nType="-99"/>
        </Node>
      </Node>
    </BinaryTree>
    <BinaryTree type="DecisionTree" boostWeight="1.0000000000000000e+00" itree="43">
      <Node pos="s" depth="0" NCoef="0" IVar="22" Cut="-5.2382588386535645e-01" cType="1" res="-1.9205353455618024e-03" rms="3.8533979654312134e-01" purity="4.9798119068145752e-01" nType="0">
        <Node pos="l" depth="1" NCoef="0" IVar="4" Cut="6.1737972497940063e-01" cType="1" res="5.8237090706825256e-02" rms="3.9553397893905640e-01" purity="6.3707244396209717e-01" nType="0">
          <Node pos="l" depth="2" NCoef="0" IVar="-1" Cut="0.0000000000000000e+00" cType="1" res="5.2483663894236088e-03" rms="4.0493330359458923e-01" purity="5.8073705434799194e-01" nType="-99"/>
          <Node pos="r" depth="2" NCoef="0" IVar="-1" Cut="0.0000000000000000e+00" cType="1" res="2.9161617159843445e-02" rms="3.7124061584472656e-01" purity="7.3106402158737183e-01" nType="-99"/>
        </Node>
        <Node pos="r" depth="1" NCoef="0" IVar="22" Cut="3.4697601199150085e-01" cType="1" res="-3.2297533005475998e-02" rms="3.7645310163497925e-01" purity="4.2774611711502075e-01" nType="0">
          <Node pos="l" depth="2" NCoef="0" IVar="-1" Cut="0.0000000000000000e+00" cType="1" res="-3.7352629005908966e-02" rms="3.1915590167045593e-01" purity="1.7869374155998230e-01" nType="-99"/>
          <Node pos="r" depth="2" NCoef="0" IVar="-1" Cut="0.0000000000000000e+00" cType="1" res="9.4124088063836098e-03" rms="3.9393138885498047e-01" purity="5.9012901782989502e-01" nType="-99"/>
        </Node>
      </Node>
    </BinaryTree>
    <BinaryTree type="DecisionTree" boostWeight="1.0000000000000000e+00" itree="44">
      <Node pos="s" depth="0" NCoef="0" IVar="21" Cut="1.0154296159744263e+00" cType="1" res="2.2279955446720123e-03" rms="3.8385471701622009e-01" purity="5.0083583593368530e-01" nType="0">
        <Node pos="l" depth="1" NCoef="0" IVar="21" Cut="1.0116201639175415e+00" cType="1" res="-1.0281861573457718e-01" rms="3.5341668128967285e-01" purity="3.1260034441947937e-01" nType="0">
          <Node pos="l" depth="2" NCoef="0" IVar="-1" Cut="0.0000000000000000e+00" cType="1" res="-4.3172761797904968e-02" rms="3.2514363527297974e-01" purity="1.9917665421962738e-01" nType="-99"/>
          <Node pos="r" depth="2" NCoef="0" IVar="-1" Cut="0.0000000000000000e+00" cType="1" res="-1.4013728126883507e-02" rms="3.6708053946495056e-01" purity="4.0225121378898621e-01" nType="-99"/>
        </Node>
        <Node pos="r" depth="1" NCoef="0" IVar="21" Cut="1.0260449647903442e+00" cType="1" res="1.9378073513507843e-02" rms="3.8589185476303101e-01" purity="5.3156751394271851e-01" nType="0">
          <Node pos="l" depth="2" NCoef="0" IVar="-1" Cut="0.0000000000000000e+00" cType="1" res="9.3582924455404282e-03" rms="3.8482853770256042e-01" purity="5.6018060445785522e-01" nType="-99"/>
          <Node pos="r" depth="2" NCoef="0" IVar="-1" Cut="0.0000000000000000e+00" cType="1" res="-2.3752858862280846e-02" rms="3.7328213453292847e-01" purity="3.5045468807220459e-01" nType="-99"/>
        </Node>
      </Node>
    </BinaryTree>
    <BinaryTree type="DecisionTree" boostWeight="1.0000000000000000e+00" itree="45">
      <Node pos="s" depth="0" NCoef="0" IVar="8" Cut="4.2002677917480469e-01" cType="1" res="-2.5010860990732908e-03" rms="3.8266968727111816e-01" purity="4.9932554364204407e-01" nType="0">
        <Node pos="l" depth="1" NCoef="0" IVar="3" Cut="2.3747236728668213e+00" cType="1" res="-2.0513283088803291e-02" rms="3.7975111603736877e-01" purity="4.7439542412757874e-01" nType="0">
          <Node pos="l" depth="2" NCoef="0" IVar="-1" Cut="0.0000000000000000e+00" cType="1" res="-8.2959290593862534e-03" rms="3.8169115781784058e-01" purity="4.4884315133094788e-01" nType="-99"/>
          <Node pos="r" depth="2" NCoef="0" IVar="-1" Cut="0.0000000000000000e+00" cType="1" res="4.2381066828966141e-02" rms="2.9450723528862000e-01" purity="8.6248522996902466e-01" nType="-99"/>
        </Node>
        <Node pos="r" depth="1" NCoef="0" IVar="11" Cut="9.3313239514827728e-02" cType="1" res="9.2903621494770050e-02" rms="3.8392925262451172e-01" purity="6.3137197494506836e-01" nType="0">
          <Node pos="l" depth="2" NCoef="0" IVar="-1" Cut="0.0000000000000000e+00" cType="1" res="3.0310394242405891e-02" rms="3.7715923786163330e-01" purity="7.0987069606781006e-01" nType="-99"/>
          <Node pos="r" depth="2" NCoef="0" IVar="-1" Cut="0.0000000000000000e+00" cType="1" res="-8.8209090754389763e-03" rms="3.8247412443161011e-01" purity="3.3872243762016296e-01" nType="-99"/>
        </Node>
      </Node>
    </BinaryTree>
    <BinaryTree type="DecisionTree" boostWeight="1.0000000000000000e+00" itree="46">
      <Node pos="s" depth="0" NCoef="0" IVar="7" Cut="7.7781534194946289e-01" cType="1" res="3.4981782082468271e-03" rms="3.8099810481071472e-01" purity="5.0320768356323242e-01" nType="0">
        <Node pos="l" depth="1" NCoef="0" IVar="11" Cut="-1.9959253259003162e-03" cType="1" res="-1.4824572019279003e-02" rms="3.8286054134368896e-01" purity="4.5682102441787720e-01" nType="0">
          <Node pos="l" depth="2" NCoef="0" IVar="-1" Cut="0.0000000000000000e+00" cType="1" res="9.1667976230382919e-03" rms="4.0611952543258667e-01" purity="5.8278006315231323e-01" nType="-99"/>
          <Node pos="r" depth="2" NCoef="0" IVar="-1" Cut="0.0000000000000000e+00" cType="1" res="-1.4762913808226585e-02" rms="3.5888361930847168e-01" purity="3.6067023873329163e-01" nType="-99"/>
        </Node>
        <Node pos="r" depth="1" NCoef="0" IVar="7" Cut="1.2524995803833008e+00" cType="1" res="1.0780606418848038e-01" rms="3.5251870751380920e-01" purity="7.6727801561355591e-01" nType="0">
          <Node pos="l" depth="2" NCoef="0" IVar="-1" Cut="0.0000000000000000e+00" cType="1" res="2.0520800724625587e-02" rms="3.7125808000564575e-01" purity="7.2620081901550293e-01" nType="-99"/>
          <Node pos="r" depth="2" NCoef="0" IVar="-1" Cut="0.0000000000000000e+00" cType="1" res="4.5756392180919647e-02" rms="2.8763321042060852e-01" purity="8.7257713079452515e-01" nType="-99"/>
        </Node>
      </Node>
    </BinaryTree>
    <BinaryTree type="DecisionTree" boostWeight="1.0000000000000000e+00" itree="47">
      <Node pos="s" depth="0" NCoef="0" IVar="12" Cut="5.3651750087738037e-01" cType="1" res="2.9948399969725870e-05" rms="3.7971594929695129e-01" purity="4.9828922748565674e-01" nType="0">
        <Node pos="l" depth="1" NCoef="0" IVar="15" Cut="-6.9176413118839264e-02" cType="1" res="1.9839432090520859e-02" rms="3.8166600465774536e-01" purity="5.4558742046356201e-01" nType="0">
          <Node pos="l" depth="2" NCoef="0" IVar="-1" Cut="0.0000000000000000e+00" cType="1" res="3.5075329244136810e-02" rms="3.1323149800300598e-01" purity="8.3989840745925903e-01" nType="-99"/>
          <Node pos="r" depth="2" NCoef="0" IVar="-1" Cut="0.0000000000000000e+00" cType="1" res="1.5123797347769141e-03" rms="3.8714143633842468e-01" purity="5.0882220268249512e-01" nType="-99"/>
        </Node>
        <Node pos="r" depth="1" NCoef="0" IVar="7" Cut="7.2504478693008423e-01" cType="1" res="-9.8492823541164398e-02" rms="3.5375332832336426e-01" purity="2.6305133104324341e-01" nType="0">
          <Node pos="l" depth="2" NCoef="0" IVar="-1" Cut="0.0000000000000000e+00" cType="1" res="-3.1411729753017426e-02" rms="3.4080412983894348e-01" purity="2.0917412638664246e-01" nType="-99"/>
          <Node pos="r" depth="2" NCoef="0" IVar="-1" Cut="0.0000000000000000e+00" cType="1" res="1.0090678697451949e-03" rms="4.0283229947090149e-01" purity="5.6022298336029053e-01" nType="-99"/>
        </Node>
      </Node>
    </BinaryTree>
    <BinaryTree type="DecisionTree" boostWeight="1.0000000000000000e+00" itree="48">
      <Node pos="s" depth="0" NCoef="0" IVar="12" Cut="2.5552231073379517e-01" cType="1" res="-3.9965119212865829e-03" rms="3.8232156634330750e-01" purity="4.9559342861175537e-01" nType="0">
        <Node pos="l" depth="1" NCoef="0" IVar="12" Cut="9.7338974475860596e-02" cType="1" res="6.0427859425544739e-02" rms="3.6815464496612549e-01" purity="6.6775310039520264e-01" nType="0">
          <Node pos="l" depth="2" NCoef="0" IVar="-1" Cut="0.0000000000000000e+00" cType="1" res="4.8908486962318420e-02" rms="3.1059142947196960e-01" purity="8.3704155683517456e-01" nType="-99"/>
          <Node pos="r" depth="2" NCoef="0" IVar="-1" Cut="0.0000000000000000e+00" cType="1" res="1.0306823067367077e-02" rms="3.7296426296234131e-01" purity="6.3923299312591553e-01" nType="-99"/>
        </Node>
        <Node pos="r" depth="1" NCoef="0" IVar="6" Cut="1.7004981637001038e-01" cType="1" res="-2.8628826141357422e-02" rms="3.8476118445396423e-01" purity="4.2976915836334229e-01" nType="0">
          <Node pos="l" depth="2" NCoef="0" IVar="-1" Cut="0.0000000000000000e+00" cType="1" res="-2.1521445363759995e-02" rms="3.6574536561965942e-01" purity="3.0014568567276001e-01" nType="-99"/>
          <Node pos="r" depth="2" NCoef="0" IVar="-1" Cut="0.0000000000000000e+00" cType="1" res="1.9024953944608569e-03" rms="3.9320760965347290e-01" purity="5.1872086524963379e-01" nType="-99"/>
        </Node>
      </Node>
    </BinaryTree>
    <BinaryTree type="DecisionTree" boostWeight="1.0000000000000000e+00" itree="49">
      <Node pos="s" depth="0" NCoef="0" IVar="4" Cut="1.7691736221313477e+00" cType="1" res="-3.6949636414647102e-03" rms="3.7895363569259644e-01" purity="4.9675631523132324e-01" nType="0">
        <Node pos="l" depth="1" NCoef="0" IVar="7" Cut="3.1112614274024963e-01" cType="1" res="-1.2849270366132259e-02" rms="3.7990885972976685e-01" purity="4.7836655378341675e-01" nType="0">
          <Node pos="l" depth="2" NCoef="0" IVar="-1" Cut="0.0000000000000000e+00" cType="1" res="-1.2419757433235645e-02" rms="3.7516289949417114e-01" purity="3.8192424178123474e-01" nType="-99"/>
          <Node pos="r" depth="2" NCoef="0" IVar="-1" Cut="0.0000000000000000e+00" cType="1" res="9.0798698365688324e-03" rms="3.8124844431877136e-01" purity="6.1472439765930176e-01" nType="-99"/>
        </Node>
        <Node pos="r" depth="1" NCoef="0" IVar="-1" Cut="0.0000000000000000e+00" cType="1" res="4.1655387729406357e-02" rms="3.1805267930030823e-01" purity="8.3131629228591919e-01" nType="-99"/>
      </Node>
    </BinaryTree>
    <BinaryTree type="DecisionTree" boostWeight="1.0000000000000000e+00" itree="50">
      <Node pos="s" depth="0" NCoef="0" IVar="9" Cut="4.5054557919502258e-01" cType="1" res="-1.6977557679638267e-03" rms="3.7673553824424744e-01" purity="4.9653488397598267e-01" nType="0">
        <Node pos="l" depth="1" NCoef="0" IVar="11" Cut="2.9825558885931969e-02" cType="1" res="3.1277917325496674e-02" rms="3.7735629081726074e-01" purity="5.7761371135711670e-01" nType="0">
          <Node pos="l" depth="2" NCoef="0" IVar="-1" Cut="0.0000000000000000e+00" cType="1" res="1.6086926683783531e-02" rms="3.8584473729133606e-01" purity="6.6402196884155273e-01" nType="-99"/>
          <Node pos="r" depth="2" NCoef="0" IVar="-1" Cut="0.0000000000000000e+00" cType="1" res="-4.0412200614809990e-03" rms="3.5992470383644104e-01" purity="4.5481497049331665e-01" nType="-99"/>
        </Node>
        <Node pos="r" depth="1" NCoef="0" IVar="21" Cut="1.0254254341125488e+00" cType="1" res="-4.6090096235275269e-02" rms="3.7130168080329895e-01" purity="3.8738524913787842e-01" nType="0">
          <Node pos="l" depth="2" NCoef="0" IVar="-1" Cut="0.0000000000000000e+00" cType="1" res="-7.4744801968336105e-03" rms="3.7480154633522034e-01" purity="4.1595438122749329e-01" nType="-99"/>
          <Node pos="r" depth="2" NCoef="0" IVar="-1" Cut="0.0000000000000000e+00" cType="1" res="-3.7085141986608505e-02" rms="3.3702060580253601e-01" purity="2.3448707163333893e-01" nType="-99"/>
        </Node>
      </Node>
    </BinaryTree>
    <BinaryTree type="DecisionTree" boostWeight="1.0000000000000000e+00" itree="51">
      <Node pos="s" depth="0" NCoef="0" IVar="9" Cut="5.2902513742446899e-01" cType="1" res="2.8599400538951159e-03" rms="3.7612733244895935e-01" purity="5.0393205881118774e-01" nType="0">
        <Node pos="l" depth="1" NCoef="0" IVar="13" Cut="1.2591348588466644e-01" cType="1" res="3.3384136855602264e-02" rms="3.7623673677444458e-01" purity="5.8065235614776611e-01" nType="0">
          <Node pos="l" depth="2" NCoef="0" IVar="-1" Cut="0.0000000000000000e+00" cType="1" res="1.2449502013623714e-02" rms="3.7768799066543579e-01" purity="6.1996251344680786e-01" nType="-99"/>
          <Node pos="r" depth="2" NCoef="0" IVar="-1" Cut="0.0000000000000000e+00" cType="1" res="-2.1569417789578438e-02" rms="3.4486159682273865e-01" purity="2.8591620922088623e-01" nType="-99"/>
        </Node>
        <Node pos="r" depth="1" NCoef="0" IVar="15" Cut="-4.3734293431043625e-02" cType="1" res="-5.1938075572252274e-02" rms="3.6966001987457275e-01" purity="3.6620140075683594e-01" nType="0">
          <Node pos="l" depth="2" NCoef="0" IVar="-1" Cut="0.0000000000000000e+00" cType="1" res="1.1402168311178684e-02" rms="3.8215261697769165e-01" purity="6.5379571914672852e-01" nType="-99"/>
          <Node pos="r" depth="2" NCoef="0" IVar="-1" Cut="0.0000000000000000e+00" cType="1" res="-1.8595091998577118e-02" rms="3.6443230509757996e-01" purity="3.1302309036254883e-01" nType="-99"/>
        </Node>
      </Node>
    </BinaryTree>
    <BinaryTree type="DecisionTree" boostWeight="1.0000000000000000e+00" itree="52">
      <Node pos="s" depth="0" NCoef="0" IVar="22" Cut="-4.2853334546089172e-01" cType="1" res="2.3327674716711044e-03" rms="3.7681353092193604e-01" purity="5.0629925727844238e-01" nType="0">
        <Node pos="l" depth="1" NCoef="0" IVar="5" Cut="4.5270141959190369e-01" cType="1" res="4.8868350684642792e-02" rms="3.8617217540740967e-01" purity="6.1622393131256104e-01" nType="0">
          <Node pos="l" depth="2" NCoef="0" IVar="-1" Cut="0.0000000000000000e+00" cType="1" res="3.4118061885237694e-03" rms="3.9198526740074158e-01" purity="5.3575557470321655e-01" nType="-99"/>
          <Node pos="r" depth="2" NCoef="0" IVar="-1" Cut="0.0000000000000000e+00" cType="1" res="2.4810917675495148e-02" rms="3.7255361676216125e-01" purity="7.2717660665512085e-01" nType="-99"/>
        </Node>
        <Node pos="r" depth="1" NCoef="0" IVar="22" Cut="3.1981563568115234e-01" cType="1" res="-2.6338916271924973e-02" rms="3.6801180243492126e-01" purity="4.3857210874557495e-01" nType="0">
          <Node pos="l" depth="2" NCoef="0" IVar="-1" Cut="0.0000000000000000e+00" cType="1" res="-4.0876016020774841e-02" rms="2.9231074452400208e-01" purity="1.3901618123054504e-01" nType="-99"/>
          <Node pos="r" depth="2" NCoef="0" IVar="-1" Cut="0.0000000000000000e+00" cType="1" res="8.2340212538838387e-03" rms="3.8822099566459656e-01" purity="5.9090584516525269e-01" nType="-99"/>
        </Node>
      </Node>
    </BinaryTree>
    <BinaryTree type="DecisionTree" boostWeight="1.0000000000000000e+00" itree="53">
      <Node pos="s" depth="0" NCoef="0" IVar="4" Cut="1.9364826679229736e+00" cType="1" res="-8.9562447101343423e-05" rms="3.7404042482376099e-01" purity="5.0164532661437988e-01" nType="0">
        <Node pos="l" depth="1" NCoef="0" IVar="16" Cut="-9.5093645155429840e-02" cType="1" res="-8.0684283748269081e-03" rms="3.7474149465560913e-01" purity="4.8536050319671631e-01" nType="0">
          <Node pos="l" depth="2" NCoef="0" IVar="-1" Cut="0.0000000000000000e+00" cType="1" res="4.5833002775907516e-02" rms="3.6344185471534729e-01" purity="7.1711981296539307e-01" nType="-99"/>
          <Node pos="r" depth="2" NCoef="0" IVar="-1" Cut="0.0000000000000000e+00" cType="1" res="-4.1414326988160610e-03" rms="3.7314039468765259e-01" purity="4.7630360722541809e-01" nType="-99"/>
        </Node>
        <Node pos="r" depth="1" NCoef="0" IVar="-1" Cut="0.0000000000000000e+00" cType="1" res="4.8257656395435333e-02" rms="3.0476224422454834e-01" purity="8.7531983852386475e-01" nType="-99"/>
      </Node>
    </BinaryTree>
    <BinaryTree type="DecisionTree" boostWeight="1.0000000000000000e+00" itree="54">
      <Node pos="s" depth="0" NCoef="0" IVar="21" Cut="1.0111547708511353e+00" cType="1" res="-1.5504316252190620e-04" rms="3.7454283237457275e-01" purity="5.0005781650543213e-01" nType="0">
        <Node pos="l" depth="1" NCoef="0" IVar="21" Cut="1.0080943107604980e+00" cType="1" res="-1.4694908261299133e-01" rms="3.1977650523185730e-01" purity="1.8586897850036621e-01" nType="0">
          <Node pos="l" depth="2" NCoef="0" IVar="-1" Cut="0.0000000000000000e+00" cType="1" res="-5.3531680256128311e-02" rms="2.7212357521057129e-01" purity="1.2918280065059662e-01" nType="-99"/>
          <Node pos="r" depth="2" NCoef="0" IVar="-1" Cut="0.0000000000000000e+00" cType="1" res="-3.0087668448686600e-02" rms="3.5526806116104126e-01" purity="2.4006710946559906e-01" nType="-99"/>
        </Node>
        <Node pos="r" depth="1" NCoef="0" IVar="21" Cut="1.0285624265670776e+00" cType="1" res="8.4800841286778450e-03" rms="3.7573531270027161e-01" purity="5.1853990554809570e-01" nType="0">
          <Node pos="l" depth="2" NCoef="0" IVar="-1" Cut="0.0000000000000000e+00" cType="1" res="4.9618547782301903e-03" rms="3.7638029456138611e-01" purity="5.3780716657638550e-01" nType="-99"/>
          <Node pos="r" depth="2" NCoef="0" IVar="-1" Cut="0.0000000000000000e+00" cType="1" res="-3.2968040555715561e-02" rms="3.4203365445137024e-01" purity="2.7999955415725708e-01" nType="-99"/>
        </Node>
      </Node>
    </BinaryTree>
    <BinaryTree type="DecisionTree" boostWeight="1.0000000000000000e+00" itree="55">
      <Node pos="s" depth="0" NCoef="0" IVar="12" Cut="1.6095523536205292e-01" cType="1" res="-1.6465684166178107e-03" rms="3.7329816818237305e-01" purity="4.9788016080856323e-01" nType="0">
        <Node pos="l" depth="1" NCoef="0" IVar="16" Cut="-3.3963818103075027e-02" cType="1" res="1.0202619433403015e-01" rms="3.3918428421020508e-01" purity="7.5306409597396851e-01" nType="0">
          <Node pos="l" depth="2" NCoef="0" IVar="-1" Cut="0.0000000000000000e+00" cType="1" res="4.2275395244359970e-02" rms="3.3271682262420654e-01" purity="8.2353460788726807e-01" nType="-99"/>
          <Node pos="r" depth="2" NCoef="0" IVar="-1" Cut="0.0000000000000000e+00" cType="1" res="2.1371144801378250e-02" rms="3.3845695853233337e-01" purity="7.2354912757873535e-01" nType="-99"/>
        </Node>
        <Node pos="r" depth="1" NCoef="0" IVar="7" Cut="1.0529960393905640e+00" cType="1" res="-1.4354917220771313e-02" rms="3.7530243396759033e-01" purity="4.6659940481185913e-01" nType="0">
          <Node pos="l" depth="2" NCoef="0" IVar="-1" Cut="0.0000000000000000e+00" cType="1" res="-6.6305431537330151e-03" rms="3.7636104226112366e-01" purity="4.3778467178344727e-01" nType="-99"/>
          <Node pos="r" depth="2" NCoef="0" IVar="-1" Cut="0.0000000000000000e+00" cType="1" res="3.1778983771800995e-02" rms="3.3460623025894165e-01" purity="8.2105565071105957e-01" nType="-99"/>
        </Node>
      </Node>
    </BinaryTree>
    <BinaryTree type="DecisionTree" boostWeight="1.0000000000000000e+00" itree="56">
      <Node pos="s" depth="0" NCoef="0" IVar="6" Cut="3.6481148004531860e-01" cType="1" res="-6.3078579842112958e-05" rms="3.7398239970207214e-01" purity="4.9994620680809021e-01" nType="0">
        <Node pos="l" depth="1" NCoef="0" IVar="11" Cut="-5.2489485591650009e-02" cType="1" res="-3.3894453197717667e-02" rms="3.6986494064331055e-01" purity="4.0185233950614929e-01" nType="0">
          <Node pos="l" depth="2" NCoef="0" IVar="-1" Cut="0.0000000000000000e+00" cType="1" res="1.3519263826310635e-02" rms="3.9806228876113892e-01" purity="6.1274993419647217e-01" nType="-99"/>
          <Node pos="r" depth="2" NCoef="0" IVar="-1" Cut="0.0000000000000000e+00" cType="1" res="-1.5451470389962196e-02" rms="3.5886287689208984e-01" purity="3.4786829352378845e-01" nType="-99"/>
        </Node>
        <Node pos="r" depth="1" NCoef="0" IVar="5" Cut="6.7905217409133911e-01" cType="1" res="4.6047683805227280e-02" rms="3.7463453412055969e-01" purity="6.3364410400390625e-01" nType="0">
          <Node pos="l" depth="2" NCoef="0" IVar="-1" Cut="0.0000000000000000e+00" cType="1" res="5.0679096020758152e-03" rms="3.8581103086471558e-01" purity="5.7169091701507568e-01" nType="-99"/>
          <Node pos="r" depth="2" NCoef="0" IVar="-1" Cut="0.0000000000000000e+00" cType="1" res="3.0052468180656433e-02" rms="3.3540928363800049e-01" purity="7.9115366935729980e-01" nType="-99"/>
        </Node>
      </Node>
    </BinaryTree>
    <BinaryTree type="DecisionTree" boostWeight="1.0000000000000000e+00" itree="57">
      <Node pos="s" depth="0" NCoef="0" IVar="8" Cut="4.5380404591560364e-01" cType="1" res="2.6321203913539648e-03" rms="3.7503632903099060e-01" purity="4.9835526943206787e-01" nType="0">
        <Node pos="l" depth="1" NCoef="0" IVar="12" Cut="3.7340700626373291e-01" cType="1" res="-1.1120285838842392e-02" rms="3.7304505705833435e-01" purity="4.7655794024467468e-01" nType="0">
          <Node pos="l" depth="2" NCoef="0" IVar="-1" Cut="0.0000000000000000e+00" cType="1" res="5.8809914626181126e-03" rms="3.7227115035057068e-01" purity="5.8615303039550781e-01" nType="-99"/>
          <Node pos="r" depth="2" NCoef="0" IVar="-1" Cut="0.0000000000000000e+00" cType="1" res="-1.3885437510907650e-02" rms="3.7000101804733276e-01" purity="3.4322676062583923e-01" nType="-99"/>
        </Node>
        <Node pos="r" depth="1" NCoef="0" IVar="11" Cut="3.3478796482086182e-02" cType="1" res="8.7700247764587402e-02" rms="3.7611198425292969e-01" purity="6.3318675756454468e-01" nType="0">
          <Node pos="l" depth="2" NCoef="0" IVar="-1" Cut="0.0000000000000000e+00" cType="1" res="3.3795483410358429e-02" rms="3.6499744653701782e-01" purity="7.4363785982131958e-01" nType="-99"/>
          <Node pos="r" depth="2" NCoef="0" IVar="-1" Cut="0.0000000000000000e+00" cType="1" res="5.6735370308160782e-03" rms="3.8091880083084106e-01" purity="4.8285558819770813e-01" nType="-99"/>
        </Node>
      </Node>
    </BinaryTree>
    <BinaryTree type="DecisionTree" boostWeight="1.0000000000000000e+00" itree="58">
      <Node pos="s" depth="0" NCoef="0" IVar="12" Cut="5.1104462146759033e-01" cType="1" res="3.0291642178781331e-04" rms="3.7196817994117737e-01" purity="4.9735707044601440e-01" nType="0">
        <Node pos="l" depth="1" NCoef="0" IVar="5" Cut="4.5270141959190369e-01" cType="1" res="1.9549543038010597e-02" rms="3.7361919879913330e-01" purity="5.5456995964050293e-01" nType="0">
          <Node pos="l" depth="2" NCoef="0" IVar="-1" Cut="0.0000000000000000e+00" cType="1" res="-3.2749951351433992e-03" rms="3.7449073791503906e-01" purity="4.6769464015960693e-01" nType="-99"/>
          <Node pos="r" depth="2" NCoef="0" IVar="-1" Cut="0.0000000000000000e+00" cType="1" res="1.7483407631516457e-02" rms="3.6741742491722107e-01" purity="6.8136358261108398e-01" nType="-99"/>
        </Node>
        <Node pos="r" depth="1" NCoef="0" IVar="8" Cut="5.0403213500976562e-01" cType="1" res="-7.3352903127670288e-02" rms="3.5609921813011169e-01" purity="2.7840641140937805e-01" nType="0">
          <Node pos="l" depth="2" NCoef="0" IVar="-1" Cut="0.0000000000000000e+00" cType="1" res="-2.5264900177717209e-02" rms="3.4587708115577698e-01" purity="2.4888627231121063e-01" nType="-99"/>
          <Node pos="r" depth="2" NCoef="0" IVar="-1" Cut="0.0000000000000000e+00" cType="1" res="1.1226644739508629e-02" rms="4.0080118179321289e-01" purity="4.8334762454032898e-01" nType="-99"/>
        </Node>
      </Node>
    </BinaryTree>
    <BinaryTree type="DecisionTree" boostWeight="1.0000000000000000e+00" itree="59">
      <Node pos="s" depth="0" NCoef="0" IVar="7" Cut="3.1112614274024963e-01" cType="1" res="2.5429134257137775e-03" rms="3.7244737148284912e-01" purity="5.0359022617340088e-01" nType="0">
        <Node pos="l" depth="1" NCoef="0" IVar="5" Cut="1.3581043481826782e+00" cType="1" res="-2.7144432067871094e-02" rms="3.6886739730834961e-01" purity="4.1481992602348328e-01" nType="0">
          <Node pos="l" depth="2" NCoef="0" IVar="-1" Cut="0.0000000000000000e+00" cType="1" res="-1.0831736028194427e-02" rms="3.6947911977767944e-01" purity="3.8103392720222473e-01" nType="-99"/>
          <Node pos="r" depth="2" NCoef="0" IVar="-1" Cut="0.0000000000000000e+00" cType="1" res="3.4920208156108856e-02" rms="3.2348218560218811e-01" purity="8.2190847396850586e-01" nType="-99"/>
        </Node>
        <Node pos="r" depth="1" NCoef="0" IVar="21" Cut="1.0126758813858032e+00" cType="1" res="4.4827956706285477e-02" rms="3.7343510985374451e-01" purity="6.3002973794937134e-01" nType="0">
          <Node pos="l" depth="2" NCoef="0" IVar="-1" Cut="0.0000000000000000e+00" cType="1" res="-2.9047515243291855e-02" rms="3.8104200363159180e-01" purity="3.0697998404502869e-01" nType="-99"/>
          <Node pos="r" depth="2" NCoef="0" IVar="-1" Cut="0.0000000000000000e+00" cType="1" res="1.4816476963460445e-02" rms="3.7026253342628479e-01" purity="6.5363723039627075e-01" nType="-99"/>
        </Node>
      </Node>
    </BinaryTree>
    <BinaryTree type="DecisionTree" boostWeight="1.0000000000000000e+00" itree="60">
      <Node pos="s" depth="0" NCoef="0" IVar="7" Cut="4.4809058308601379e-01" cType="1" res="1.3061935314908624e-03" rms="3.7175366282463074e-01" purity="5.0310981273651123e-01" nType="0">
        <Node pos="l" depth="1" NCoef="0" IVar="3" Cut="2.0354773998260498e+00" cType="1" res="-2.1194968372583389e-02" rms="3.7228566408157349e-01" purity="4.2505374550819397e-01" nType="0">
          <Node pos="l" depth="2" NCoef="0" IVar="-1" Cut="0.0000000000000000e+00" cType="1" res="-9.1112032532691956e-03" rms="3.7316295504570007e-01" purity="3.9407286047935486e-01" nType="-99"/>
          <Node pos="r" depth="2" NCoef="0" IVar="-1" Cut="0.0000000000000000e+00" cType="1" res="2.9693981632590294e-02" rms="3.3466225862503052e-01" purity="7.6207846403121948e-01" nType="-99"/>
        </Node>
        <Node pos="r" depth="1" NCoef="0" IVar="11" Cut="1.6062572598457336e-01" cType="1" res="5.0182029604911804e-02" rms="3.6585846543312073e-01" purity="6.7265909910202026e-01" nType="0">
          <Node pos="l" depth="2" NCoef="0" IVar="-1" Cut="0.0000000000000000e+00" cType="1" res="1.6643237322568893e-02" rms="3.6562290787696838e-01" purity="7.1263563632965088e-01" nType="-99"/>
          <Node pos="r" depth="2" NCoef="0" IVar="-1" Cut="0.0000000000000000e+00" cType="1" res="-2.4533309042453766e-02" rms="3.3927211165428162e-01" purity="2.3888258635997772e-01" nType="-99"/>
        </Node>
      </Node>
    </BinaryTree>
    <BinaryTree type="DecisionTree" boostWeight="1.0000000000000000e+00" itree="61">
      <Node pos="s" depth="0" NCoef="0" IVar="6" Cut="3.2299154996871948e-01" cType="1" res="-3.4468004014343023e-04" rms="3.6978915333747864e-01" purity="4.9953606724739075e-01" nType="0">
        <Node pos="l" depth="1" NCoef="0" IVar="12" Cut="1.0730349272489548e-01" cType="1" res="-3.0821967869997025e-02" rms="3.6288341879844666e-01" purity="4.0430676937103271e-01" nType="0">
          <Node pos="l" depth="2" NCoef="0" IVar="-1" Cut="0.0000000000000000e+00" cType="1" res="4.0822565555572510e-02" rms="3.1049510836601257e-01" purity="7.8740251064300537e-01" nType="-99"/>
